svm_type c_svc
kernel_type rbf
gamma 2.6219192448872575E-4
nr_class 3
total_sv 887
rho 0.5034254654946085 1.2821918402609207 -2.6827787024583105
label -1 0 1
nr_sv 303 261 323
SV
65.35948780323491 58.45954011782384 1:-0.6250000000000001 2:1.0 3:1.0 4:1.0 5:1.0 6:1.0 7:1.0 8:1.0 
21.596104972003776 15.949187530500659 1:-0.25 9:1.0 10:1.0 11:1.0 12:1.0 13:1.0 14:1.0 15:1.0 16:3.0 17:1.0 18:2.0 19:1.0 20:1.0 21:2.0 22:1.0 23:1.0 24:1.0 25:2.0 26:3.0 27:1.0 28:1.0 29:2.0 30:2.0 31:1.0 32:1.0 33:1.0 34:1.0 35:1.0 36:2.0 37:1.0 38:1.0 39:1.0 40:1.0 41:1.0 42:1.0 43:1.0 44:1.0 45:1.0 46:1.0 47:1.0 48:1.0 49:1.0 50:1.0 51:1.0 52:1.0 53:1.0 54:1.0 55:1.0 56:1.0 57:1.0 58:1.0 59:1.0 8:1.0 60:1.0 61:1.0 62:1.0 63:1.0 
22.20160773868376 0.0 1:-0.75 49:4.0 64:1.0 24:2.0 65:1.0 36:1.0 66:1.0 67:1.0 8:1.0 
28.207974648518096 24.42186993135623 1:-0.5 68:1.0 69:1.0 70:1.0 71:2.0 72:1.0 73:1.0 74:1.0 75:1.0 76:1.0 77:1.0 78:1.0 35:1.0 79:1.0 8:2.0 80:1.0 81:1.0 82:1.0 83:1.0 51:1.0 84:1.0 27:1.0 85:1.0 86:1.0 87:1.0 88:1.0 89:1.0 
5.122374467295761 0.0 1:-0.75 90:2.0 91:1.0 92:1.0 24:5.0 93:1.0 94:1.0 95:1.0 96:1.0 97:2.0 25:1.0 98:1.0 99:1.0 100:1.0 101:1.0 36:3.0 102:1.0 35:1.0 81:1.0 103:3.0 104:1.0 105:1.0 106:1.0 107:1.0 108:1.0 109:1.0 110:1.0 2:1.0 111:1.0 61:2.0 112:1.0 113:1.0 114:1.0 115:1.0 116:1.0 117:1.0 118:1.0 119:1.0 120:1.0 121:1.0 55:1.0 44:1.0 
90.0 40.59527892716717 1:-100.0 122:2.0 123:1.0 124:1.0 125:1.0 126:1.0 49:1.0 127:1.0 30:1.0 128:1.0 36:1.0 
90.0 90.0 1:-100.0 129:1.0 130:1.0 58:1.0 36:1.0 
90.0 90.0 1:-100.0 131:1.0 105:1.0 4:1.0 46:1.0 
28.605721095036575 27.022723366364577 1:-0.625 132:1.0 88:1.0 133:1.0 134:1.0 135:1.0 136:1.0 137:1.0 30:1.0 24:1.0 138:1.0 139:1.0 140:1.0 141:1.0 142:1.0 143:2.0 144:1.0 34:1.0 36:1.0 
52.42968806679151 31.04472117328809 1:-0.625 133:2.0 145:1.0 137:1.0 146:1.0 147:1.0 148:1.0 61:1.0 149:1.0 76:1.0 8:1.0 
40.02915346395955 56.51258238997761 1:-0.5 150:1.0 35:1.0 151:1.0 70:1.0 152:1.0 119:1.0 153:1.0 154:1.0 4:1.0 46:1.0 
90.0 90.0 1:0.7500000000000001 155:1.0 70:2.0 156:1.0 157:1.0 105:1.0 24:1.0 100:1.0 158:1.0 159:1.0 160:1.0 161:1.0 162:1.0 163:1.0 164:1.0 165:1.0 166:1.0 167:1.0 168:1.0 
35.60075779002499 46.448835760853186 1:0.12500000000000006 169:1.0 105:2.0 24:4.0 170:1.0 146:2.0 12:1.0 171:2.0 16:1.0 172:1.0 173:1.0 174:1.0 175:1.0 163:1.0 176:1.0 165:1.0 122:1.0 49:1.0 30:1.0 155:1.0 156:1.0 70:1.0 158:1.0 177:1.0 178:1.0 179:1.0 180:1.0 181:1.0 
25.654711388274297 53.1776685156587 1:-0.25000000000000006 182:2.0 183:1.0 76:1.0 184:1.0 185:1.0 186:1.0 56:1.0 25:1.0 187:1.0 188:1.0 189:2.0 190:2.0 16:1.0 191:1.0 192:1.0 36:3.0 193:1.0 194:1.0 195:1.0 196:1.0 197:1.0 166:1.0 27:1.0 8:1.0 
90.0 90.0 1:-100.0 198:1.0 105:1.0 199:1.0 
30.979147445450806 29.592798423997 1:-0.3125 200:1.0 195:1.0 201:1.0 90:1.0 202:1.0 203:1.0 46:1.0 204:1.0 24:3.0 205:1.0 206:1.0 26:1.0 207:3.0 53:1.0 208:1.0 209:1.0 210:1.0 211:1.0 212:1.0 213:1.0 86:1.0 214:1.0 148:1.0 215:1.0 216:1.0 25:1.0 61:1.0 217:1.0 
22.12172773126958 21.33968347372391 1:2.7755575615628914E-17 144:1.0 218:1.0 188:2.0 219:2.0 78:1.0 220:1.0 24:4.0 221:1.0 35:2.0 222:1.0 223:1.0 224:2.0 25:1.0 36:3.0 225:1.0 155:1.0 226:2.0 27:1.0 146:1.0 227:1.0 119:1.0 49:1.0 228:2.0 44:1.0 214:2.0 229:1.0 61:1.0 200:1.0 195:1.0 181:1.0 230:1.0 55:1.0 231:1.0 232:1.0 233:1.0 138:1.0 234:1.0 235:1.0 38:1.0 236:1.0 237:1.0 131:1.0 
23.417551235549787 38.34196365858348 1:-0.375 238:2.0 27:2.0 17:1.0 239:1.0 21:1.0 49:1.0 240:1.0 241:1.0 242:1.0 243:1.0 244:1.0 245:1.0 35:1.0 246:1.0 247:1.0 248:1.0 119:1.0 8:1.0 200:1.0 201:1.0 249:1.0 181:1.0 24:1.0 211:1.0 212:1.0 36:1.0 
6.760759125090119 8.365104480429153 1:-0.4375 238:3.0 250:1.0 246:4.0 221:1.0 251:2.0 252:1.0 86:1.0 253:1.0 254:1.0 193:1.0 121:1.0 255:1.0 24:1.0 241:1.0 256:1.0 257:1.0 258:1.0 55:1.0 189:2.0 190:2.0 259:2.0 15:1.0 260:2.0 261:1.0 122:2.0 30:1.0 262:1.0 232:1.0 263:1.0 230:1.0 264:1.0 36:1.0 265:1.0 25:1.0 28:1.0 266:1.0 166:1.0 267:1.0 268:1.0 269:1.0 270:1.0 8:2.0 145:1.0 34:1.0 271:1.0 17:1.0 249:1.0 272:1.0 
27.548125285334127 5.703937854705387 1:-0.75 78:1.0 220:1.0 8:1.0 273:1.0 274:1.0 275:1.0 
20.471796801532385 0.0 1:-0.75 78:1.0 220:1.0 28:1.0 276:1.0 277:1.0 278:1.0 279:1.0 8:1.0 
31.67371270279828 39.34357768498565 1:-0.625 122:1.0 280:1.0 199:1.0 76:2.0 95:1.0 219:1.0 281:1.0 34:1.0 
36.08778130758463 7.104672643331166 1:-100.0 127:1.0 282:1.0 283:1.0 284:7.0 285:1.0 286:1.0 287:2.0 24:1.0 288:1.0 289:3.0 95:1.0 290:1.0 291:1.0 292:1.0 293:1.0 294:1.0 295:1.0 296:1.0 36:1.0 
60.157981810370316 29.587657392763475 1:-0.625 188:1.0 297:1.0 280:1.0 35:1.0 298:1.0 148:1.0 299:1.0 185:1.0 254:1.0 
24.755550271593922 33.31354367286676 1:-0.09375 300:1.0 301:1.0 24:2.0 302:1.0 209:1.0 55:1.0 36:2.0 215:1.0 303:3.0 304:3.0 305:1.0 306:1.0 307:1.0 88:2.0 15:1.0 308:1.0 297:1.0 309:1.0 230:1.0 195:1.0 122:1.0 61:1.0 310:1.0 311:1.0 90:1.0 38:1.0 279:1.0 27:1.0 49:1.0 91:1.0 312:1.0 313:1.0 314:1.0 
30.408999901453647 54.59672231408944 1:-0.5 177:1.0 313:1.0 315:1.0 316:1.0 105:1.0 317:1.0 318:1.0 319:1.0 320:1.0 88:1.0 321:1.0 322:1.0 36:1.0 
90.0 90.0 1:0.625 323:1.0 324:1.0 325:2.0 146:1.0 326:1.0 271:1.0 327:1.0 233:1.0 232:1.0 328:1.0 90:1.0 329:1.0 24:1.0 330:1.0 331:1.0 185:1.0 332:1.0 135:1.0 333:1.0 334:1.0 36:1.0 
90.0 50.716562989451255 1:-100.0 335:1.0 100:1.0 336:1.0 49:1.0 337:1.0 14:2.0 36:1.0 189:1.0 
5.818098089566542 6.639284103153516 1:-0.041666666666666664 338:1.0 339:1.0 340:1.0 35:2.0 341:1.0 342:1.0 185:3.0 343:2.0 274:1.0 344:1.0 122:2.0 345:1.0 25:2.0 24:7.0 193:1.0 16:2.0 83:1.0 346:1.0 200:3.0 347:1.0 257:2.0 348:1.0 55:1.0 349:1.0 205:1.0 350:1.0 36:3.0 351:1.0 352:1.0 353:1.0 354:1.0 355:1.0 47:1.0 49:2.0 356:1.0 357:1.0 214:1.0 358:1.0 44:1.0 38:3.0 359:2.0 124:1.0 360:1.0 361:1.0 195:3.0 362:1.0 363:1.0 364:1.0 365:1.0 366:1.0 4:1.0 367:1.0 368:1.0 369:1.0 146:3.0 370:1.0 197:1.0 371:1.0 372:1.0 228:1.0 373:2.0 374:2.0 71:1.0 46:2.0 375:1.0 53:2.0 199:2.0 376:1.0 377:2.0 378:3.0 379:2.0 380:5.0 381:2.0 382:1.0 383:1.0 384:1.0 385:1.0 207:1.0 85:3.0 196:1.0 386:1.0 230:2.0 387:1.0 110:1.0 388:1.0 218:2.0 389:1.0 390:1.0 391:1.0 242:1.0 392:1.0 39:1.0 393:1.0 394:1.0 395:1.0 126:1.0 396:1.0 34:2.0 397:1.0 253:1.0 292:1.0 398:1.0 399:1.0 400:1.0 401:1.0 402:1.0 403:1.0 404:1.0 187:1.0 88:1.0 127:1.0 405:1.0 406:1.0 61:1.0 189:2.0 190:2.0 407:1.0 408:1.0 409:1.0 107:1.0 410:1.0 
90.0 51.7278700306488 1:-100.0 411:1.0 412:1.0 124:1.0 148:1.0 413:1.0 414:1.0 58:1.0 4:1.0 415:1.0 
11.06028029749044 0.0 1:-0.75 70:1.0 416:1.0 176:1.0 417:1.0 98:1.0 418:1.0 90:1.0 419:1.0 420:1.0 88:1.0 421:1.0 89:1.0 16:1.0 422:1.0 423:1.0 27:1.0 55:1.0 24:1.0 49:1.0 424:1.0 279:1.0 4:1.0 53:2.0 
46.95012264392065 37.64460834535399 1:-0.5 425:1.0 426:1.0 24:1.0 86:1.0 427:1.0 428:1.0 297:1.0 429:1.0 336:1.0 430:1.0 431:1.0 8:1.0 78:1.0 413:1.0 432:1.0 433:1.0 434:1.0 406:1.0 435:1.0 36:1.0 
90.0 90.0 1:-0.5 124:1.0 388:1.0 39:1.0 49:1.0 117:1.0 36:1.0 
90.0 90.0 1:-100.0 218:1.0 436:1.0 437:1.0 
90.0 74.16577376923698 1:-100.0 436:1.0 437:1.0 119:1.0 4:1.0 53:1.0 
22.591383165671605 38.07419215643614 1:0.125 150:1.0 35:2.0 398:1.0 438:1.0 105:1.0 24:3.0 439:1.0 219:1.0 440:1.0 119:1.0 144:1.0 16:1.0 86:1.0 214:2.0 441:1.0 380:1.0 44:1.0 265:1.0 442:1.0 49:2.0 28:1.0 148:1.0 61:1.0 70:1.0 346:1.0 230:2.0 443:1.0 444:1.0 445:1.0 218:1.0 199:1.0 446:1.0 447:1.0 448:1.0 
90.0 90.0 1:0.5 221:1.0 449:1.0 450:1.0 224:1.0 25:1.0 451:1.0 452:1.0 4:1.0 274:1.0 53:1.0 
67.92954930583252 86.93568227040103 1:-0.0625 453:1.0 187:1.0 195:1.0 454:1.0 197:2.0 27:1.0 15:1.0 455:1.0 232:1.0 378:1.0 456:1.0 391:1.0 230:1.0 228:1.0 16:1.0 457:1.0 458:1.0 459:1.0 77:1.0 
90.0 30.194992831379047 1:-100.0 460:1.0 16:2.0 461:1.0 462:1.0 257:1.0 463:1.0 24:1.0 464:1.0 274:1.0 465:1.0 466:1.0 373:1.0 467:1.0 27:1.0 468:1.0 
21.215663361829208 23.230457557801106 1:-0.5 469:1.0 470:1.0 471:1.0 321:2.0 89:2.0 406:1.0 181:1.0 235:1.0 119:1.0 24:1.0 472:1.0 27:1.0 218:1.0 17:1.0 473:1.0 474:1.0 475:1.0 476:1.0 241:1.0 36:1.0 477:1.0 47:1.0 152:1.0 148:1.0 35:1.0 315:1.0 88:1.0 478:1.0 257:1.0 105:1.0 479:1.0 
20.219333365046417 24.69357458624607 1:-0.375 480:2.0 346:1.0 481:1.0 236:3.0 59:1.0 348:1.0 482:1.0 349:1.0 483:1.0 25:1.0 17:1.0 188:1.0 306:1.0 473:1.0 484:1.0 27:1.0 28:1.0 225:1.0 148:1.0 485:1.0 55:1.0 189:2.0 190:2.0 486:1.0 487:1.0 88:1.0 119:1.0 36:1.0 
17.113369044191924 12.479797120250101 1:-0.625 17:1.0 488:1.0 489:1.0 490:1.0 491:1.0 492:1.0 493:1.0 24:2.0 35:1.0 202:1.0 380:1.0 494:1.0 88:1.0 495:1.0 496:1.0 86:1.0 195:1.0 497:1.0 498:1.0 390:1.0 499:1.0 55:1.0 500:1.0 36:1.0 
90.0 90.0 1:-100.0 501:1.0 502:1.0 503:1.0 504:1.0 488:1.0 
46.93432009508017 65.4785746858657 1:-0.012500000000000067 505:1.0 506:1.0 507:1.0 3:1.0 88:1.0 89:1.0 148:1.0 249:1.0 508:1.0 24:1.0 126:1.0 509:1.0 77:1.0 232:1.0 81:1.0 16:1.0 510:1.0 511:1.0 512:1.0 513:1.0 514:1.0 515:1.0 110:1.0 516:1.0 193:1.0 517:1.0 172:1.0 518:1.0 519:1.0 520:1.0 321:1.0 521:1.0 100:1.0 
90.0 90.0 1:0.25 494:1.0 119:1.0 142:1.0 522:1.0 224:1.0 
90.0 90.0 1:-100.0 523:1.0 105:1.0 
13.191867251695909 17.85339800028373 1:-0.3125 176:1.0 25:1.0 524:1.0 24:6.0 525:1.0 526:1.0 527:1.0 528:1.0 529:1.0 530:1.0 346:1.0 34:1.0 458:1.0 202:1.0 531:1.0 532:1.0 86:1.0 533:1.0 160:1.0 17:1.0 534:3.0 440:1.0 476:1.0 535:1.0 536:1.0 537:1.0 538:1.0 203:1.0 539:1.0 207:1.0 36:1.0 8:2.0 
90.0 90.0 1:0.0 540:1.0 24:1.0 541:1.0 299:1.0 105:1.0 36:2.0 49:1.0 542:1.0 133:1.0 148:1.0 310:1.0 224:1.0 
20.761739238575792 20.521131326697255 1:-0.5 168:1.0 44:1.0 543:1.0 17:1.0 16:1.0 96:1.0 24:2.0 544:1.0 76:1.0 138:1.0 185:1.0 176:1.0 8:2.0 351:1.0 352:1.0 353:1.0 354:1.0 142:1.0 70:1.0 346:1.0 545:1.0 35:1.0 546:1.0 482:1.0 547:1.0 548:1.0 549:1.0 
84.02538238702387 90.0 1:0.5 550:2.0 551:1.0 25:1.0 552:2.0 233:1.0 553:1.0 27:1.0 55:1.0 221:1.0 36:2.0 362:1.0 554:1.0 35:2.0 432:1.0 475:1.0 16:1.0 555:1.0 
8.428199204900036 7.954789284123181 1:-0.625 556:1.0 291:5.0 275:2.0 224:1.0 557:1.0 284:2.0 558:1.0 289:3.0 294:1.0 36:1.0 290:1.0 559:1.0 144:1.0 560:1.0 176:1.0 561:1.0 562:1.0 287:1.0 563:1.0 8:1.0 59:1.0 
90.0 19.578274567648034 1:-100.0 348:1.0 205:1.0 224:1.0 406:1.0 548:1.0 564:1.0 565:1.0 119:1.0 24:1.0 218:1.0 17:1.0 96:1.0 176:1.0 476:1.0 28:1.0 566:1.0 30:1.0 105:1.0 567:1.0 248:1.0 36:2.0 
90.0 90.0 1:0.75 523:1.0 36:1.0 568:1.0 16:1.0 96:1.0 176:1.0 105:1.0 
90.0 90.0 1:-100.0 566:1.0 569:1.0 570:1.0 
90.0 26.501453826591852 1:-100.0 566:1.0 105:1.0 36:2.0 571:1.0 572:1.0 148:1.0 237:1.0 195:1.0 221:1.0 83:2.0 359:1.0 25:1.0 16:1.0 70:1.0 
90.0 55.656931850694164 1:-100.0 573:1.0 8:3.0 
90.0 90.0 1:-0.625 574:1.0 575:1.0 
18.302015121424994 27.17106828243107 1:-0.375 122:2.0 576:1.0 577:1.0 489:2.0 578:1.0 579:1.0 566:1.0 235:1.0 119:1.0 24:2.0 351:2.0 352:2.0 353:2.0 354:2.0 580:1.0 581:1.0 582:1.0 321:1.0 475:1.0 125:1.0 49:1.0 583:1.0 584:1.0 
90.0 90.0 1:-0.5 398:1.0 399:1.0 
19.876501452347988 20.240912546109367 1:-0.5 585:1.0 586:1.0 587:1.0 36:3.0 588:1.0 589:1.0 590:1.0 591:1.0 592:1.0 86:1.0 44:1.0 593:1.0 253:1.0 477:1.0 459:1.0 16:1.0 594:1.0 176:1.0 476:1.0 595:3.0 
90.0 90.0 1:0.75 131:1.0 568:1.0 303:1.0 596:1.0 105:1.0 
90.0 34.6806559997624 1:-100.0 138:1.0 70:1.0 597:1.0 224:1.0 35:1.0 406:1.0 142:1.0 598:1.0 599:1.0 600:1.0 24:1.0 601:1.0 207:1.0 4:1.0 602:1.0 
90.0 90.0 1:-100.0 246:1.0 169:1.0 603:1.0 36:1.0 
10.662531688023819 9.859699269936353 1:-0.5 604:1.0 605:1.0 8:4.0 606:1.0 607:1.0 608:1.0 609:1.0 12:1.0 610:1.0 611:1.0 27:1.0 440:1.0 76:1.0 612:1.0 613:2.0 614:1.0 135:1.0 72:1.0 615:1.0 616:1.0 119:1.0 17:1.0 346:1.0 24:2.0 617:1.0 69:1.0 148:1.0 618:1.0 353:1.0 619:1.0 25:1.0 620:1.0 86:1.0 621:1.0 39:1.0 622:2.0 432:1.0 623:1.0 59:3.0 
74.35789808689486 85.92253314822457 1:-0.5 624:1.0 625:1.0 86:1.0 321:1.0 626:1.0 28:1.0 622:1.0 346:1.0 59:1.0 
90.0 33.11437079426025 1:-100.0 362:1.0 39:2.0 88:1.0 89:1.0 627:1.0 21:1.0 417:1.0 146:1.0 34:1.0 25:1.0 628:1.0 90:1.0 629:1.0 219:1.0 
90.0 53.89222573084284 1:-100.0 622:1.0 28:1.0 110:1.0 630:1.0 631:1.0 632:1.0 146:1.0 405:1.0 532:1.0 119:1.0 633:1.0 36:1.0 
10.229202967581084 2.869041320466505 1:-100.0 634:1.0 284:4.0 635:1.0 562:3.0 275:3.0 636:1.0 637:3.0 638:1.0 639:2.0 291:13.0 289:4.0 294:1.0 24:1.0 640:1.0 144:1.0 641:4.0 488:3.0 642:2.0 643:3.0 560:1.0 644:1.0 645:1.0 646:1.0 558:1.0 647:1.0 648:2.0 649:1.0 650:2.0 651:1.0 652:1.0 653:2.0 654:1.0 655:1.0 656:1.0 199:2.0 657:1.0 658:1.0 36:1.0 659:1.0 660:1.0 661:1.0 662:1.0 166:1.0 663:1.0 95:1.0 59:3.0 664:1.0 665:1.0 
90.0 90.0 1:0.5 320:1.0 91:1.0 666:1.0 667:1.0 668:1.0 669:1.0 223:1.0 146:1.0 405:1.0 148:1.0 16:1.0 318:1.0 298:1.0 36:1.0 
19.31595153557837 14.607423125027697 1:-0.6 49:2.0 670:1.0 671:2.0 672:1.0 673:1.0 674:1.0 675:1.0 38:1.0 676:1.0 677:1.0 119:1.0 36:2.0 221:2.0 334:1.0 35:1.0 678:1.0 185:1.0 679:1.0 
9.688920041467478 12.734859989076936 1:-0.4166666666666667 680:1.0 303:1.0 681:1.0 25:2.0 682:1.0 44:1.0 12:1.0 122:2.0 28:2.0 683:1.0 684:2.0 36:2.0 685:1.0 686:1.0 687:1.0 688:3.0 86:2.0 246:1.0 689:1.0 38:1.0 427:1.0 605:1.0 24:2.0 49:3.0 690:2.0 232:2.0 265:1.0 691:1.0 89:1.0 692:1.0 193:1.0 142:1.0 301:1.0 213:1.0 214:2.0 215:1.0 177:1.0 693:1.0 694:1.0 
90.0 54.55928714190192 1:-100.0 177:1.0 695:1.0 696:1.0 241:1.0 138:1.0 237:1.0 697:1.0 698:1.0 34:1.0 
90.0 90.0 1:0.0 699:1.0 21:1.0 59:1.0 700:1.0 49:1.0 91:1.0 193:1.0 223:1.0 144:1.0 86:1.0 701:1.0 
11.72542670751458 14.555551345742751 1:-0.16666666666666666 533:1.0 702:1.0 703:2.0 88:2.0 38:1.0 478:1.0 704:1.0 44:2.0 705:1.0 27:1.0 36:3.0 214:2.0 706:1.0 707:1.0 10:2.0 238:3.0 708:1.0 709:2.0 193:1.0 121:1.0 49:2.0 700:2.0 710:1.0 255:2.0 24:2.0 241:1.0 52:1.0 711:1.0 565:1.0 25:1.0 712:1.0 469:1.0 89:1.0 189:2.0 190:2.0 388:1.0 713:1.0 714:1.0 715:1.0 8:1.0 351:1.0 352:1.0 353:1.0 354:1.0 449:1.0 716:1.0 35:1.0 717:1.0 718:1.0 276:1.0 719:1.0 471:1.0 720:1.0 687:1.0 119:1.0 47:1.0 34:1.0 721:1.0 440:1.0 
13.837493107267278 16.313911367132267 1:-0.19642857142857142 362:1.0 722:1.0 723:1.0 327:1.0 659:1.0 724:1.0 95:1.0 36:7.0 725:1.0 726:1.0 119:1.0 427:1.0 176:2.0 727:1.0 728:1.0 31:1.0 247:1.0 126:1.0 729:2.0 110:2.0 396:1.0 708:1.0 730:2.0 200:1.0 218:1.0 47:1.0 152:1.0 731:1.0 732:1.0 733:2.0 734:1.0 224:1.0 86:1.0 67:1.0 276:1.0 735:1.0 3:1.0 
90.0 62.05268900481428 1:-100.0 736:1.0 737:1.0 146:1.0 738:1.0 739:1.0 16:1.0 740:1.0 55:1.0 95:1.0 
71.21918148240722 0.3325024319848472 1:-100.0 49:1.0 321:1.0 741:1.0 742:1.0 122:2.0 743:1.0 504:1.0 24:3.0 744:1.0 745:1.0 746:1.0 309:1.0 390:1.0 747:1.0 748:1.0 749:1.0 150:1.0 750:1.0 751:1.0 588:1.0 752:1.0 753:1.0 30:1.0 570:1.0 754:1.0 8:1.0 
19.77812936093015 28.26436577927378 1:-0.5 744:1.0 745:1.0 746:1.0 36:2.0 170:1.0 49:1.0 122:1.0 743:1.0 504:1.0 12:1.0 755:1.0 38:1.0 756:1.0 
6.699818003826537 4.412002572891585 1:-0.5178571428571429 257:1.0 757:4.0 749:1.0 208:1.0 631:3.0 316:4.0 758:2.0 759:2.0 230:2.0 49:2.0 760:1.0 761:1.0 24:1.0 265:1.0 762:1.0 28:2.0 763:1.0 35:1.0 279:4.0 119:1.0 36:2.0 16:1.0 764:1.0 651:1.0 189:2.0 190:2.0 460:1.0 38:1.0 756:1.0 765:1.0 12:2.0 71:2.0 766:1.0 59:3.0 185:3.0 278:1.0 767:2.0 768:1.0 249:1.0 232:1.0 122:2.0 146:1.0 61:2.0 769:1.0 195:1.0 422:1.0 770:1.0 771:1.0 475:1.0 350:1.0 55:2.0 223:1.0 772:1.0 773:1.0 
28.530566488296163 4.274547783108935 1:-100.0 744:1.0 745:1.0 774:1.0 291:6.0 275:1.0 775:1.0 284:4.0 289:2.0 776:1.0 777:1.0 287:2.0 778:1.0 653:2.0 559:1.0 507:1.0 562:1.0 207:1.0 36:2.0 779:1.0 780:1.0 781:1.0 193:1.0 658:1.0 643:1.0 782:1.0 199:1.0 783:1.0 560:1.0 650:1.0 12:1.0 784:1.0 370:1.0 785:1.0 641:1.0 
34.30624196405974 52.333574236131646 1:0.25 189:1.0 190:1.0 786:2.0 787:1.0 788:1.0 789:1.0 88:1.0 790:1.0 791:1.0 719:1.0 440:1.0 792:1.0 113:1.0 793:1.0 794:2.0 795:1.0 110:1.0 196:1.0 796:1.0 36:2.0 396:1.0 34:1.0 24:2.0 797:1.0 394:1.0 798:1.0 799:1.0 427:1.0 17:1.0 218:1.0 126:1.0 16:1.0 800:1.0 29:1.0 274:2.0 465:1.0 466:1.0 373:1.0 801:1.0 105:1.0 802:1.0 803:1.0 804:1.0 100:1.0 805:1.0 8:1.0 
90.0 90.0 1:-0.625 213:1.0 105:1.0 
4.8563097268638895 4.022801547318884 1:-0.75 89:1.0 35:3.0 122:1.0 723:1.0 46:1.0 806:2.0 49:3.0 807:4.0 53:1.0 808:1.0 36:5.0 148:1.0 254:1.0 52:1.0 482:1.0 809:1.0 810:1.0 195:2.0 811:2.0 812:1.0 813:1.0 814:1.0 815:1.0 816:1.0 817:1.0 818:1.0 28:1.0 221:2.0 819:1.0 820:1.0 17:1.0 12:1.0 821:2.0 24:1.0 822:1.0 823:1.0 824:1.0 249:1.0 825:1.0 207:1.0 
72.4179931323687 18.561997360589704 1:-100.0 195:2.0 826:2.0 827:1.0 27:1.0 828:1.0 829:1.0 830:1.0 90:1.0 122:2.0 831:2.0 24:3.0 119:1.0 832:1.0 15:1.0 833:1.0 706:1.0 321:1.0 263:1.0 6:1.0 834:1.0 16:1.0 835:1.0 836:1.0 837:1.0 838:1.0 839:1.0 61:1.0 177:1.0 840:1.0 769:1.0 
90.0 90.0 1:0.625 659:1.0 841:1.0 235:1.0 257:1.0 514:1.0 321:1.0 842:1.0 406:1.0 843:1.0 12:1.0 45:1.0 844:1.0 845:1.0 36:1.0 
19.165737605571444 20.60871177638854 1:-0.5 846:1.0 847:1.0 514:3.0 766:2.0 848:1.0 849:1.0 36:1.0 850:1.0 851:1.0 852:1.0 24:1.0 86:1.0 282:1.0 853:1.0 854:1.0 855:1.0 856:1.0 857:1.0 858:1.0 
90.0 90.0 1:0.625 744:1.0 859:1.0 745:1.0 746:1.0 309:1.0 359:1.0 860:1.0 36:1.0 
21.983933953917365 28.66986836142754 1:-0.0625 861:1.0 91:2.0 862:2.0 476:1.0 218:2.0 177:3.0 534:3.0 704:3.0 146:1.0 863:1.0 673:1.0 27:2.0 24:2.0 864:1.0 865:1.0 88:1.0 866:1.0 867:1.0 868:1.0 326:1.0 207:1.0 30:1.0 302:1.0 32:1.0 546:1.0 8:1.0 
29.57746691969613 31.2768286189843 1:-0.5 193:1.0 869:1.0 122:1.0 870:1.0 751:1.0 871:1.0 872:1.0 12:1.0 39:1.0 36:2.0 316:1.0 166:1.0 873:1.0 874:1.0 875:1.0 27:1.0 459:1.0 787:1.0 876:1.0 28:1.0 877:1.0 406:1.0 690:1.0 233:1.0 
3.219574179751252 2.923368016395304 1:-0.7499999999999999 878:1.0 879:1.0 839:1.0 4:4.0 351:3.0 352:3.0 353:3.0 354:3.0 321:1.0 36:3.0 202:1.0 432:1.0 880:3.0 881:1.0 882:1.0 883:1.0 884:1.0 271:1.0 35:1.0 885:1.0 
24.413878224625822 30.930459194924982 1:0.275 225:1.0 707:1.0 90:1.0 798:1.0 200:1.0 886:1.0 46:1.0 334:1.0 16:2.0 409:1.0 887:1.0 888:1.0 53:1.0 15:2.0 889:1.0 24:4.0 890:1.0 891:1.0 185:1.0 892:2.0 522:1.0 724:1.0 893:1.0 44:2.0 894:1.0 36:3.0 895:1.0 34:2.0 896:1.0 839:1.0 897:1.0 898:2.0 899:1.0 900:2.0 2:1.0 110:1.0 102:1.0 901:1.0 902:1.0 363:1.0 232:1.0 122:1.0 903:1.0 126:1.0 35:1.0 904:1.0 230:2.0 214:1.0 905:1.0 906:1.0 907:1.0 908:1.0 909:1.0 475:1.0 
20.80422264267751 26.134473263097775 1:0.7083333333333334 144:1.0 750:1.0 27:1.0 910:1.0 189:6.0 190:6.0 911:6.0 55:2.0 912:1.0 232:1.0 76:2.0 160:1.0 8:1.0 482:1.0 165:1.0 913:1.0 24:1.0 914:1.0 915:1.0 119:1.0 916:1.0 207:1.0 36:1.0 568:1.0 917:2.0 918:1.0 89:1.0 61:1.0 919:1.0 920:1.0 921:1.0 171:2.0 922:1.0 185:2.0 923:1.0 924:1.0 155:1.0 49:1.0 925:1.0 926:1.0 16:1.0 12:1.0 122:1.0 927:1.0 
45.610723240511525 10.085405777430566 1:-0.75 816:1.0 322:1.0 918:1.0 606:1.0 916:1.0 659:1.0 191:1.0 928:2.0 36:1.0 126:1.0 38:1.0 929:1.0 28:1.0 930:1.0 
20.660304927860192 22.47931110545019 1:-0.075 89:1.0 588:1.0 592:1.0 931:1.0 514:1.0 39:1.0 932:2.0 230:1.0 146:5.0 215:1.0 34:1.0 933:1.0 729:1.0 233:1.0 24:1.0 49:1.0 934:1.0 935:1.0 630:1.0 148:1.0 936:1.0 16:2.0 299:2.0 367:1.0 937:1.0 36:2.0 126:1.0 938:1.0 939:1.0 940:1.0 941:1.0 876:1.0 623:1.0 28:3.0 235:1.0 373:1.0 214:1.0 942:1.0 538:1.0 799:1.0 546:1.0 943:1.0 31:1.0 944:1.0 
90.0 90.0 1:-100.0 380:1.0 945:1.0 946:1.0 35:1.0 237:1.0 
90.0 43.06407534391815 1:-100.0 947:1.0 780:1.0 291:1.0 59:1.0 948:1.0 284:2.0 32:1.0 949:1.0 559:1.0 950:1.0 
90.0 61.51541844482711 1:-100.0 225:2.0 951:1.0 35:1.0 517:1.0 952:1.0 199:1.0 103:1.0 953:1.0 954:1.0 947:1.0 8:1.0 
90.0 90.0 1:-0.5 299:1.0 160:1.0 36:1.0 
62.05692757366025 63.791271055995125 1:-0.375 89:1.0 28:1.0 955:1.0 96:1.0 199:1.0 103:1.0 766:1.0 280:1.0 897:1.0 36:2.0 956:1.0 794:1.0 235:1.0 38:1.0 957:1.0 605:1.0 
90.0 11.561803086626394 1:-100.0 16:2.0 764:1.0 278:1.0 572:1.0 706:1.0 958:1.0 959:1.0 49:1.0 960:1.0 327:1.0 237:1.0 58:1.0 59:2.0 351:1.0 352:1.0 353:1.0 354:1.0 766:1.0 961:1.0 962:1.0 900:1.0 963:1.0 964:1.0 965:1.0 
8.697893079371813 9.857136427269056 1:-0.5 966:1.0 28:1.0 967:1.0 968:1.0 969:1.0 970:2.0 200:2.0 50:1.0 24:2.0 971:1.0 230:2.0 122:3.0 959:3.0 17:1.0 49:2.0 901:2.0 972:1.0 61:1.0 928:1.0 973:1.0 974:1.0 975:1.0 86:1.0 36:2.0 56:1.0 839:1.0 55:1.0 976:1.0 977:1.0 47:1.0 788:1.0 908:2.0 88:1.0 978:2.0 979:1.0 148:1.0 221:1.0 257:1.0 
6.509250242933982 0.5267411840842404 1:-0.75 980:1.0 981:1.0 982:1.0 105:1.0 232:1.0 983:1.0 24:1.0 984:1.0 939:2.0 985:1.0 185:1.0 321:1.0 757:1.0 986:1.0 8:2.0 744:1.0 745:1.0 746:1.0 309:1.0 359:1.0 860:1.0 
90.0 50.5031890925484 1:-100.0 894:1.0 113:1.0 257:1.0 565:1.0 758:1.0 987:1.0 988:1.0 88:1.0 359:1.0 860:1.0 59:1.0 
33.20785247704209 32.67050924715253 1:-0.5 989:1.0 757:1.0 417:1.0 36:3.0 990:1.0 218:1.0 985:1.0 623:1.0 588:1.0 991:1.0 144:1.0 992:1.0 993:1.0 994:1.0 
12.88558632532456 3.2009751586503046 1:-0.75 995:1.0 996:1.0 59:1.0 351:1.0 352:1.0 353:1.0 354:1.0 146:2.0 359:2.0 860:1.0 997:1.0 17:1.0 31:1.0 998:1.0 233:1.0 35:1.0 133:1.0 999:1.0 36:1.0 
77.19462046332136 17.010444173638405 1:-100.0 623:1.0 1000:1.0 232:1.0 1001:2.0 933:1.0 432:1.0 475:1.0 24:1.0 236:1.0 199:1.0 95:1.0 697:1.0 765:1.0 177:1.0 1002:1.0 185:1.0 1003:1.0 59:4.0 1004:1.0 377:1.0 1005:1.0 482:1.0 
90.0 90.0 1:-0.5 234:1.0 86:1.0 195:1.0 334:1.0 36:1.0 
90.0 54.63071768809604 1:-100.0 322:1.0 113:1.0 35:1.0 1006:1.0 24:1.0 970:1.0 76:1.0 1007:1.0 623:1.0 1008:1.0 
36.307774441446895 45.19610134216437 1:0.0625 803:1.0 588:1.0 363:1.0 475:2.0 1009:1.0 181:1.0 36:3.0 1010:1.0 25:1.0 326:1.0 309:1.0 138:1.0 110:1.0 321:1.0 1011:1.0 28:1.0 15:1.0 16:1.0 17:1.0 195:1.0 1012:1.0 1013:1.0 27:1.0 744:1.0 745:1.0 746:1.0 359:1.0 860:1.0 1014:1.0 334:1.0 12:1.0 133:1.0 424:1.0 938:1.0 749:1.0 940:1.0 185:1.0 985:1.0 
42.083863276317224 8.51968366045714 1:-100.0 1015:1.0 1016:1.0 25:1.0 29:2.0 1017:1.0 1018:1.0 8:8.0 746:1.0 
21.052285379735697 24.479209286001876 1:-0.5 321:1.0 862:1.0 199:2.0 399:2.0 398:1.0 1019:1.0 615:1.0 21:1.0 355:1.0 1020:1.0 36:2.0 491:1.0 1021:1.0 432:1.0 1022:1.0 4:1.0 53:2.0 
3.533012307561418 4.0866609852437445 1:-0.625 150:1.0 35:1.0 1023:1.0 24:1.0 1024:1.0 406:1.0 1025:1.0 1026:1.0 983:1.0 1027:1.0 86:1.0 195:1.0 122:1.0 1028:1.0 1029:1.0 185:1.0 779:1.0 1030:1.0 36:1.0 12:1.0 34:1.0 49:1.0 1031:1.0 225:1.0 8:1.0 
90.0 90.0 1:-100.0 1032:1.0 1033:1.0 1034:1.0 1035:1.0 
90.0 90.0 1:-100.0 1036:1.0 867:1.0 
90.0 76.43226697327434 1:-100.0 224:1.0 119:1.0 8:1.0 406:1.0 207:1.0 36:1.0 1037:1.0 1038:1.0 
90.0 90.0 1:0.5 1039:1.0 669:1.0 1040:1.0 881:2.0 1020:1.0 223:1.0 88:1.0 1041:1.0 49:1.0 301:1.0 16:1.0 8:1.0 
90.0 24.20148728402078 1:-100.0 221:1.0 49:1.0 1039:1.0 669:1.0 520:1.0 25:1.0 1040:1.0 186:1.0 790:1.0 122:2.0 36:1.0 144:1.0 1020:1.0 1042:1.0 105:1.0 237:1.0 59:1.0 
2.151431153324091 0.0 1:-0.875 465:1.0 1043:1.0 373:1.0 100:1.0 1044:1.0 51:1.0 218:1.0 1045:1.0 1046:1.0 321:1.0 1047:1.0 1048:1.0 36:1.0 1024:1.0 199:1.0 1049:1.0 173:2.0 471:1.0 166:1.0 1050:1.0 659:1.0 298:1.0 1051:1.0 1052:1.0 185:1.0 1053:1.0 403:1.0 24:1.0 1054:1.0 25:1.0 8:1.0 59:1.0 
90.0 22.39835911673058 1:-100.0 465:1.0 1043:1.0 373:1.0 73:1.0 27:1.0 1055:1.0 1056:1.0 232:1.0 233:1.0 334:1.0 119:1.0 8:3.0 
90.0 90.0 1:0.875 322:1.0 981:1.0 119:1.0 25:1.0 706:1.0 9:1.0 166:1.0 1057:1.0 1058:1.0 146:1.0 1059:1.0 1060:1.0 36:2.0 150:1.0 35:1.0 232:1.0 411:1.0 1061:1.0 1062:1.0 1063:1.0 201:1.0 30:1.0 
90.0 49.02272954059639 1:-100.0 1064:1.0 1065:1.0 874:1.0 36:1.0 1066:1.0 27:1.0 119:1.0 148:1.0 1067:1.0 482:1.0 
6.514722941188428 4.09641306786385 1:-0.5833333333333334 204:1.0 205:1.0 24:3.0 1049:1.0 86:1.0 235:1.0 1061:1.0 1068:1.0 297:1.0 218:1.0 1069:1.0 1070:1.0 133:1.0 1071:1.0 36:3.0 9:1.0 1072:1.0 333:1.0 1073:2.0 199:1.0 1074:1.0 1075:1.0 1076:1.0 1077:1.0 27:1.0 35:1.0 1078:1.0 46:1.0 202:1.0 1079:1.0 53:1.0 241:1.0 1055:1.0 346:1.0 
90.0 90.0 1:-100.0 1080:1.0 24:1.0 105:1.0 1081:1.0 
42.1625919944091 77.6015881800804 1:0.375 1082:1.0 35:2.0 406:1.0 589:3.0 1083:1.0 24:2.0 1084:1.0 1085:1.0 1086:1.0 1087:1.0 148:1.0 49:1.0 122:1.0 461:1.0 462:1.0 1088:1.0 1089:2.0 36:2.0 1090:1.0 28:1.0 276:1.0 443:1.0 241:1.0 217:1.0 1091:1.0 1092:1.0 38:1.0 873:1.0 1093:1.0 1094:1.0 
21.44638077188736 23.593350240475534 1:-0.5 61:1.0 1095:1.0 86:3.0 361:1.0 1096:1.0 119:1.0 1097:1.0 424:1.0 1066:1.0 246:1.0 745:1.0 1098:1.0 565:1.0 1074:1.0 7:1.0 1047:1.0 52:1.0 1099:1.0 121:1.0 55:1.0 176:1.0 727:1.0 207:1.0 
57.738039274597476 65.3006081543012 1:-0.5 90:1.0 1100:1.0 27:1.0 28:1.0 1101:1.0 1102:1.0 398:1.0 36:2.0 
78.06201999633947 77.16374967396328 1:-0.5 86:1.0 1066:1.0 1024:1.0 44:1.0 1103:1.0 482:1.0 199:1.0 8:1.0 
66.8331602174283 58.401554511808996 1:-0.625 213:1.0 860:1.0 1104:1.0 232:1.0 233:1.0 36:1.0 
90.0 27.93227948746682 1:-100.0 421:1.0 504:1.0 25:1.0 96:1.0 1105:1.0 1083:1.0 44:1.0 268:1.0 1106:1.0 124:1.0 35:1.0 762:1.0 61:1.0 1107:1.0 989:1.0 95:1.0 36:1.0 
7.745150375601792 8.294050859176808 1:-0.5 1108:1.0 16:2.0 17:2.0 1109:1.0 476:1.0 565:3.0 610:2.0 142:1.0 144:1.0 36:5.0 126:1.0 1110:1.0 1047:1.0 794:1.0 1111:1.0 230:1.0 246:3.0 1112:1.0 30:2.0 234:1.0 86:1.0 1113:1.0 27:1.0 15:1.0 1114:1.0 900:2.0 1115:1.0 100:1.0 1116:1.0 1117:1.0 881:1.0 1118:1.0 887:1.0 1119:1.0 714:1.0 238:2.0 257:1.0 276:1.0 1120:1.0 131:1.0 
25.98259789958567 32.20463859067522 1:0.225 225:1.0 707:1.0 881:1.0 1118:1.0 27:1.0 21:2.0 568:2.0 346:2.0 406:1.0 213:1.0 238:1.0 36:2.0 121:1.0 883:1.0 1121:1.0 25:1.0 793:2.0 110:1.0 1122:1.0 714:1.0 24:3.0 237:1.0 1123:1.0 34:1.0 49:2.0 1124:1.0 55:1.0 659:1.0 59:2.0 530:1.0 1125:1.0 686:1.0 351:1.0 352:1.0 353:1.0 354:1.0 234:1.0 86:1.0 794:2.0 223:1.0 90:1.0 298:1.0 148:1.0 1126:1.0 265:1.0 1127:1.0 1128:1.0 416:1.0 306:1.0 380:1.0 255:1.0 28:1.0 1129:1.0 1047:1.0 
43.06030373038051 7.85408310518958 1:-100.0 784:3.0 653:2.0 289:5.0 938:1.0 24:2.0 290:1.0 562:2.0 1130:1.0 1131:1.0 292:1.0 565:1.0 1132:1.0 637:1.0 1133:1.0 291:1.0 238:1.0 284:3.0 1134:1.0 645:1.0 1135:1.0 650:1.0 36:1.0 
90.0 90.0 1:-100.0 1136:1.0 8:1.0 
13.815510254312551 18.82252153314686 1:-0.16666666666666666 759:1.0 27:1.0 1137:1.0 44:1.0 482:1.0 86:3.0 461:1.0 1138:1.0 1139:1.0 1140:1.0 135:1.0 268:1.0 24:3.0 1141:1.0 1142:1.0 1143:2.0 1095:2.0 565:2.0 1144:1.0 471:1.0 1145:1.0 76:3.0 1146:2.0 1147:2.0 1148:1.0 722:1.0 1149:1.0 1150:1.0 1151:1.0 1152:1.0 133:1.0 1153:1.0 932:1.0 1154:1.0 1155:1.0 110:1.0 1156:1.0 36:3.0 1157:1.0 1158:1.0 1159:1.0 200:1.0 1160:1.0 1161:1.0 321:1.0 1162:1.0 396:1.0 1163:1.0 1164:1.0 16:1.0 96:1.0 1165:1.0 
90.0 22.041509211146845 1:-100.0 565:1.0 471:1.0 35:2.0 374:1.0 900:1.0 1083:1.0 24:2.0 1166:1.0 50:1.0 70:1.0 152:1.0 1167:1.0 1168:1.0 1169:1.0 1170:1.0 185:1.0 1171:1.0 36:1.0 
90.0 54.086135918235854 1:-100.0 133:1.0 1066:1.0 1172:1.0 1173:1.0 1174:1.0 27:1.0 1175:1.0 105:1.0 8:1.0 
90.0 90.0 1:-100.0 1056:1.0 8:1.0 
26.97821140751622 11.531416260953343 1:-0.75 321:1.0 651:2.0 1176:1.0 24:1.0 1177:1.0 67:1.0 
10.746097290489908 6.419426397929625 1:-0.6875 257:1.0 749:1.0 1178:1.0 24:2.0 751:1.0 122:1.0 1179:1.0 7:1.0 90:3.0 91:1.0 1180:1.0 207:2.0 36:1.0 1181:1.0 105:1.0 31:1.0 339:1.0 943:1.0 702:1.0 1121:1.0 1182:1.0 59:1.0 
12.392206729703387 12.73198859019022 1:-0.5833333333333334 1179:2.0 25:1.0 55:2.0 86:1.0 199:1.0 207:1.0 28:2.0 1183:2.0 148:1.0 883:2.0 684:2.0 8:3.0 1184:1.0 188:1.0 823:1.0 16:1.0 49:1.0 
7.013302129175301 7.902750005262351 1:-0.5625 509:1.0 1185:1.0 1186:1.0 433:1.0 1187:1.0 477:1.0 918:2.0 659:1.0 1188:1.0 188:1.0 1189:1.0 29:2.0 1179:1.0 189:2.0 190:2.0 1190:1.0 1191:1.0 1192:1.0 24:1.0 225:1.0 1193:1.0 1194:1.0 160:1.0 8:1.0 257:1.0 662:1.0 654:1.0 1195:1.0 214:1.0 1196:1.0 1197:1.0 1198:1.0 560:1.0 138:1.0 207:2.0 1199:2.0 1200:1.0 1201:1.0 1202:1.0 1203:1.0 290:1.0 837:1.0 71:1.0 36:1.0 
90.0 90.0 1:-100.0 1204:1.0 
90.0 90.0 1:-0.5 746:1.0 86:1.0 1066:1.0 1172:1.0 105:1.0 
18.670044420510514 24.90050838146722 1:-0.375 16:2.0 449:1.0 265:1.0 744:1.0 1205:1.0 119:2.0 49:1.0 177:1.0 1074:1.0 476:1.0 59:1.0 8:1.0 970:1.0 169:1.0 30:1.0 138:1.0 224:1.0 148:1.0 1206:1.0 279:1.0 641:1.0 36:1.0 1061:1.0 767:1.0 146:1.0 86:1.0 246:1.0 67:1.0 
10.438232943507495 11.245970823634911 1:-0.5 790:1.0 412:2.0 1207:1.0 637:1.0 641:1.0 1208:1.0 291:4.0 558:1.0 1209:1.0 780:1.0 784:1.0 653:1.0 36:1.0 86:1.0 199:1.0 1210:1.0 284:3.0 287:2.0 654:1.0 289:3.0 1211:1.0 275:1.0 1212:1.0 562:2.0 285:1.0 735:1.0 193:1.0 782:1.0 561:1.0 
90.0 79.02968434916332 1:-100.0 1213:1.0 24:1.0 646:1.0 144:1.0 246:1.0 1214:1.0 160:1.0 
11.34995713766466 13.355920376153263 1:-0.5 746:1.0 86:1.0 70:1.0 1215:2.0 89:1.0 36:4.0 709:1.0 1216:1.0 276:1.0 277:1.0 1217:1.0 1218:1.0 1219:1.0 417:1.0 659:1.0 548:1.0 110:1.0 39:1.0 1220:1.0 35:1.0 237:1.0 
30.758708559368543 34.62715411731555 1:-0.5 1221:1.0 1222:1.0 88:1.0 1053:1.0 1223:1.0 1224:1.0 24:2.0 967:1.0 1225:1.0 1226:1.0 234:1.0 27:1.0 394:1.0 86:1.0 55:1.0 1227:1.0 146:1.0 95:1.0 565:1.0 
90.0 17.962635724114005 1:-100.0 755:1.0 1228:1.0 27:1.0 25:1.0 1229:1.0 565:1.0 173:1.0 28:1.0 1230:1.0 242:1.0 36:1.0 707:1.0 144:1.0 793:1.0 1231:1.0 44:1.0 189:2.0 190:2.0 39:1.0 237:1.0 604:1.0 
90.0 79.10141068510677 1:-100.0 750:1.0 1232:1.0 246:1.0 25:1.0 1233:1.0 28:1.0 207:1.0 
90.0 39.914172687295135 1:-100.0 348:1.0 25:1.0 706:1.0 1234:1.0 1235:1.0 36:2.0 215:1.0 1236:1.0 24:1.0 1237:1.0 89:1.0 271:1.0 61:1.0 199:1.0 1238:1.0 
90.0 90.0 1:0.25 145:1.0 1239:1.0 27:1.0 548:1.0 97:1.0 440:1.0 604:1.0 36:2.0 49:1.0 1240:1.0 224:1.0 25:1.0 1241:1.0 522:1.0 186:1.0 105:1.0 
90.0 90.0 1:-100.0 957:1.0 27:1.0 1242:1.0 105:1.0 36:1.0 
90.0 90.0 1:-100.0 938:1.0 1230:1.0 1243:1.0 
90.0 59.021225526406965 1:-100.0 1244:1.0 24:2.0 1245:1.0 1246:1.0 36:1.0 
90.0 90.0 1:-0.5 225:1.0 1247:1.0 608:1.0 424:1.0 86:1.0 421:1.0 
20.414782069107137 22.513889095614015 1:-0.625 1248:1.0 27:1.0 406:1.0 199:1.0 108:1.0 1249:1.0 1120:1.0 76:1.0 1250:1.0 91:1.0 1251:1.0 61:1.0 388:1.0 89:1.0 8:3.0 
90.0 35.22785247281831 1:-100.0 70:1.0 1252:1.0 35:1.0 49:2.0 232:1.0 145:1.0 320:1.0 327:1.0 25:1.0 16:1.0 1253:1.0 
90.0 90.0 1:-0.125 326:1.0 15:1.0 1197:1.0 565:1.0 507:1.0 1254:1.0 86:1.0 38:1.0 359:1.0 1255:1.0 55:1.0 36:1.0 
90.0 50.82650042822054 1:-100.0 232:1.0 122:1.0 1256:1.0 1071:2.0 1257:1.0 25:1.0 16:1.0 1258:1.0 
6.709732897153191 8.760052167880977 1:-0.3125 265:1.0 298:1.0 188:1.0 1259:3.0 287:2.0 199:1.0 1260:1.0 686:1.0 46:4.0 684:2.0 1261:1.0 1262:1.0 110:1.0 77:1.0 53:4.0 24:1.0 1263:1.0 121:1.0 221:1.0 96:1.0 189:2.0 190:2.0 735:1.0 241:1.0 21:1.0 912:3.0 36:4.0 35:1.0 1264:1.0 67:1.0 432:1.0 88:1.0 659:1.0 328:2.0 90:2.0 71:2.0 1265:1.0 1266:1.0 185:3.0 929:1.0 1267:1.0 1268:1.0 588:2.0 1269:1.0 1270:1.0 816:1.0 322:1.0 1271:1.0 276:1.0 646:3.0 122:3.0 117:1.0 355:1.0 86:1.0 236:1.0 1272:1.0 214:1.0 55:1.0 318:1.0 1273:2.0 1274:1.0 1275:1.0 1276:1.0 1277:1.0 530:1.0 195:2.0 406:1.0 1278:1.0 510:1.0 232:1.0 
6.751413002199522 8.654753274758214 1:-0.2083333333333333 1279:1.0 316:2.0 952:1.0 148:1.0 841:1.0 24:6.0 126:1.0 929:1.0 912:1.0 249:2.0 327:3.0 1280:1.0 606:2.0 1281:1.0 185:2.0 1282:1.0 61:1.0 1283:1.0 76:1.0 1284:1.0 322:1.0 36:5.0 225:1.0 1285:1.0 16:3.0 1286:1.0 28:4.0 716:1.0 1287:1.0 221:2.0 49:3.0 883:2.0 1288:1.0 1289:1.0 1290:1.0 46:1.0 739:1.0 1291:1.0 1292:1.0 53:1.0 236:2.0 1293:1.0 565:1.0 173:1.0 380:1.0 1294:1.0 95:1.0 25:3.0 44:1.0 81:1.0 1295:1.0 199:1.0 38:1.0 1215:1.0 1296:1.0 71:2.0 439:1.0 110:1.0 1297:1.0 135:1.0 224:1.0 193:1.0 514:2.0 265:1.0 1298:1.0 686:1.0 1299:1.0 121:1.0 
13.565309472783333 13.536094393294306 1:-0.5 71:1.0 27:1.0 110:2.0 714:1.0 1300:1.0 235:1.0 36:3.0 1301:1.0 810:1.0 726:1.0 316:1.0 76:2.0 394:1.0 1280:1.0 533:1.0 24:2.0 440:1.0 1302:1.0 85:1.0 1123:1.0 1303:1.0 1304:1.0 696:1.0 666:1.0 604:1.0 25:2.0 1305:1.0 1306:1.0 55:1.0 1307:1.0 1308:1.0 44:1.0 1309:1.0 333:1.0 669:1.0 514:1.0 1310:1.0 199:1.0 
21.00292339643889 28.422494667105717 1:-0.25000000000000006 606:1.0 27:1.0 514:1.0 55:1.0 265:1.0 71:1.0 17:2.0 1311:1.0 16:2.0 486:1.0 1312:1.0 24:2.0 193:1.0 1313:1.0 374:1.0 44:2.0 1314:1.0 112:1.0 1315:1.0 119:1.0 1316:1.0 36:2.0 1280:1.0 1317:1.0 88:1.0 1318:1.0 1319:1.0 81:1.0 28:1.0 70:1.0 346:1.0 148:1.0 49:1.0 
27.353346001633618 24.880732231200145 1:-0.625 1320:1.0 1321:1.0 24:1.0 441:1.0 1322:1.0 497:1.0 1323:1.0 401:1.0 966:1.0 25:1.0 148:1.0 1324:1.0 207:2.0 8:1.0 
90.0 90.0 1:-0.5 238:1.0 1325:1.0 1326:1.0 138:1.0 181:1.0 1327:1.0 
25.399372863765375 21.937800148352416 1:-0.625 157:1.0 1328:1.0 8:2.0 145:1.0 1325:1.0 49:1.0 1180:1.0 1329:1.0 1330:1.0 24:1.0 1331:1.0 1332:1.0 
90.0 90.0 1:-100.0 413:1.0 
35.55363811206812 32.04185640140492 1:-0.625 1333:1.0 1106:1.0 989:1.0 903:1.0 35:1.0 421:1.0 406:1.0 548:1.0 1334:1.0 268:1.0 565:1.0 471:1.0 8:1.0 
12.310040013045414 15.872564146202736 1:-0.3 1335:2.0 1336:1.0 1108:1.0 151:1.0 1337:1.0 7:1.0 177:1.0 1338:1.0 12:1.0 359:1.0 185:2.0 38:1.0 1339:1.0 78:1.0 1340:1.0 862:1.0 1341:2.0 135:1.0 1342:1.0 230:1.0 218:2.0 86:2.0 225:2.0 1343:1.0 1344:1.0 1345:1.0 432:1.0 110:2.0 171:2.0 27:1.0 36:2.0 351:1.0 352:1.0 353:1.0 354:1.0 17:1.0 4:1.0 1346:1.0 1347:1.0 396:1.0 257:1.0 1163:1.0 1348:1.0 1349:1.0 459:1.0 1350:1.0 28:1.0 735:1.0 70:1.0 1351:1.0 1352:1.0 90:1.0 1353:1.0 1354:1.0 363:1.0 1355:1.0 24:1.0 1356:1.0 214:1.0 
90.0 90.0 1:-0.5 771:1.0 1357:1.0 86:1.0 195:1.0 122:1.0 1358:1.0 
15.646283701690908 18.517591744997024 1:-0.325 1359:1.0 1360:1.0 35:2.0 238:2.0 1361:1.0 36:4.0 1031:1.0 27:1.0 406:1.0 428:1.0 390:1.0 86:2.0 1362:2.0 1363:1.0 641:1.0 1364:1.0 1365:1.0 1366:1.0 1121:1.0 17:1.0 761:2.0 788:1.0 173:1.0 1367:1.0 88:1.0 306:1.0 1368:1.0 274:1.0 1369:1.0 21:1.0 188:1.0 651:1.0 52:1.0 148:1.0 200:1.0 1370:1.0 887:1.0 279:1.0 
41.92668770272194 47.83301070372276 1:-0.5 348:1.0 91:2.0 1371:1.0 25:1.0 166:1.0 1372:1.0 1373:1.0 36:2.0 1328:1.0 482:1.0 100:1.0 122:1.0 
38.20157338991756 33.155118583533195 1:-0.5625 49:1.0 195:2.0 1374:1.0 55:1.0 1375:1.0 185:1.0 230:1.0 218:1.0 1376:1.0 575:1.0 8:1.0 
90.0 23.85778290952969 1:-100.0 1377:1.0 207:2.0 36:4.0 1378:1.0 1379:1.0 1380:1.0 
29.68733611431576 41.62346548765505 1:-0.0625 1381:1.0 224:1.0 1382:1.0 215:1.0 1359:1.0 707:1.0 189:2.0 190:2.0 1383:1.0 89:1.0 16:3.0 839:1.0 804:1.0 28:1.0 306:1.0 794:1.0 148:1.0 279:1.0 126:1.0 1384:1.0 207:1.0 36:2.0 150:1.0 35:1.0 122:1.0 416:2.0 318:1.0 604:1.0 
90.0 90.0 1:-100.0 129:1.0 105:1.0 
19.266732841602003 24.19951054377982 1:-0.20833333333333334 16:2.0 199:2.0 449:1.0 577:1.0 857:1.0 351:3.0 352:3.0 353:3.0 354:3.0 119:1.0 1385:1.0 61:1.0 1386:1.0 1293:1.0 110:1.0 1387:1.0 1309:1.0 1388:1.0 100:1.0 1389:1.0 771:1.0 758:1.0 549:1.0 744:1.0 951:1.0 1390:1.0 248:1.0 
90.0 37.53004156874122 1:-100.0 1391:1.0 284:2.0 1392:1.0 938:1.0 396:1.0 257:1.0 1393:1.0 653:1.0 645:1.0 77:1.0 560:1.0 291:1.0 
26.145457867227975 29.107425879748384 1:-0.125 588:1.0 97:1.0 90:1.0 317:1.0 88:1.0 321:1.0 152:1.0 1394:1.0 1395:1.0 25:2.0 1396:2.0 486:1.0 327:1.0 244:1.0 1397:1.0 224:1.0 148:1.0 1398:1.0 119:1.0 24:3.0 49:2.0 195:1.0 939:1.0 1399:1.0 1400:1.0 1358:1.0 241:1.0 1401:1.0 900:1.0 1402:1.0 1403:1.0 1404:1.0 1405:1.0 1406:1.0 796:1.0 659:1.0 1407:1.0 887:1.0 1408:1.0 533:1.0 89:1.0 
6.639489813563171 12.283774978377608 1:-0.625 189:2.0 190:2.0 120:1.0 1409:1.0 7:1.0 316:1.0 1410:1.0 412:3.0 1411:1.0 185:1.0 61:1.0 230:1.0 138:1.0 565:1.0 173:1.0 1412:1.0 274:1.0 49:1.0 18:1.0 1413:1.0 476:1.0 144:1.0 488:1.0 24:2.0 100:1.0 135:1.0 1414:1.0 148:2.0 1415:1.0 1416:1.0 27:1.0 265:1.0 103:1.0 1417:1.0 1418:1.0 1419:1.0 25:1.0 177:1.0 1420:1.0 105:1.0 1421:1.0 486:1.0 1422:1.0 52:1.0 215:1.0 1423:1.0 398:1.0 1424:1.0 1425:1.0 35:1.0 302:1.0 799:1.0 546:1.0 36:1.0 
90.0 33.04532215030379 1:-100.0 321:2.0 1426:1.0 25:1.0 514:1.0 55:1.0 49:1.0 1427:1.0 1428:1.0 24:1.0 146:1.0 1429:1.0 566:1.0 30:1.0 36:1.0 
30.68895375478786 45.738075018271616 1:-0.25 326:1.0 24:3.0 860:1.0 1429:1.0 1430:1.0 35:2.0 195:1.0 359:1.0 125:1.0 266:1.0 139:1.0 1431:1.0 25:1.0 1432:1.0 1433:1.0 1197:1.0 1434:1.0 28:1.0 148:1.0 1435:1.0 58:1.0 4:1.0 53:1.0 
90.0 25.787271239702935 1:-100.0 1436:1.0 10:1.0 1437:1.0 27:1.0 221:1.0 146:1.0 359:2.0 280:1.0 224:1.0 1438:1.0 36:2.0 276:1.0 1439:1.0 1410:1.0 38:1.0 117:1.0 
90.0 90.0 1:0.875 1440:1.0 70:1.0 1441:1.0 27:1.0 15:1.0 49:1.0 424:1.0 1024:1.0 1442:1.0 1443:1.0 113:1.0 1089:1.0 303:1.0 1444:1.0 148:1.0 1364:1.0 16:1.0 61:1.0 146:1.0 359:1.0 89:1.0 24:1.0 574:1.0 1036:1.0 36:1.0 
60.755027968607074 67.5064921609905 1:-0.5 1445:2.0 125:1.0 952:1.0 148:1.0 117:1.0 1446:1.0 891:1.0 36:1.0 
51.83261141504446 9.565323783500714 1:-100.0 1443:1.0 1447:1.0 562:2.0 1132:1.0 650:1.0 1448:1.0 291:4.0 126:1.0 663:1.0 637:1.0 275:3.0 662:1.0 1449:1.0 289:1.0 1393:1.0 284:2.0 295:1.0 653:2.0 1186:1.0 136:1.0 1133:1.0 639:1.0 558:1.0 144:1.0 207:1.0 36:1.0 
31.928449633665547 45.16022251057836 1:0.18750000000000006 49:1.0 1450:2.0 346:2.0 189:2.0 190:2.0 512:1.0 148:2.0 1451:1.0 185:1.0 1452:1.0 90:1.0 1453:3.0 918:2.0 95:1.0 36:1.0 726:1.0 1454:1.0 1455:1.0 24:2.0 1456:1.0 906:1.0 117:1.0 1299:1.0 193:1.0 659:1.0 1457:1.0 1458:1.0 86:1.0 942:1.0 1459:1.0 
36.15778951768305 36.697776823168255 1:-0.5 989:1.0 1051:1.0 733:1.0 1460:1.0 1461:1.0 1462:1.0 232:1.0 1463:1.0 218:1.0 61:1.0 253:1.0 199:1.0 176:1.0 70:1.0 117:1.0 24:1.0 299:1.0 105:1.0 4:1.0 53:1.0 
90.0 90.0 1:-100.0 142:1.0 452:1.0 36:1.0 
90.0 90.0 1:-100.0 169:1.0 105:1.0 237:1.0 
90.0 66.9126672246996 1:-100.0 696:1.0 1464:1.0 160:1.0 136:1.0 298:1.0 25:1.0 1465:1.0 441:1.0 241:1.0 
90.0 90.0 1:-0.5625 1466:1.0 185:1.0 137:1.0 
17.37548817595217 20.047522862391666 1:-0.25 257:2.0 225:2.0 1467:1.0 828:1.0 142:2.0 788:2.0 1468:2.0 88:1.0 1469:1.0 122:1.0 36:3.0 16:1.0 49:3.0 346:1.0 150:1.0 185:1.0 148:2.0 517:1.0 108:1.0 24:2.0 1470:1.0 1471:1.0 1472:1.0 126:1.0 253:1.0 55:1.0 1473:1.0 28:2.0 33:1.0 553:1.0 34:1.0 1090:1.0 1072:1.0 659:1.0 96:1.0 176:1.0 1381:1.0 215:1.0 
7.27386249773525 8.406348361723627 1:-0.46875 1474:1.0 35:2.0 1475:2.0 16:2.0 764:1.0 133:2.0 122:1.0 707:1.0 70:2.0 346:1.0 25:2.0 24:2.0 530:1.0 38:1.0 236:2.0 406:1.0 105:1.0 1046:1.0 246:3.0 1476:1.0 119:1.0 671:1.0 1477:1.0 1478:1.0 1479:2.0 1480:1.0 1481:1.0 46:3.0 1482:1.0 1483:2.0 53:2.0 565:2.0 185:2.0 207:2.0 224:1.0 566:1.0 235:1.0 8:1.0 4:1.0 225:1.0 548:1.0 188:1.0 50:1.0 54:1.0 279:1.0 1484:1.0 1485:1.0 1486:1.0 377:1.0 1487:1.0 202:1.0 1488:1.0 166:1.0 12:1.0 
12.383368476321252 4.6076587158957025 1:-0.75 1489:1.0 25:1.0 177:1.0 1095:1.0 215:1.0 234:1.0 27:1.0 28:1.0 31:1.0 744:1.0 362:1.0 235:1.0 8:3.0 
41.44047807357348 20.625556618290908 1:-100.0 126:1.0 784:1.0 284:4.0 287:2.0 1490:1.0 637:1.0 282:2.0 283:1.0 285:2.0 290:1.0 562:5.0 289:1.0 1491:1.0 1392:1.0 1390:1.0 199:1.0 1212:1.0 1492:1.0 650:1.0 644:1.0 291:1.0 645:1.0 1493:1.0 275:2.0 1494:1.0 1448:1.0 207:2.0 36:1.0 1495:1.0 
90.0 90.0 1:-100.0 517:1.0 764:1.0 346:1.0 
90.0 90.0 1:-100.0 1305:1.0 764:1.0 346:1.0 207:1.0 
17.79894698247038 19.410319900138 1:-0.375 190:1.0 265:1.0 38:1.0 236:2.0 1496:1.0 1497:1.0 1498:1.0 380:1.0 437:1.0 90:1.0 1499:1.0 942:2.0 28:1.0 406:1.0 1500:1.0 39:1.0 107:1.0 1501:2.0 346:1.0 34:1.0 1293:1.0 1502:1.0 241:1.0 1305:1.0 200:1.0 1503:2.0 1504:1.0 185:1.0 1505:1.0 1506:1.0 36:2.0 1507:1.0 88:2.0 1508:1.0 110:1.0 362:1.0 783:1.0 195:1.0 27:1.0 35:1.0 1509:1.0 1510:1.0 
43.309099037936996 8.289259174876213 1:-100.0 176:1.0 290:1.0 291:4.0 1493:1.0 653:4.0 1511:1.0 641:1.0 1512:1.0 284:3.0 287:1.0 24:1.0 1513:1.0 275:2.0 1514:1.0 491:1.0 289:1.0 647:2.0 645:1.0 562:1.0 639:1.0 1309:1.0 1186:1.0 1515:1.0 36:1.0 
50.89981991216252 10.088086711644232 1:-100.0 1516:1.0 284:4.0 650:1.0 290:1.0 291:3.0 282:1.0 641:2.0 1517:1.0 1208:1.0 648:1.0 1493:1.0 653:3.0 938:2.0 784:1.0 558:1.0 24:1.0 126:1.0 141:1.0 1512:1.0 562:1.0 287:1.0 635:1.0 559:1.0 36:1.0 
12.582866643777184 16.825948446572962 1:-0.10416666666666667 276:1.0 49:1.0 534:1.0 7:1.0 1092:1.0 24:2.0 38:2.0 359:4.0 1518:1.0 1519:1.0 193:2.0 1520:1.0 218:1.0 659:1.0 887:1.0 292:1.0 1521:1.0 36:3.0 225:2.0 16:1.0 1522:1.0 52:1.0 126:1.0 12:1.0 1523:1.0 1524:1.0 749:1.0 15:2.0 1525:1.0 90:1.0 1526:1.0 900:3.0 232:1.0 798:2.0 1527:2.0 1011:1.0 1528:1.0 1529:1.0 265:1.0 1530:1.0 28:1.0 394:1.0 200:1.0 1531:1.0 1532:1.0 88:1.0 34:1.0 
88.75596805739994 74.37401589737155 1:-0.5 38:1.0 359:1.0 1074:1.0 7:1.0 221:1.0 49:1.0 977:1.0 86:1.0 412:1.0 388:1.0 676:1.0 
19.14078506583165 14.184209728881756 1:-0.5 276:1.0 1074:2.0 7:2.0 730:1.0 24:1.0 608:1.0 424:1.0 1533:1.0 221:1.0 1534:1.0 1535:1.0 686:1.0 1536:2.0 36:1.0 440:1.0 606:1.0 35:1.0 533:1.0 1537:1.0 207:2.0 
90.0 62.326097795955256 1:-100.0 16:1.0 49:1.0 346:1.0 827:1.0 702:1.0 292:1.0 565:1.0 1538:1.0 
13.710740433794202 17.87564525006652 1:-0.09375 15:3.0 31:1.0 749:1.0 1538:1.0 36:4.0 126:3.0 1539:1.0 1540:1.0 28:2.0 1541:2.0 877:1.0 1154:1.0 215:1.0 1542:1.0 233:1.0 249:3.0 232:1.0 24:2.0 1543:1.0 1544:1.0 105:1.0 1545:1.0 44:1.0 892:1.0 412:2.0 173:1.0 1546:1.0 1547:1.0 177:2.0 1548:1.0 1549:1.0 1550:1.0 38:1.0 1551:1.0 1552:1.0 517:1.0 839:1.0 449:1.0 52:1.0 1553:1.0 1554:1.0 1074:1.0 1555:1.0 1300:1.0 77:1.0 326:1.0 1197:1.0 1556:1.0 224:1.0 
23.203466994769446 24.192687090255887 1:-0.5625 16:1.0 193:1.0 230:1.0 1100:1.0 50:1.0 1557:1.0 24:2.0 265:1.0 749:1.0 1538:1.0 35:1.0 1558:1.0 
19.255140109353228 21.93139642022668 1:-0.5 999:1.0 21:1.0 257:1.0 52:1.0 1559:1.0 1560:1.0 36:1.0 38:1.0 359:1.0 12:1.0 403:1.0 27:1.0 265:1.0 1561:1.0 1562:1.0 28:2.0 1329:1.0 181:1.0 24:1.0 1538:1.0 749:1.0 146:1.0 77:1.0 15:1.0 1563:1.0 606:1.0 1564:1.0 440:1.0 327:1.0 30:1.0 1565:1.0 207:1.0 
18.936198547310017 18.66199980742838 1:-0.375 38:1.0 1566:1.0 12:1.0 1567:1.0 49:3.0 1568:1.0 1569:1.0 90:1.0 7:1.0 24:1.0 193:1.0 225:1.0 707:1.0 77:1.0 221:2.0 35:3.0 1570:1.0 230:1.0 1571:1.0 1564:1.0 36:3.0 1572:1.0 1538:1.0 16:1.0 339:1.0 1573:1.0 1574:1.0 215:1.0 1575:1.0 1576:1.0 
55.75568899351099 61.967975242715625 1:-0.5 1577:1.0 651:1.0 1538:1.0 28:1.0 221:1.0 292:1.0 565:1.0 1578:1.0 1579:1.0 1580:1.0 86:1.0 334:1.0 
16.884441098531873 17.665806617417118 1:-0.5 218:1.0 842:1.0 88:1.0 280:2.0 1581:1.0 36:3.0 566:1.0 105:1.0 1582:1.0 119:1.0 1092:1.0 1583:1.0 49:1.0 81:1.0 1584:1.0 52:1.0 514:1.0 103:1.0 1585:1.0 1586:1.0 230:1.0 427:1.0 199:1.0 174:1.0 86:1.0 1587:1.0 
90.0 41.386524211705925 1:-100.0 103:1.0 514:1.0 88:1.0 1588:1.0 121:1.0 55:1.0 133:1.0 666:1.0 25:1.0 36:1.0 465:1.0 1043:1.0 373:1.0 
90.0 47.540404769489854 1:-100.0 138:1.0 142:1.0 189:2.0 190:2.0 12:1.0 34:1.0 49:1.0 1589:1.0 805:1.0 144:1.0 25:1.0 246:1.0 1356:1.0 160:1.0 207:1.0 36:1.0 
53.86225091316423 80.33964108073195 1:0.875 853:1.0 284:3.0 289:2.0 294:1.0 291:4.0 16:1.0 199:1.0 1364:1.0 97:1.0 286:1.0 287:1.0 1590:1.0 653:1.0 275:2.0 1591:1.0 650:1.0 36:1.0 1592:1.0 774:1.0 1593:1.0 641:1.0 1594:1.0 1438:1.0 1595:1.0 1596:1.0 8:1.0 
90.0 82.16829685871183 1:-100.0 1244:1.0 218:1.0 35:1.0 696:1.0 280:1.0 1094:1.0 
17.271733967655685 20.094119191314512 1:-0.4375 16:2.0 177:1.0 1597:1.0 766:1.0 1598:1.0 24:1.0 28:1.0 315:1.0 1599:1.0 119:1.0 36:2.0 745:1.0 746:1.0 309:1.0 1600:1.0 1601:1.0 362:1.0 27:1.0 1602:1.0 49:1.0 160:1.0 1603:1.0 196:1.0 897:1.0 103:1.0 58:1.0 
75.6953228245707 74.13828030241832 1:-0.5 1604:1.0 1605:1.0 756:1.0 36:2.0 1356:1.0 105:1.0 207:1.0 
85.2341307122244 17.1958173550631 1:-100.0 103:1.0 189:2.0 190:1.0 953:1.0 954:1.0 947:1.0 121:1.0 97:1.0 49:1.0 1606:1.0 970:1.0 24:1.0 1607:1.0 1608:1.0 36:2.0 540:1.0 1609:1.0 105:1.0 
90.0 37.2116423114676 1:-100.0 744:1.0 745:1.0 746:1.0 309:1.0 38:1.0 860:1.0 185:1.0 1031:1.0 36:1.0 
62.59325227684272 22.017534890387655 1:-100.0 189:2.0 190:1.0 1610:1.0 1266:1.0 1611:1.0 766:1.0 1588:1.0 897:2.0 24:1.0 55:2.0 1601:1.0 514:1.0 44:1.0 666:1.0 1612:1.0 255:1.0 103:1.0 280:1.0 17:1.0 249:1.0 121:1.0 36:1.0 771:1.0 38:1.0 1605:1.0 1357:1.0 
90.0 79.00874814610442 1:-100.0 1613:1.0 105:1.0 8:1.0 744:1.0 745:1.0 746:1.0 36:1.0 
15.527463881532041 15.39801193684074 1:-0.5 103:1.0 121:1.0 514:1.0 25:1.0 406:2.0 49:3.0 315:1.0 1599:1.0 24:2.0 362:1.0 27:1.0 839:1.0 1614:1.0 218:1.0 1615:1.0 59:1.0 745:1.0 746:1.0 309:1.0 1031:2.0 90:1.0 1616:1.0 1617:1.0 1152:1.0 86:1.0 1605:1.0 195:1.0 122:1.0 398:1.0 1357:1.0 
90.0 35.558475036318455 1:-100.0 1618:1.0 823:1.0 745:1.0 746:1.0 1619:1.0 76:1.0 390:1.0 38:1.0 1031:1.0 49:1.0 1616:1.0 1620:1.0 748:1.0 36:1.0 1621:1.0 8:1.0 
90.0 47.59373450770101 1:-100.0 1609:1.0 105:1.0 8:3.0 
35.96227490586745 43.88927896018416 1:-0.5 745:1.0 746:1.0 858:1.0 1031:1.0 756:1.0 36:2.0 1436:1.0 214:1.0 1622:1.0 1357:1.0 
19.02351188328131 0.0 1:-0.875 1623:1.0 1624:1.0 
90.0 89.73361006408697 1:-100.0 771:1.0 214:1.0 55:1.0 1357:1.0 4:1.0 46:1.0 
23.024660886270816 31.81258408486749 1:0.275 706:1.0 608:1.0 862:1.0 646:1.0 32:2.0 103:1.0 1617:1.0 35:3.0 12:2.0 130:1.0 225:3.0 1625:1.0 1626:1.0 36:2.0 1604:1.0 86:1.0 195:1.0 1627:1.0 228:1.0 151:1.0 530:2.0 1048:1.0 819:1.0 55:1.0 1628:1.0 1629:2.0 1630:2.0 88:1.0 1631:1.0 821:1.0 1632:1.0 214:1.0 126:1.0 1633:1.0 271:1.0 449:1.0 15:1.0 16:1.0 1634:1.0 24:1.0 221:1.0 257:1.0 28:1.0 1635:1.0 896:1.0 148:1.0 1636:1.0 185:1.0 453:1.0 230:1.0 1637:1.0 1638:1.0 1356:1.0 8:1.0 
90.0 90.0 1:-100.0 744:1.0 745:1.0 1639:1.0 
24.132284935659204 21.26784889669895 1:-0.625 280:1.0 248:1.0 86:1.0 10:1.0 214:1.0 49:1.0 1640:1.0 200:1.0 751:1.0 202:1.0 24:1.0 17:1.0 359:1.0 117:1.0 28:1.0 16:1.0 55:1.0 36:1.0 
31.01567335438445 40.51299281716047 1:0.08928571428571429 174:1.0 946:1.0 1641:1.0 1588:2.0 1642:1.0 1643:1.0 359:1.0 27:1.0 189:2.0 190:2.0 1644:1.0 1645:1.0 1646:1.0 1551:1.0 24:3.0 933:1.0 1647:1.0 185:1.0 1648:1.0 146:1.0 403:1.0 36:2.0 221:1.0 49:1.0 121:1.0 200:1.0 86:1.0 1100:1.0 1350:1.0 1649:1.0 50:1.0 1557:1.0 1650:1.0 1651:1.0 31:1.0 298:1.0 32:1.0 1652:1.0 88:1.0 214:1.0 
90.0 40.07992690453766 1:-100.0 1653:1.0 1654:1.0 88:1.0 1551:1.0 25:1.0 61:1.0 1545:1.0 44:1.0 321:1.0 1655:1.0 1656:1.0 148:1.0 1484:1.0 58:1.0 
90.0 33.06213430467186 1:-100.0 604:1.0 1657:1.0 91:1.0 1655:1.0 1658:1.0 1596:1.0 34:1.0 144:1.0 8:3.0 
90.0 90.0 1:0.875 1659:1.0 49:1.0 881:1.0 122:1.0 1660:1.0 17:1.0 218:1.0 513:1.0 1620:1.0 1661:1.0 36:2.0 224:1.0 758:1.0 422:1.0 
21.46856292656508 26.077373920456793 1:-0.5 744:1.0 86:1.0 122:1.0 44:1.0 39:1.0 88:2.0 1662:2.0 112:1.0 1663:1.0 382:1.0 1664:1.0 1106:1.0 218:1.0 730:1.0 36:1.0 189:2.0 
90.0 30.181736538140566 1:-100.0 1665:1.0 1666:1.0 762:1.0 1667:1.0 1668:2.0 36:2.0 25:1.0 246:1.0 221:1.0 1026:1.0 1669:1.0 12:1.0 34:1.0 
36.498436943331036 39.41314040039809 1:-0.5 1670:1.0 145:1.0 1671:2.0 1672:1.0 166:1.0 1673:1.0 24:1.0 1602:1.0 49:1.0 61:1.0 1197:1.0 472:1.0 396:1.0 651:1.0 188:1.0 34:1.0 659:1.0 58:1.0 
5.2051986684001115 2.4682923303275413 1:-0.75 1674:1.0 284:2.0 641:3.0 290:2.0 291:4.0 784:1.0 653:2.0 1438:1.0 559:2.0 1492:1.0 562:2.0 650:1.0 658:1.0 1675:1.0 1676:1.0 1677:1.0 8:1.0 
90.0 37.51506122263589 1:-100.0 883:1.0 1627:1.0 1678:1.0 350:1.0 47:1.0 1390:1.0 938:1.0 728:1.0 221:1.0 1549:1.0 130:1.0 17:1.0 232:1.0 1679:1.0 1680:1.0 36:1.0 
15.123404021794153 5.434254556586404 1:-0.75 1681:1.0 669:1.0 1348:1.0 24:2.0 1682:1.0 587:1.0 1683:1.0 1684:1.0 405:1.0 965:1.0 25:1.0 232:1.0 203:1.0 237:1.0 
77.68563972104515 16.98581865527367 1:-0.75 91:1.0 1096:1.0 1685:1.0 105:1.0 232:1.0 302:1.0 32:1.0 55:1.0 
90.0 44.123517324873404 1:-100.0 441:1.0 1686:1.0 821:1.0 200:1.0 18:1.0 560:1.0 36:2.0 1027:1.0 
90.0 90.0 1:-100.0 21:1.0 1687:1.0 406:1.0 1688:1.0 36:1.0 
90.0 90.0 1:0.6250000000000001 1689:1.0 28:1.0 788:1.0 1690:1.0 828:1.0 1691:1.0 12:1.0 362:1.0 1692:1.0 1693:1.0 24:1.0 
90.0 90.0 1:-100.0 1694:1.0 659:1.0 482:1.0 234:1.0 8:1.0 
90.0 50.96912170517368 1:-100.0 1448:1.0 562:1.0 289:1.0 1132:1.0 284:1.0 650:1.0 1438:1.0 291:1.0 1678:1.0 36:1.0 
63.17519246929784 12.275494922292959 1:-100.0 1695:1.0 1696:1.0 1697:1.0 1698:1.0 1699:1.0 1700:1.0 1701:2.0 1702:2.0 1703:2.0 1704:2.0 1705:2.0 1706:1.0 766:1.0 1707:1.0 1708:1.0 1408:1.0 1709:1.0 36:2.0 1710:1.0 918:1.0 1711:1.0 662:1.0 1390:1.0 1712:1.0 1514:1.0 784:1.0 654:1.0 532:1.0 560:1.0 1713:1.0 8:1.0 
90.0 69.64990849781458 1:-100.0 150:1.0 35:1.0 864:1.0 1686:1.0 16:1.0 1714:1.0 1715:1.0 
90.0 46.5648388863567 1:-100.0 1716:1.0 406:1.0 49:1.0 195:1.0 1717:1.0 1718:1.0 47:1.0 257:1.0 1671:1.0 1719:1.0 1640:1.0 36:1.0 
4.125850734295097 6.091693035477194 1:-0.23214285714285715 145:2.0 1720:5.0 1721:1.0 218:1.0 38:1.0 454:1.0 780:1.0 24:4.0 950:1.0 287:1.0 207:1.0 12:1.0 34:1.0 49:1.0 100:1.0 362:1.0 315:4.0 88:5.0 185:2.0 1671:5.0 36:5.0 1305:1.0 1722:1.0 1723:1.0 32:3.0 44:2.0 25:1.0 659:1.0 59:1.0 16:4.0 1724:1.0 1725:1.0 476:1.0 17:2.0 28:1.0 588:3.0 1726:1.0 1727:1.0 1728:1.0 1729:1.0 35:3.0 108:1.0 41:1.0 142:1.0 122:2.0 1730:1.0 1731:1.0 1092:1.0 605:1.0 1732:1.0 1733:1.0 55:2.0 1734:1.0 1735:2.0 1736:1.0 249:1.0 1737:1.0 1738:1.0 90:1.0 1739:1.0 191:1.0 1740:1.0 1741:1.0 1742:1.0 1743:1.0 
17.896656217600032 9.142490885167174 1:-0.625 878:1.0 706:1.0 714:1.0 1744:2.0 1745:1.0 232:2.0 1746:1.0 1747:1.0 1579:1.0 86:1.0 122:1.0 1748:1.0 24:1.0 166:1.0 39:1.0 225:1.0 970:1.0 1749:1.0 312:1.0 1750:1.0 510:1.0 165:1.0 12:1.0 38:1.0 1751:1.0 176:1.0 36:1.0 
90.0 46.986272450819726 1:-100.0 77:1.0 221:1.0 35:1.0 1752:1.0 1753:1.0 24:1.0 91:1.0 1551:1.0 61:1.0 49:1.0 1249:1.0 1754:1.0 241:1.0 
35.645630823810265 11.530921976850115 1:-0.75 1755:1.0 1756:1.0 1757:1.0 321:1.0 1140:1.0 1133:1.0 31:1.0 
20.706674830554988 16.23451778618343 1:-0.125 48:1.0 119:1.0 225:2.0 249:1.0 690:1.0 176:1.0 165:3.0 1744:3.0 24:5.0 769:1.0 257:1.0 200:1.0 1758:1.0 1305:2.0 36:3.0 215:1.0 997:1.0 1759:1.0 948:1.0 1760:1.0 530:1.0 1761:1.0 765:1.0 1762:1.0 232:1.0 359:1.0 1763:1.0 1764:1.0 185:3.0 105:1.0 1765:1.0 142:1.0 25:1.0 1766:1.0 1090:1.0 28:1.0 839:1.0 1767:1.0 148:1.0 482:1.0 388:1.0 1768:1.0 465:1.0 1043:1.0 373:1.0 
44.95348575086703 57.96935319805926 1:-0.2916666666666667 122:1.0 1769:1.0 388:1.0 606:2.0 1770:1.0 891:1.0 12:1.0 257:1.0 173:1.0 1771:1.0 165:1.0 271:1.0 327:1.0 24:1.0 277:1.0 144:1.0 1772:1.0 262:1.0 86:1.0 55:1.0 
19.145051434489588 30.149926790610152 1:-0.3 388:2.0 606:2.0 150:1.0 677:1.0 28:2.0 339:1.0 1772:1.0 1773:1.0 224:1.0 36:2.0 913:1.0 971:1.0 25:1.0 271:1.0 166:1.0 1363:1.0 31:1.0 764:1.0 105:1.0 
90.0 50.44481311008453 1:-100.0 1545:1.0 105:1.0 232:1.0 44:1.0 1774:1.0 1588:1.0 24:1.0 77:1.0 35:1.0 1775:1.0 1776:1.0 
3.134633583083845 4.302309159977057 1:-0.203125 1777:3.0 355:1.0 86:1.0 38:1.0 236:1.0 646:1.0 321:6.0 1272:2.0 49:4.0 30:1.0 24:13.0 798:1.0 77:1.0 21:1.0 297:1.0 666:1.0 755:1.0 1778:1.0 200:1.0 309:1.0 1655:1.0 514:5.0 1779:1.0 1780:2.0 1781:1.0 34:1.0 35:1.0 25:3.0 1782:1.0 1783:1.0 945:1.0 16:6.0 388:2.0 55:1.0 177:1.0 1588:2.0 1784:1.0 36:6.0 122:3.0 1411:5.0 1785:1.0 608:1.0 1786:2.0 1787:1.0 351:2.0 352:2.0 353:2.0 354:2.0 39:2.0 148:1.0 374:1.0 110:1.0 1788:1.0 565:1.0 176:4.0 671:1.0 28:2.0 138:1.0 966:1.0 1789:1.0 1790:1.0 1791:1.0 1792:1.0 1793:1.0 1794:1.0 359:1.0 126:2.0 257:1.0 1795:1.0 792:2.0 173:1.0 1796:1.0 1797:1.0 1798:1.0 12:1.0 1799:1.0 271:1.0 17:1.0 501:1.0 133:1.0 793:1.0 1800:1.0 243:1.0 1801:1.0 1802:1.0 938:1.0 135:1.0 225:1.0 142:1.0 10:1.0 310:1.0 61:1.0 315:1.0 88:1.0 214:1.0 766:1.0 842:1.0 115:1.0 1803:1.0 224:1.0 
90.0 90.0 1:0.625 572:1.0 199:1.0 440:1.0 47:1.0 1804:2.0 36:2.0 1087:1.0 16:1.0 1805:1.0 1806:1.0 908:1.0 55:1.0 1807:1.0 24:1.0 1808:1.0 
90.0 23.22341363939663 1:-100.0 1809:1.0 27:1.0 229:1.0 565:2.0 1810:1.0 322:1.0 918:1.0 126:1.0 174:1.0 1804:1.0 185:1.0 908:1.0 1811:1.0 144:1.0 271:1.0 21:1.0 793:1.0 55:1.0 1752:1.0 1812:1.0 36:1.0 59:1.0 
23.921845608618764 23.126820526939383 1:-0.5 221:1.0 977:1.0 86:1.0 1774:1.0 224:1.0 24:1.0 1744:1.0 327:1.0 1813:2.0 110:2.0 1814:2.0 1358:2.0 891:1.0 148:1.0 
32.14352819600898 29.41217627303133 1:-0.625 532:1.0 213:1.0 1815:1.0 1777:1.0 36:2.0 1816:1.0 1744:2.0 1817:1.0 
90.0 50.711662218944866 1:-100.0 1818:1.0 35:1.0 33:1.0 1819:1.0 1820:1.0 28:1.0 199:1.0 1771:1.0 271:1.0 1821:1.0 1822:1.0 
26.280354777840184 27.03708704816355 1:-0.3125 606:2.0 165:2.0 913:2.0 1396:1.0 1823:1.0 36:3.0 25:1.0 388:1.0 747:1.0 1771:1.0 49:1.0 971:1.0 95:1.0 225:1.0 271:1.0 514:1.0 1824:1.0 230:1.0 176:1.0 77:1.0 465:1.0 1043:1.0 373:1.0 
23.060643215626797 14.475511279713183 1:-0.5 1744:3.0 1042:1.0 86:2.0 176:2.0 28:1.0 1825:1.0 25:2.0 16:1.0 138:1.0 1826:1.0 1827:1.0 1828:1.0 130:1.0 1356:1.0 36:2.0 1819:1.0 318:1.0 606:1.0 1829:1.0 119:1.0 
1.590326802981883 2.0700800741368077 1:-0.5625 1493:1.0 291:13.0 783:1.0 562:13.0 1830:1.0 653:5.0 559:2.0 655:2.0 1062:1.0 488:2.0 284:11.0 287:2.0 491:2.0 650:4.0 1831:2.0 275:6.0 1133:4.0 777:3.0 641:6.0 86:1.0 1832:1.0 1590:1.0 36:3.0 784:1.0 24:2.0 1833:1.0 636:1.0 637:4.0 290:2.0 1834:1.0 1448:1.0 289:3.0 1676:1.0 126:1.0 775:1.0 656:2.0 1835:1.0 565:1.0 1836:1.0 1837:1.0 1838:1.0 1839:1.0 1840:1.0 563:1.0 21:1.0 662:1.0 640:1.0 663:1.0 648:2.0 1769:1.0 1841:1.0 1842:1.0 654:2.0 558:1.0 280:1.0 1843:1.0 643:1.0 938:1.0 735:1.0 1844:1.0 1845:1.0 1186:1.0 1208:1.0 
34.35890565061577 36.717833398114635 1:-0.125 225:1.0 783:1.0 637:1.0 1846:1.0 562:4.0 650:1.0 1847:1.0 193:1.0 1848:1.0 291:3.0 643:1.0 1658:1.0 560:1.0 645:1.0 1849:1.0 282:1.0 1212:1.0 285:1.0 654:1.0 1832:1.0 1850:1.0 1392:1.0 1851:1.0 530:1.0 233:1.0 36:1.0 
12.18066198819996 11.030153110907934 1:-0.5 1852:4.0 1853:1.0 56:3.0 1854:1.0 1855:1.0 50:1.0 126:1.0 35:2.0 271:1.0 24:3.0 475:1.0 221:1.0 49:1.0 28:1.0 897:1.0 565:1.0 1856:2.0 842:1.0 1808:1.0 230:1.0 1857:2.0 510:1.0 1094:1.0 232:1.0 105:1.0 218:1.0 1858:1.0 166:1.0 1859:1.0 1744:1.0 1860:1.0 1861:1.0 55:1.0 659:1.0 
13.131461320056726 15.647529723642407 1:-0.5 1742:1.0 1862:1.0 27:1.0 1863:2.0 83:1.0 199:1.0 901:1.0 88:2.0 122:1.0 959:2.0 1864:1.0 1865:1.0 24:1.0 91:1.0 1866:1.0 16:1.0 239:1.0 755:1.0 1867:1.0 148:1.0 15:1.0 177:1.0 398:1.0 362:1.0 36:2.0 1852:1.0 1868:1.0 736:1.0 895:2.0 56:2.0 25:1.0 1869:1.0 476:1.0 
6.525506066832598 7.770424615313202 1:-0.5 777:1.0 284:5.0 287:2.0 1870:1.0 491:2.0 653:2.0 289:1.0 488:1.0 562:5.0 558:1.0 627:1.0 291:3.0 641:2.0 32:1.0 86:1.0 1871:1.0 1850:1.0 1392:1.0 36:2.0 566:1.0 1872:1.0 1656:1.0 1873:1.0 559:1.0 650:3.0 1831:1.0 275:1.0 1848:1.0 1874:1.0 1875:1.0 648:1.0 784:1.0 1390:1.0 1843:1.0 643:1.0 
90.0 50.51648011812387 1:-100.0 135:1.0 1876:1.0 35:1.0 237:1.0 126:1.0 677:1.0 17:1.0 502:1.0 185:1.0 48:1.0 235:1.0 
51.524657713680945 42.79241928172324 1:-0.5 91:1.0 424:1.0 1877:1.0 145:2.0 549:1.0 843:1.0 1878:1.0 28:1.0 1066:1.0 1879:1.0 1880:1.0 1881:1.0 27:1.0 15:1.0 76:1.0 935:1.0 36:1.0 
54.43848785822176 68.33731124905258 1:-0.16666666666666666 278:1.0 16:1.0 1500:1.0 38:1.0 1882:1.0 1154:1.0 230:1.0 1883:2.0 359:2.0 768:1.0 459:1.0 738:1.0 28:1.0 1884:1.0 86:1.0 361:1.0 207:1.0 
10.397539798082764 1.9471423152555256 1:-0.75 61:1.0 966:1.0 121:1.0 1885:1.0 1886:1.0 748:1.0 793:1.0 32:1.0 108:1.0 1887:1.0 440:1.0 1020:1.0 978:1.0 36:2.0 232:1.0 1047:1.0 236:1.0 246:2.0 1888:1.0 89:1.0 1889:1.0 105:1.0 1890:1.0 248:1.0 
90.0 73.09032995045237 1:-100.0 70:1.0 606:1.0 88:1.0 91:1.0 1891:1.0 1892:1.0 8:1.0 
90.0 79.0085550352341 1:-100.0 1893:1.0 225:1.0 142:1.0 1770:1.0 207:1.0 1894:1.0 8:1.0 
10.76850598950901 4.055037323195593 1:-0.75 1897:1.0 276:2.0 1614:1.0 248:1.0 1898:1.0 199:1.0 24:2.0 1571:1.0 1899:1.0 476:1.0 879:1.0 406:1.0 1900:1.0 90:1.0 606:1.0 1536:1.0 361:1.0 119:1.0 36:1.0 
90.0 46.20573585068109 1:-100.0 517:1.0 1901:1.0 28:1.0 1902:1.0 224:1.0 24:1.0 1903:1.0 1363:1.0 1904:1.0 218:1.0 
90.0 40.70703304448113 1:-100.0 931:1.0 230:1.0 334:1.0 1905:1.0 686:1.0 1899:1.0 696:1.0 666:1.0 318:1.0 312:1.0 723:1.0 1906:1.0 965:1.0 25:1.0 928:1.0 36:1.0 
2.188918602689814 0.0 1:-0.7499999999999999 322:1.0 918:1.0 1907:1.0 359:1.0 144:1.0 218:1.0 1571:3.0 1899:2.0 36:2.0 1908:1.0 230:1.0 115:1.0 1909:1.0 1910:1.0 1911:1.0 35:1.0 61:1.0 751:1.0 202:1.0 12:1.0 34:1.0 49:1.0 362:1.0 
90.0 37.28394297593529 1:-100.0 592:1.0 189:2.0 190:2.0 476:1.0 481:1.0 133:1.0 145:1.0 59:1.0 8:1.0 
26.537461768289447 27.33399559072346 1:-0.5 1912:1.0 39:1.0 1913:1.0 1914:1.0 16:1.0 55:1.0 1915:1.0 686:1.0 1899:1.0 24:1.0 25:1.0 970:1.0 440:1.0 233:1.0 1916:1.0 119:1.0 36:1.0 265:1.0 928:1.0 476:1.0 28:1.0 533:1.0 235:1.0 38:1.0 957:1.0 146:1.0 135:1.0 1094:1.0 
90.0 19.76582033191454 1:-100.0 144:1.0 218:1.0 706:1.0 1917:3.0 905:1.0 24:2.0 1571:1.0 1899:1.0 59:2.0 298:1.0 1918:1.0 44:1.0 95:1.0 
36.08833190891688 40.05118226490211 1:-0.5 720:1.0 1869:1.0 86:1.0 1919:1.0 24:2.0 55:1.0 274:1.0 398:1.0 276:1.0 1920:1.0 878:1.0 674:1.0 195:1.0 238:1.0 1921:1.0 
4.760817067471291 3.5949444446691845 1:-0.75 1199:2.0 1922:1.0 648:1.0 1923:1.0 1924:1.0 1702:1.0 1925:1.0 1926:1.0 36:5.0 1927:1.0 1928:2.0 852:1.0 642:1.0 1929:1.0 1930:1.0 856:1.0 1931:1.0 1133:1.0 1932:2.0 1408:2.0 1933:1.0 1934:1.0 1514:1.0 560:1.0 638:1.0 1935:1.0 659:1.0 298:1.0 1210:1.0 846:2.0 408:1.0 108:1.0 1936:1.0 1937:1.0 1938:1.0 1639:2.0 1657:1.0 290:1.0 
10.998949808931862 9.796432240141083 1:-0.625 1305:1.0 150:1.0 1939:1.0 52:1.0 100:1.0 24:4.0 1940:1.0 302:1.0 1941:1.0 1942:1.0 1943:1.0 55:1.0 1295:1.0 1944:1.0 504:2.0 1847:2.0 1945:1.0 122:1.0 959:1.0 1804:1.0 1125:1.0 35:1.0 1946:1.0 185:1.0 805:1.0 1947:1.0 28:1.0 1948:1.0 1949:1.0 36:1.0 
6.92033052795895 7.1777051223127 1:-0.5 193:1.0 1950:1.0 38:1.0 1951:1.0 1952:1.0 1804:1.0 36:4.0 1727:1.0 49:2.0 1953:1.0 1877:1.0 1954:1.0 565:1.0 1655:4.0 24:3.0 1955:1.0 122:2.0 878:3.0 1956:1.0 1957:1.0 88:3.0 89:1.0 44:2.0 1958:1.0 1959:1.0 1736:1.0 1960:1.0 396:1.0 34:1.0 265:1.0 361:1.0 1961:1.0 28:1.0 15:1.0 1962:1.0 1778:1.0 20:1.0 16:1.0 177:1.0 398:1.0 1963:1.0 271:1.0 901:1.0 55:1.0 1905:1.0 723:1.0 185:1.0 976:1.0 1964:1.0 1668:1.0 
12.313220068046542 14.004772795905234 1:-0.011363636363636364 225:1.0 707:1.0 10:1.0 1965:1.0 1957:2.0 88:2.0 878:1.0 839:1.0 1459:2.0 195:1.0 1966:1.0 1254:2.0 1853:1.0 36:4.0 126:2.0 659:5.0 49:3.0 1727:2.0 388:2.0 1967:2.0 1963:2.0 86:2.0 38:1.0 1968:1.0 1807:1.0 44:1.0 200:1.0 1296:1.0 24:1.0 1969:1.0 1970:1.0 185:1.0 400:1.0 896:1.0 25:1.0 1971:1.0 346:1.0 230:1.0 889:1.0 890:1.0 334:2.0 176:1.0 55:1.0 796:2.0 627:1.0 1972:1.0 530:1.0 1579:1.0 12:1.0 257:1.0 1973:1.0 1974:1.0 199:1.0 514:2.0 1829:2.0 28:1.0 513:1.0 61:1.0 1766:1.0 207:1.0 59:1.0 
90.0 78.38704903879649 1:-100.0 1199:1.0 1463:1.0 1975:1.0 1976:1.0 1977:1.0 1978:1.0 1979:1.0 
90.0 27.10207529529733 1:-100.0 1980:1.0 221:1.0 440:1.0 1004:1.0 224:1.0 241:1.0 1981:1.0 28:1.0 706:1.0 177:1.0 757:1.0 1982:1.0 1983:1.0 8:1.0 574:1.0 91:1.0 322:1.0 709:1.0 1984:1.0 733:1.0 36:1.0 
38.6580551889976 42.51407034935074 1:-0.5 1884:1.0 1985:1.0 928:1.0 133:1.0 1044:1.0 1986:1.0 322:1.0 918:1.0 1987:1.0 957:1.0 792:1.0 135:1.0 398:1.0 232:1.0 160:1.0 59:1.0 
22.397454205963466 29.748112672901737 1:-0.0625 221:1.0 839:1.0 271:2.0 17:1.0 78:2.0 55:2.0 90:2.0 280:2.0 28:2.0 223:1.0 24:3.0 441:1.0 86:1.0 49:1.0 1988:1.0 530:1.0 16:2.0 36:2.0 1252:1.0 35:1.0 1989:1.0 475:1.0 1990:1.0 639:1.0 1991:1.0 88:1.0 1992:1.0 1993:1.0 214:1.0 279:1.0 
8.677696398169564 4.076786809370479 1:-0.75 864:2.0 1994:1.0 271:1.0 302:1.0 1334:1.0 800:1.0 185:1.0 534:1.0 1995:1.0 55:2.0 1996:2.0 52:1.0 24:1.0 1997:1.0 35:1.0 215:1.0 317:1.0 1998:1.0 233:1.0 193:1.0 61:1.0 1999:1.0 230:1.0 2000:1.0 2001:1.0 36:1.0 
90.0 55.80047598318221 1:-100.0 1777:1.0 49:1.0 2002:1.0 166:1.0 588:1.0 348:1.0 2003:1.0 2004:1.0 4:1.0 415:1.0 
33.63792263473481 7.046144247053642 1:-100.0 538:1.0 517:1.0 534:2.0 2005:1.0 91:2.0 864:2.0 2006:1.0 52:1.0 25:3.0 221:2.0 199:2.0 1334:2.0 2007:1.0 2008:2.0 148:1.0 2009:1.0 58:1.0 59:5.0 2010:1.0 103:2.0 2011:1.0 2012:1.0 2013:1.0 16:3.0 1995:1.0 2014:1.0 676:1.0 49:1.0 2015:1.0 
51.54186498204361 61.40178562093806 1:-0.5 105:1.0 1079:1.0 8:3.0 
41.96821699901971 58.14660247073388 1:0.425 89:1.0 406:2.0 155:2.0 127:1.0 2016:1.0 2017:1.0 218:1.0 1728:1.0 1374:1.0 88:1.0 759:1.0 189:2.0 190:2.0 2018:1.0 2019:1.0 1851:1.0 27:1.0 24:3.0 2020:1.0 122:1.0 2021:1.0 912:1.0 1499:1.0 942:1.0 230:1.0 200:1.0 2022:1.0 199:1.0 195:1.0 2023:1.0 2024:1.0 126:1.0 417:1.0 271:1.0 142:1.0 2025:1.0 482:1.0 100:1.0 2026:1.0 36:1.0 
90.0 90.0 1:-0.5 150:1.0 35:1.0 1079:1.0 207:1.0 
66.84756172756671 90.0 1:-0.0625 2027:1.0 25:1.0 2028:1.0 122:1.0 166:1.0 2029:1.0 160:1.0 136:1.0 28:1.0 195:1.0 2030:1.0 24:1.0 2031:1.0 73:1.0 445:1.0 35:1.0 819:1.0 302:1.0 1415:1.0 758:1.0 8:1.0 
90.0 90.0 1:-0.5 299:1.0 30:1.0 8:1.0 
18.579613725119387 24.792456017267394 1:-0.1 604:1.0 2032:2.0 28:2.0 146:1.0 95:1.0 25:1.0 517:1.0 24:3.0 144:1.0 218:1.0 1262:2.0 86:1.0 969:2.0 482:1.0 2033:1.0 36:2.0 16:2.0 200:1.0 471:1.0 73:1.0 52:1.0 2034:1.0 2035:3.0 2036:1.0 246:1.0 2037:1.0 724:2.0 2038:1.0 193:1.0 895:1.0 318:1.0 117:1.0 
51.54468868474445 70.25115977572585 1:-0.16666666666666666 224:1.0 417:1.0 24:2.0 148:1.0 221:1.0 215:1.0 2032:1.0 666:1.0 27:1.0 1218:1.0 398:1.0 2039:1.0 2040:1.0 86:1.0 38:1.0 957:1.0 2041:1.0 119:1.0 2042:1.0 
-33.96670315451235 32.58691507984196 1:-100.0 116:1.0 51:1.0 778:2.0 291:3.0 645:2.0 784:2.0 284:4.0 2043:1.0 643:1.0 24:1.0 1676:1.0 650:1.0 561:1.0 562:1.0 287:1.0 294:1.0 289:1.0 8:2.0 59:1.0 2044:1.0 
-58.346367244746375 30.816082698918716 1:-100.0 2045:1.0 2046:1.0 35:1.0 77:1.0 353:1.0 2047:1.0 935:1.0 2048:1.0 2049:1.0 119:1.0 1496:1.0 110:1.0 2050:1.0 
-90.0 57.948178339182235 1:-100.0 2035:1.0 2051:1.0 27:1.0 16:1.0 2052:1.0 55:1.0 95:1.0 
-67.86077563818999 90.0 1:0.5 225:1.0 148:1.0 223:1.0 2053:1.0 90:1.0 1533:1.0 100:1.0 430:1.0 322:1.0 918:1.0 24:1.0 49:1.0 2054:1.0 346:1.0 95:1.0 52:1.0 8:1.0 
-90.0 33.48792021539257 1:-100.0 588:1.0 416:1.0 744:1.0 2055:1.0 199:1.0 2056:1.0 709:1.0 36:1.0 
-8.566169790011669 29.320521390344414 1:0.375 146:1.0 73:1.0 225:2.0 24:3.0 396:1.0 608:1.0 2057:1.0 2058:1.0 2059:1.0 249:1.0 232:1.0 2060:1.0 49:2.0 1418:1.0 2061:1.0 2062:1.0 39:1.0 36:4.0 138:1.0 238:2.0 52:2.0 1092:1.0 148:1.0 2063:1.0 2064:1.0 38:1.0 236:1.0 553:1.0 176:1.0 463:1.0 28:1.0 706:1.0 76:1.0 1095:1.0 2065:1.0 730:1.0 17:1.0 2066:1.0 50:1.0 359:1.0 494:1.0 
-40.020484280805825 42.200871537144884 1:0.0 70:2.0 27:1.0 219:1.0 176:1.0 257:1.0 49:1.0 2067:1.0 604:1.0 496:1.0 24:1.0 2068:1.0 1282:1.0 246:1.0 148:1.0 16:3.0 61:1.0 2069:1.0 235:1.0 193:1.0 2070:1.0 2071:1.0 144:1.0 241:1.0 1450:1.0 1107:1.0 2072:1.0 2073:1.0 133:1.0 2074:1.0 2075:1.0 1095:1.0 2076:1.0 1793:1.0 530:1.0 2077:1.0 1649:1.0 2078:1.0 1995:1.0 2079:1.0 86:1.0 975:1.0 827:1.0 
-47.78071214350213 22.175334127388677 1:-100.0 2080:1.0 2081:1.0 2068:1.0 176:1.0 90:1.0 2082:1.0 321:1.0 1142:1.0 2083:1.0 2084:1.0 2085:1.0 630:1.0 89:1.0 36:1.0 
-90.0 90.0 1:-0.041666666666666664 39:1.0 89:2.0 49:1.0 816:1.0 1427:1.0 2068:1.0 2086:1.0 135:1.0 2035:1.0 2087:1.0 2088:1.0 52:1.0 841:1.0 459:1.0 1095:1.0 25:1.0 176:1.0 86:1.0 2089:1.0 36:1.0 
-90.0 90.0 1:0.75 938:1.0 943:1.0 199:1.0 1645:1.0 16:1.0 177:1.0 313:1.0 95:1.0 36:1.0 
-90.0 90.0 1:-0.5 163:1.0 27:1.0 221:1.0 299:1.0 608:1.0 2090:1.0 
-90.0 90.0 1:-100.0 2085:1.0 2091:1.0 
-43.78918568256885 90.0 1:0.7500000000000001 155:1.0 171:1.0 163:1.0 204:1.0 2092:1.0 1959:1.0 321:1.0 881:1.0 650:1.0 406:1.0 142:1.0 169:1.0 119:1.0 970:1.0 1620:1.0 173:1.0 684:1.0 476:2.0 24:1.0 138:1.0 238:1.0 27:1.0 17:1.0 157:1.0 233:1.0 1325:1.0 
-49.298265362604255 84.00578672261604 1:0.275 2093:1.0 522:1.0 16:1.0 2094:1.0 122:1.0 36:1.0 91:1.0 35:2.0 56:1.0 1439:1.0 1402:1.0 223:1.0 88:1.0 1024:2.0 207:1.0 790:1.0 392:1.0 306:1.0 27:1.0 49:1.0 2095:1.0 1092:1.0 2096:1.0 24:1.0 2097:1.0 166:1.0 1763:1.0 2098:1.0 59:2.0 
-53.96600165563059 28.299517531960355 1:-100.0 2099:1.0 70:1.0 346:2.0 148:1.0 61:1.0 677:1.0 24:1.0 16:1.0 1893:1.0 2100:1.0 36:1.0 
-50.903100649143106 90.0 1:0.5 77:1.0 35:2.0 2100:1.0 2101:1.0 787:1.0 2102:1.0 126:1.0 309:1.0 2103:1.0 90:1.0 359:2.0 36:2.0 246:1.0 1853:1.0 2104:1.0 2105:1.0 185:1.0 2106:1.0 674:1.0 91:1.0 1567:1.0 
-39.77876752532405 72.82347077530619 1:0.3 2107:1.0 35:1.0 215:2.0 216:1.0 126:1.0 2108:2.0 201:1.0 218:1.0 199:1.0 2109:1.0 186:1.0 255:1.0 568:1.0 181:1.0 193:1.0 686:1.0 232:1.0 1679:1.0 28:1.0 2110:1.0 997:1.0 1655:1.0 723:1.0 2111:1.0 76:1.0 72:1.0 2112:1.0 321:1.0 666:1.0 796:1.0 233:1.0 758:1.0 61:1.0 223:1.0 12:1.0 1626:1.0 
-90.0 90.0 1:0.375 16:1.0 764:1.0 546:1.0 24:1.0 1472:1.0 793:1.0 70:1.0 152:1.0 1061:1.0 185:1.0 207:1.0 1303:1.0 251:1.0 8:1.0 
-90.0 90.0 1:-0.5 2113:1.0 34:1.0 230:1.0 1253:1.0 1414:1.0 2114:1.0 2115:1.0 144:1.0 440:1.0 1459:1.0 36:1.0 2116:1.0 86:1.0 788:1.0 2117:1.0 35:1.0 321:1.0 615:1.0 1448:1.0 
-90.0 90.0 1:0.5625 646:1.0 35:1.0 449:1.0 146:1.0 326:1.0 
-58.36919231213938 30.82376681790362 1:-100.0 2118:1.0 477:1.0 91:1.0 2116:1.0 76:1.0 1006:1.0 24:1.0 144:1.0 762:1.0 188:1.0 559:1.0 1622:1.0 233:1.0 
-85.99153815678514 90.0 1:0.625 392:1.0 145:1.0 76:1.0 2119:1.0 2120:1.0 2121:1.0 353:1.0 230:1.0 427:1.0 2122:1.0 2123:1.0 2124:1.0 541:1.0 2125:1.0 29:1.0 
-48.37560245757176 21.763848664807078 1:-0.7499999999999999 406:1.0 35:2.0 2126:1.0 88:2.0 1703:2.0 28:1.0 298:1.0 148:1.0 61:1.0 2127:1.0 819:2.0 27:1.0 4:2.0 351:2.0 352:2.0 353:2.0 354:2.0 29:4.0 202:1.0 432:1.0 2128:1.0 91:1.0 2129:1.0 1431:1.0 751:1.0 788:1.0 36:1.0 34:1.0 820:1.0 24:1.0 33:1.0 2130:1.0 705:1.0 52:1.0 
-72.04398765300925 39.051379496101596 1:-100.0 89:1.0 148:1.0 15:1.0 483:1.0 185:1.0 428:1.0 297:1.0 77:1.0 36:1.0 
-90.0 66.68908716238009 1:-100.0 428:1.0 1820:1.0 58:1.0 2131:1.0 24:1.0 36:1.0 
-27.649818656424802 34.05698496688372 1:0.08333333333333333 232:1.0 122:1.0 449:1.0 76:1.0 90:1.0 51:1.0 2132:2.0 36:4.0 950:2.0 2133:2.0 233:1.0 351:1.0 352:1.0 353:1.0 354:1.0 145:1.0 27:1.0 435:1.0 12:3.0 2134:1.0 46:1.0 279:1.0 728:1.0 53:2.0 185:1.0 55:1.0 2135:1.0 297:1.0 2136:1.0 257:1.0 2137:1.0 1051:1.0 2138:1.0 35:1.0 215:1.0 2139:1.0 2140:1.0 461:1.0 2105:1.0 2141:1.0 2142:1.0 4:1.0 
-90.0 90.0 1:-100.0 171:1.0 2147:1.0 2148:1.0 2149:1.0 
-90.0 50.59053872491319 1:-100.0 1181:1.0 2150:1.0 27:1.0 49:1.0 440:1.0 171:1.0 2134:1.0 36:1.0 
-29.30230315462621 15.063852661840134 1:-100.0 2143:1.0 36:2.0 83:1.0 47:1.0 2144:1.0 49:2.0 30:2.0 2133:1.0 2145:1.0 758:1.0 103:1.0 90:1.0 755:1.0 686:1.0 2146:1.0 625:1.0 35:1.0 
-27.734158984761834 38.739216698371294 1:0.16666666666666666 900:1.0 2151:1.0 1062:1.0 811:1.0 360:1.0 465:2.0 2152:2.0 373:2.0 326:1.0 28:1.0 666:4.0 1366:1.0 955:1.0 49:2.0 2153:2.0 2154:1.0 2155:2.0 2156:1.0 24:1.0 27:1.0 221:1.0 1604:1.0 2157:1.0 25:1.0 224:1.0 36:2.0 2158:1.0 2159:1.0 522:1.0 44:1.0 984:1.0 107:1.0 2111:1.0 2160:1.0 218:1.0 730:1.0 8:1.0 1309:1.0 2161:1.0 
-75.79242149101121 40.31899886884824 1:-100.0 2162:1.0 1959:1.0 321:1.0 36:1.0 421:1.0 225:1.0 2163:1.0 1073:1.0 1593:1.0 427:1.0 
-90.0 90.0 1:-100.0 200:1.0 171:1.0 1459:1.0 
-90.0 40.49919967073873 1:-100.0 16:1.0 321:1.0 1551:1.0 52:1.0 96:1.0 2164:1.0 2165:1.0 36:1.0 
-54.21056707541294 28.550211503253486 1:-100.0 2166:1.0 77:1.0 35:1.0 321:2.0 842:1.0 12:1.0 2167:1.0 197:1.0 2168:1.0 996:1.0 59:1.0 
-58.35175677940651 30.877638130203376 1:-100.0 2169:1.0 228:1.0 25:1.0 232:1.0 750:1.0 166:1.0 2170:1.0 1358:1.0 58:1.0 59:1.0 2171:1.0 724:1.0 1050:1.0 
-90.0 50.60603239430984 1:-100.0 473:1.0 121:1.0 274:1.0 316:1.0 396:1.0 257:1.0 336:1.0 36:1.0 
-90.0 37.703449778155125 1:-100.0 122:1.0 12:1.0 1055:1.0 24:1.0 2172:1.0 105:1.0 336:1.0 36:1.0 
-90.0 90.0 1:-0.625 750:1.0 38:1.0 2173:1.0 989:2.0 199:1.0 2174:1.0 417:1.0 142:1.0 2175:1.0 2176:1.0 25:1.0 16:1.0 2177:1.0 346:1.0 58:1.0 
-51.028333644976286 90.0 1:0.75 568:1.0 76:1.0 750:1.0 1905:1.0 686:1.0 28:1.0 751:1.0 122:1.0 765:1.0 49:1.0 2178:1.0 61:1.0 565:1.0 173:1.0 2179:1.0 25:1.0 
-63.34318253357644 33.46737246929367 1:-100.0 222:1.0 2180:1.0 233:1.0 1044:1.0 122:1.0 2053:1.0 2181:1.0 1011:1.0 148:1.0 659:1.0 61:1.0 724:1.0 
-84.454068092867 39.84581295217918 1:-100.0 374:1.0 1106:1.0 107:1.0 421:1.0 900:1.0 35:1.0 55:1.0 119:1.0 4:1.0 2132:1.0 
-90.0 90.0 1:-100.0 2182:1.0 436:1.0 437:1.0 
-17.52420912356529 28.44512188275113 1:0.140625 146:1.0 2183:1.0 1237:1.0 218:2.0 49:2.0 32:1.0 939:1.0 757:1.0 2184:2.0 24:4.0 2185:1.0 36:3.0 237:1.0 187:1.0 839:1.0 592:1.0 86:1.0 788:1.0 796:2.0 88:1.0 2182:1.0 257:1.0 76:2.0 2186:1.0 195:1.0 1297:1.0 135:2.0 46:1.0 215:1.0 199:2.0 2187:1.0 84:1.0 2188:1.0 53:1.0 265:1.0 2189:1.0 2190:1.0 724:1.0 292:1.0 2191:1.0 398:1.0 416:1.0 1597:1.0 1113:1.0 2192:1.0 89:1.0 2193:1.0 2194:1.0 197:1.0 1600:1.0 488:1.0 908:1.0 1773:1.0 
-54.21509601204968 28.553618804607336 1:-100.0 2195:1.0 24:2.0 39:1.0 707:1.0 1153:1.0 15:1.0 2196:1.0 440:1.0 166:1.0 2197:1.0 207:1.0 
-90.0 49.03411569566955 1:-100.0 807:1.0 810:1.0 659:1.0 176:1.0 165:1.0 1744:1.0 236:1.0 730:1.0 
-89.27577692158751 42.63470049408152 1:-100.0 144:1.0 16:1.0 1914:1.0 165:1.0 1744:1.0 58:1.0 207:1.0 36:1.0 
-90.0 67.80739941911037 1:-100.0 2198:1.0 16:1.0 461:1.0 462:1.0 257:1.0 463:1.0 
-42.45490091707492 20.335021771840562 1:-100.0 1087:1.0 214:1.0 2199:1.0 10:1.0 550:1.0 146:1.0 572:1.0 35:1.0 553:1.0 176:1.0 175:1.0 432:1.0 475:1.0 4:1.0 2200:1.0 
-90.0 90.0 1:0.375 121:1.0 176:1.0 553:1.0 2201:1.0 2202:1.0 2203:1.0 24:1.0 1472:1.0 142:1.0 2204:2.0 12:1.0 2205:1.0 36:1.0 
-40.44383269931596 15.700608244634033 1:-100.0 750:1.0 113:1.0 148:1.0 2206:1.0 36:1.0 17:1.0 997:1.0 942:1.0 176:1.0 2207:1.0 494:1.0 2025:1.0 24:1.0 126:1.0 271:1.0 49:1.0 122:1.0 548:1.0 166:1.0 2208:1.0 
-83.94495188713263 34.7696426138549 1:-100.0 148:1.0 548:1.0 176:1.0 671:1.0 321:1.0 862:1.0 1585:1.0 8:1.0 
-49.55944537742957 23.997728753625225 1:-100.0 176:1.0 70:1.0 27:1.0 928:1.0 2209:1.0 2210:1.0 35:1.0 2211:1.0 241:1.0 1305:1.0 78:1.0 4:1.0 53:2.0 
-13.764885157995247 7.002890814487901 1:-100.0 34:1.0 35:3.0 91:1.0 1667:1.0 2212:1.0 2213:1.0 24:2.0 241:1.0 16:1.0 61:1.0 1533:3.0 36:2.0 265:1.0 548:1.0 2214:1.0 185:1.0 2215:2.0 208:1.0 188:1.0 189:2.0 190:2.0 
-42.99689346332202 90.0 1:0.6875 47:1.0 257:1.0 1671:1.0 440:1.0 200:1.0 2216:1.0 2217:1.0 359:1.0 326:1.0 2218:1.0 185:1.0 475:1.0 2219:1.0 1009:1.0 2220:1.0 2221:1.0 36:2.0 49:1.0 2222:1.0 145:1.0 221:1.0 35:1.0 91:1.0 122:1.0 1668:1.0 2223:1.0 224:1.0 
-90.0 90.0 1:0.875 2224:1.0 16:1.0 193:1.0 2225:1.0 90:1.0 1671:1.0 190:1.0 
-90.0 53.232113236493774 1:-100.0 276:1.0 200:1.0 860:1.0 2226:1.0 2227:1.0 2228:1.0 
-90.0 90.0 1:0.5625 124:1.0 1014:1.0 488:1.0 224:1.0 36:2.0 788:1.0 555:1.0 221:1.0 76:1.0 90:1.0 122:1.0 2229:1.0 
-29.921955296687585 44.60440882257153 1:0.2 2229:1.0 622:2.0 146:2.0 95:1.0 148:1.0 1087:1.0 224:1.0 36:3.0 28:1.0 310:1.0 185:1.0 2230:2.0 2231:1.0 16:1.0 49:2.0 686:1.0 25:1.0 548:1.0 1219:1.0 2232:1.0 2233:1.0 24:2.0 39:2.0 1410:1.0 1806:1.0 55:1.0 207:1.0 166:1.0 225:1.0 61:1.0 2234:1.0 2235:1.0 883:1.0 684:1.0 970:1.0 121:1.0 700:1.0 2236:1.0 
-16.950667754947954 24.539847174221162 1:0.08333333333333333 225:2.0 49:4.0 321:1.0 2237:1.0 1500:1.0 2238:2.0 174:1.0 24:2.0 2239:1.0 620:1.0 86:1.0 39:1.0 393:1.0 932:1.0 2240:1.0 796:1.0 257:1.0 940:1.0 2241:1.0 565:1.0 36:1.0 265:1.0 27:1.0 766:1.0 2242:1.0 2243:1.0 1164:1.0 15:1.0 16:1.0 2244:1.0 1613:1.0 135:1.0 465:1.0 1043:1.0 373:1.0 
-64.45776296141139 60.93823726047414 1:-0.16666666666666666 146:2.0 572:1.0 122:1.0 723:1.0 327:1.0 148:1.0 61:1.0 398:1.0 1039:1.0 322:1.0 121:1.0 514:1.0 55:1.0 932:1.0 36:3.0 622:1.0 2245:1.0 530:1.0 2246:1.0 1152:1.0 2247:1.0 2248:1.0 126:1.0 16:1.0 299:1.0 757:1.0 
-18.633134215484713 35.33212447940518 1:0.5208333333333334 188:1.0 122:1.0 218:3.0 707:1.0 76:1.0 89:1.0 36:3.0 214:1.0 238:1.0 255:1.0 28:1.0 146:2.0 488:2.0 1746:1.0 17:1.0 327:1.0 233:1.0 932:1.0 1803:1.0 148:1.0 517:1.0 729:1.0 346:1.0 24:5.0 2190:1.0 2249:1.0 339:1.0 223:1.0 2250:1.0 1598:1.0 105:1.0 2032:1.0 2251:1.0 2252:1.0 2253:1.0 510:1.0 1102:1.0 207:1.0 249:2.0 232:1.0 102:1.0 61:1.0 2254:1.0 2255:1.0 
-35.00169016363745 17.991863955640152 1:-100.0 606:1.0 91:1.0 626:1.0 2256:1.0 2257:1.0 625:1.0 144:1.0 2258:1.0 622:1.0 59:4.0 
-34.283866154875774 12.18795131116013 1:-100.0 348:1.0 938:1.0 195:1.0 70:1.0 51:1.0 185:2.0 1113:1.0 2259:1.0 2260:1.0 38:1.0 349:1.0 205:1.0 28:1.0 1181:1.0 932:1.0 27:1.0 2261:1.0 35:1.0 122:2.0 2262:1.0 2263:1.0 36:1.0 
-49.73849649446895 27.399987939414128 1:-100.0 610:1.0 39:1.0 177:1.0 757:1.0 12:1.0 1483:1.0 1770:1.0 1420:1.0 61:1.0 659:1.0 58:1.0 59:1.0 
-50.935501404588784 90.0 1:0.7083333333333334 896:1.0 706:1.0 2264:1.0 105:1.0 232:1.0 2265:1.0 36:2.0 95:1.0 148:1.0 237:1.0 819:1.0 2266:1.0 2229:1.0 185:1.0 622:1.0 224:1.0 221:1.0 887:1.0 89:1.0 2231:1.0 
-90.0 50.605075170608075 1:-100.0 2267:1.0 682:1.0 633:1.0 28:1.0 488:1.0 193:1.0 1486:1.0 2268:1.0 
-90.0 51.44835148364519 1:-100.0 146:1.0 488:1.0 148:1.0 237:1.0 224:1.0 8:1.0 
-45.49307295470746 90.0 1:0.625 225:1.0 1913:1.0 10:1.0 24:2.0 265:1.0 326:1.0 185:1.0 1875:1.0 16:1.0 2269:1.0 2270:1.0 7:1.0 249:1.0 724:1.0 749:1.0 1538:1.0 146:1.0 403:1.0 27:1.0 36:1.0 
-90.0 72.0570374541555 1:-100.0 138:1.0 1087:1.0 606:1.0 327:1.0 203:1.0 
-50.49547168458004 21.546534741552314 1:-100.0 49:1.0 2271:1.0 16:1.0 237:1.0 488:1.0 59:1.0 36:2.0 138:1.0 706:1.0 9:1.0 1073:1.0 236:1.0 89:1.0 241:1.0 
-38.154111191081796 19.745124157464186 1:-100.0 173:1.0 382:1.0 2272:1.0 24:2.0 2178:1.0 2233:1.0 207:1.0 970:1.0 49:1.0 50:1.0 70:1.0 2273:1.0 230:1.0 443:1.0 1089:1.0 476:1.0 730:1.0 
-21.82983346869152 10.911684405328163 1:-100.0 2274:1.0 291:2.0 289:3.0 636:1.0 637:1.0 2275:2.0 284:2.0 275:2.0 24:1.0 290:1.0 562:1.0 50:1.0 294:1.0 4:1.0 53:1.0 
-90.0 81.50319208792864 1:-100.0 27:1.0 25:1.0 2276:1.0 1094:1.0 207:1.0 
-47.45709641951145 24.874238134080116 1:-100.0 2277:1.0 2112:1.0 745:1.0 790:1.0 1276:1.0 2278:1.0 424:1.0 2279:1.0 1649:1.0 327:1.0 1236:1.0 2280:1.0 2281:1.0 16:1.0 200:1.0 36:1.0 
-90.0 57.32027778108548 1:-100.0 2282:1.0 36:2.0 900:1.0 2283:1.0 
-90.0 90.0 1:0.0 2192:1.0 401:1.0 766:2.0 2284:1.0 138:1.0 2285:1.0 24:1.0 38:1.0 957:1.0 706:1.0 2286:1.0 105:1.0 
-40.06852952253094 90.0 1:0.75 49:1.0 321:1.0 236:1.0 2287:1.0 2288:1.0 24:4.0 568:1.0 35:1.0 122:1.0 743:1.0 504:1.0 2289:1.0 2290:1.0 2291:1.0 2292:1.0 
-63.35073846259674 33.630078859790316 1:-100.0 12:1.0 2293:1.0 741:1.0 49:1.0 2294:1.0 122:2.0 51:1.0 1667:1.0 943:1.0 
-90.0 59.16215358472759 1:-100.0 2295:1.0 27:1.0 810:1.0 34:1.0 142:1.0 2296:1.0 
-35.77483533255231 16.919382651172022 1:-100.0 114:1.0 49:2.0 780:1.0 36:1.0 24:1.0 751:1.0 122:1.0 221:1.0 707:1.0 12:1.0 171:1.0 121:1.0 2295:1.0 27:1.0 
-20.901914864551422 55.682826221976256 1:0.625 2297:1.0 24:1.0 144:1.0 1096:1.0 2298:1.0 122:4.0 504:2.0 135:1.0 2299:1.0 16:1.0 232:1.0 25:2.0 939:2.0 2185:1.0 2184:1.0 326:1.0 72:1.0 185:1.0 1486:1.0 2300:1.0 883:1.0 765:1.0 49:1.0 100:1.0 237:1.0 59:1.0 2301:1.0 36:3.0 289:1.0 1392:1.0 
-35.36926839132681 90.0 1:0.75 1166:1.0 1649:1.0 807:1.0 810:1.0 55:1.0 2302:1.0 928:1.0 249:1.0 1773:1.0 2303:1.0 322:1.0 297:1.0 36:2.0 195:1.0 362:1.0 27:1.0 221:1.0 200:1.0 745:1.0 1042:1.0 359:1.0 860:1.0 24:1.0 2304:1.0 35:1.0 2305:1.0 
-90.0 66.34645883177215 1:-0.75 2306:3.0 2307:2.0 2257:1.0 684:1.0 302:1.0 49:1.0 36:2.0 2308:1.0 35:1.0 2309:1.0 2310:1.0 
-27.72752331874824 29.90047120097275 1:0.0 31:1.0 32:1.0 1549:1.0 16:2.0 61:2.0 298:1.0 148:1.0 2311:1.0 2312:1.0 751:1.0 819:2.0 25:1.0 89:1.0 588:1.0 200:1.0 24:4.0 219:1.0 41:1.0 2313:1.0 230:1.0 1415:1.0 177:1.0 234:1.0 221:1.0 754:1.0 10:1.0 2314:1.0 27:2.0 406:2.0 2315:1.0 440:1.0 2316:1.0 185:2.0 2305:1.0 2317:1.0 292:1.0 193:2.0 2318:1.0 839:1.0 2319:1.0 86:1.0 2320:1.0 257:1.0 142:1.0 55:1.0 195:1.0 114:1.0 700:1.0 15:1.0 2321:1.0 1647:1.0 
-90.0 57.5491579833305 1:-100.0 362:1.0 27:1.0 1622:1.0 1436:1.0 674:1.0 2322:1.0 36:1.0 
-90.0 90.0 1:0.5 298:1.0 16:1.0 548:1.0 514:1.0 696:1.0 121:1.0 126:1.0 2024:1.0 35:1.0 686:1.0 
-50.48287006992804 26.121550580186682 1:-100.0 38:1.0 359:1.0 148:1.0 588:1.0 514:1.0 1092:1.0 224:1.0 36:1.0 
-6.800011845332977 2.444662004489983 1:-0.625 2273:1.0 562:10.0 289:9.0 782:1.0 291:8.0 1196:1.0 284:11.0 853:2.0 1448:1.0 2323:2.0 1133:1.0 659:1.0 514:1.0 24:2.0 2324:1.0 275:5.0 918:1.0 1492:1.0 650:4.0 634:1.0 2325:2.0 1447:2.0 2326:1.0 663:3.0 637:3.0 662:1.0 1111:1.0 2327:1.0 126:2.0 1678:1.0 653:1.0 282:1.0 641:2.0 1676:1.0 36:2.0 648:1.0 136:1.0 488:2.0 144:1.0 16:1.0 784:1.0 2328:1.0 1837:1.0 290:1.0 2329:1.0 643:1.0 285:1.0 775:1.0 654:1.0 2330:1.0 1392:1.0 1390:1.0 1491:1.0 
-47.112895899904004 90.0 1:0.5625 380:1.0 2323:1.0 126:1.0 16:2.0 449:1.0 1914:1.0 2331:1.0 24:2.0 142:1.0 12:1.0 171:1.0 2332:1.0 2333:1.0 88:1.0 326:1.0 2184:1.0 200:1.0 2334:1.0 119:1.0 271:1.0 534:1.0 1509:1.0 1510:1.0 2335:1.0 
-47.68552333455012 90.0 1:0.625 2336:1.0 28:2.0 1090:1.0 233:1.0 8:1.0 696:2.0 1363:1.0 1140:1.0 841:1.0 235:1.0 36:2.0 606:1.0 560:1.0 1392:1.0 883:1.0 2337:1.0 17:1.0 55:1.0 
-81.52321859784105 90.0 1:0.12499999999999994 2338:1.0 943:1.0 15:1.0 514:1.0 321:1.0 107:1.0 881:1.0 70:1.0 230:1.0 2339:1.0 185:1.0 2340:1.0 36:2.0 696:1.0 1363:1.0 1166:1.0 90:1.0 38:1.0 2341:1.0 28:1.0 16:1.0 729:1.0 235:1.0 
-86.64834128802174 30.391005104352853 1:-100.0 406:1.0 514:2.0 28:1.0 2342:1.0 432:1.0 16:1.0 2343:1.0 
-24.988790616311242 58.67930036829559 1:0.5 362:1.0 514:1.0 121:1.0 530:1.0 1363:1.0 16:1.0 2344:1.0 2345:1.0 2346:1.0 291:4.0 900:1.0 1873:1.0 284:3.0 650:1.0 2347:1.0 562:1.0 641:1.0 1593:2.0 653:2.0 780:2.0 853:1.0 654:1.0 1390:1.0 289:1.0 1491:1.0 275:1.0 644:1.0 645:1.0 
-90.0 90.0 1:0.5 144:1.0 246:1.0 1363:1.0 25:1.0 271:1.0 1824:1.0 160:1.0 58:1.0 
-85.92487021681384 70.27439183368163 1:-100.0 193:1.0 514:1.0 671:1.0 113:1.0 257:1.0 2348:1.0 121:1.0 
-90.0 90.0 1:0.625 278:1.0 326:1.0 989:1.0 1074:1.0 100:1.0 1643:1.0 673:1.0 6:1.0 803:1.0 59:1.0 
-90.0 67.1693057852576 1:-100.0 2349:1.0 25:1.0 98:1.0 534:1.0 2350:1.0 1094:1.0 
-90.0 90.0 1:-100.0 278:1.0 59:1.0 
-32.095105044974936 51.67980852848658 1:0.28125 2349:1.0 200:1.0 2001:1.0 457:1.0 2351:1.0 35:1.0 1252:1.0 24:5.0 690:1.0 49:1.0 1572:1.0 2352:1.0 2353:1.0 724:1.0 177:1.0 2354:1.0 2355:1.0 534:1.0 704:1.0 36:1.0 326:1.0 1074:1.0 2356:1.0 193:1.0 2357:1.0 31:1.0 41:1.0 1854:1.0 2358:1.0 16:1.0 1299:1.0 214:1.0 2223:1.0 8:1.0 
-90.0 90.0 1:-0.5 348:1.0 349:1.0 27:1.0 142:1.0 861:1.0 35:1.0 756:1.0 659:1.0 2359:1.0 36:1.0 
-47.4705965917213 24.874812388462214 1:-100.0 2360:1.0 195:1.0 892:2.0 121:1.0 24:1.0 276:1.0 105:1.0 1545:1.0 44:1.0 1588:1.0 35:1.0 2331:1.0 207:1.0 
-9.874873555468014 12.972595597554118 1:0.20833333333333334 102:1.0 35:1.0 878:1.0 21:1.0 449:1.0 388:2.0 696:2.0 24:11.0 1545:2.0 1774:1.0 945:2.0 946:1.0 230:2.0 2361:1.0 839:1.0 897:1.0 898:1.0 2362:1.0 2363:1.0 394:1.0 892:2.0 121:1.0 144:1.0 16:1.0 2364:1.0 38:2.0 359:2.0 2365:1.0 908:2.0 233:1.0 943:2.0 724:1.0 44:1.0 166:1.0 140:1.0 141:1.0 2366:1.0 2367:1.0 207:1.0 706:1.0 2368:1.0 173:1.0 280:1.0 218:1.0 76:1.0 214:1.0 28:1.0 2369:1.0 1803:1.0 2370:1.0 49:1.0 2371:2.0 148:1.0 2372:1.0 2373:1.0 1305:1.0 55:1.0 133:1.0 916:1.0 88:1.0 36:1.0 
-31.474780299798162 28.78208611102982 1:-0.1625 2374:1.0 799:1.0 756:3.0 49:1.0 760:1.0 223:1.0 327:1.0 233:1.0 35:2.0 91:2.0 1316:3.0 2375:1.0 207:1.0 126:1.0 2376:1.0 1468:1.0 90:2.0 38:3.0 21:1.0 55:2.0 2377:1.0 185:1.0 100:1.0 122:1.0 793:1.0 565:1.0 2378:1.0 34:1.0 36:3.0 860:1.0 406:1.0 1855:1.0 232:1.0 119:1.0 1436:1.0 2379:1.0 412:1.0 136:1.0 475:1.0 
-90.0 74.9128908398508 1:-0.3333333333333333 860:2.0 302:1.0 440:1.0 876:1.0 2380:1.0 55:1.0 215:1.0 35:2.0 2381:2.0 1558:1.0 24:1.0 100:1.0 639:1.0 2382:1.0 185:1.0 2383:1.0 36:2.0 34:1.0 819:1.0 2384:1.0 17:1.0 223:1.0 
-90.0 54.807801358006095 1:-100.0 237:1.0 932:1.0 572:1.0 8:1.0 1806:1.0 49:1.0 1164:1.0 2385:1.0 659:1.0 
-90.0 90.0 1:0.375 61:1.0 188:1.0 2386:1.0 35:1.0 103:1.0 2387:1.0 2388:1.0 88:1.0 81:1.0 2389:1.0 1588:1.0 8:1.0 
-62.07612333735959 36.81712216381358 1:-100.0 225:1.0 9:1.0 88:2.0 1615:1.0 945:1.0 946:1.0 24:1.0 2390:1.0 35:1.0 2387:1.0 
-21.230249880588026 10.613716969334433 1:-100.0 2391:1.0 133:1.0 2392:1.0 629:1.0 35:2.0 696:1.0 953:1.0 954:1.0 947:1.0 24:1.0 77:1.0 103:2.0 2393:1.0 1139:1.0 88:2.0 81:1.0 2389:1.0 1588:2.0 241:1.0 16:1.0 61:1.0 897:1.0 730:1.0 8:1.0 
-90.0 90.0 1:-100.0 2394:1.0 
-27.39280112393653 14.269844564606656 1:-100.0 148:1.0 35:3.0 2387:1.0 237:1.0 34:1.0 126:1.0 323:1.0 2395:1.0 1884:1.0 1986:1.0 24:1.0 102:1.0 146:1.0 77:1.0 
-90.0 90.0 1:-100.0 953:1.0 954:1.0 947:1.0 
-90.0 78.35206925529447 1:-100.0 588:1.0 12:1.0 2396:1.0 2397:1.0 
-90.0 90.0 1:-0.375 38:1.0 236:1.0 578:1.0 119:1.0 103:2.0 27:1.0 35:1.0 2398:1.0 107:1.0 2387:1.0 241:1.0 16:1.0 61:1.0 947:1.0 
-79.19099350547869 90.0 1:0.5 1499:1.0 696:1.0 1062:1.0 15:1.0 697:1.0 230:1.0 41:1.0 1415:1.0 2399:1.0 27:1.0 59:3.0 
-18.1561633441812 16.37378106172127 1:-0.20833333333333334 2400:1.0 39:2.0 88:3.0 2401:2.0 406:4.0 1962:1.0 2402:1.0 86:1.0 788:1.0 2403:1.0 2404:1.0 2327:1.0 12:4.0 2405:1.0 2218:1.0 185:4.0 1538:1.0 1724:1.0 359:1.0 2406:1.0 2219:1.0 36:1.0 1222:1.0 791:1.0 828:1.0 2407:1.0 257:1.0 449:1.0 10:1.0 1643:2.0 1631:1.0 24:3.0 91:3.0 1278:1.0 2408:1.0 249:1.0 232:1.0 405:1.0 1600:1.0 221:2.0 2303:1.0 2409:1.0 218:1.0 302:1.0 2410:1.0 546:1.0 609:1.0 177:1.0 2411:1.0 2412:1.0 55:1.0 2413:1.0 460:1.0 1123:1.0 318:1.0 2414:1.0 239:1.0 2415:1.0 1543:1.0 214:1.0 2230:1.0 736:1.0 27:1.0 263:1.0 881:1.0 666:1.0 274:1.0 2416:1.0 
-90.0 90.0 1:0.0 2417:1.0 2418:1.0 36:1.0 
-7.262612752182893 5.515463663313292 1:-0.1875 1457:1.0 1499:1.0 121:1.0 12:3.0 897:1.0 230:1.0 2419:1.0 1344:1.0 1295:1.0 1992:1.0 2420:1.0 24:14.0 126:2.0 200:1.0 86:1.0 232:1.0 959:7.0 704:1.0 44:1.0 1809:1.0 1028:1.0 901:1.0 35:1.0 91:1.0 102:1.0 2421:1.0 302:1.0 16:1.0 2000:1.0 215:2.0 975:1.0 88:1.0 1600:1.0 34:1.0 2422:1.0 2423:1.0 1463:1.0 2424:1.0 15:1.0 177:2.0 1852:2.0 1294:2.0 49:1.0 1727:1.0 2425:1.0 1284:1.0 669:1.0 903:1.0 257:1.0 17:1.0 146:1.0 1121:1.0 1172:1.0 2426:1.0 960:1.0 891:1.0 36:1.0 351:1.0 352:1.0 353:1.0 354:1.0 755:1.0 2427:1.0 27:1.0 839:1.0 55:1.0 962:2.0 2428:1.0 218:2.0 2429:1.0 2430:1.0 2431:1.0 2432:1.0 2433:1.0 1504:1.0 25:1.0 221:1.0 2434:1.0 122:2.0 2435:1.0 199:1.0 2436:1.0 1124:1.0 2437:1.0 1579:1.0 359:1.0 2364:1.0 38:1.0 465:1.0 1043:1.0 373:1.0 2438:1.0 1766:1.0 1971:1.0 2439:1.0 207:1.0 
-90.0 33.44504704986283 1:-100.0 1244:1.0 24:1.0 70:1.0 346:1.0 588:1.0 749:1.0 90:1.0 623:1.0 359:1.0 860:1.0 966:1.0 59:1.0 
-48.37532529400049 22.234409128917207 1:-100.0 604:1.0 8:1.0 150:1.0 196:1.0 1912:1.0 89:1.0 69:1.0 39:1.0 1219:1.0 509:1.0 2440:1.0 36:1.0 771:1.0 751:1.0 122:1.0 772:1.0 
-84.36074566457789 39.622540653243156 1:-100.0 396:1.0 1429:1.0 24:1.0 860:1.0 1962:1.0 1909:1.0 121:1.0 88:1.0 985:1.0 59:1.0 
-78.12723090926067 29.128918694517314 1:-100.0 18:1.0 346:1.0 588:1.0 749:1.0 135:1.0 475:1.0 966:1.0 59:1.0 
-39.47927876181053 25.704169991283596 1:-100.0 91:1.0 939:1.0 189:2.0 190:2.0 2441:1.0 2442:1.0 44:1.0 122:1.0 831:1.0 59:1.0 8:1.0 
-13.397007571715829 43.61711338791964 1:0.75 568:2.0 747:1.0 1239:1.0 16:1.0 61:1.0 122:2.0 900:1.0 807:1.0 810:1.0 24:5.0 193:1.0 2443:2.0 21:2.0 2444:1.0 37:1.0 2445:1.0 35:1.0 985:1.0 2446:1.0 91:1.0 2191:1.0 36:2.0 241:1.0 265:1.0 2447:1.0 2084:1.0 321:1.0 831:1.0 15:1.0 55:1.0 2448:1.0 12:1.0 263:1.0 2449:1.0 2450:1.0 565:1.0 248:1.0 2451:1.0 95:1.0 119:1.0 337:1.0 52:1.0 
-90.0 50.5882497940474 1:-100.0 995:1.0 16:1.0 200:1.0 359:1.0 860:1.0 2452:1.0 90:1.0 985:1.0 
-54.205503801818644 28.5579487452665 1:-100.0 2453:1.0 30:1.0 24:1.0 70:1.0 71:1.0 2454:1.0 136:1.0 16:1.0 2455:1.0 2456:1.0 443:1.0 1394:1.0 867:1.0 36:1.0 
-38.9288426674064 49.86007724053069 1:0.05 812:1.0 146:1.0 488:1.0 2457:1.0 90:1.0 122:2.0 1692:1.0 24:2.0 126:1.0 218:2.0 105:1.0 724:1.0 2458:1.0 912:2.0 36:2.0 900:1.0 225:1.0 2459:1.0 55:1.0 298:1.0 25:1.0 2460:1.0 28:1.0 86:2.0 199:1.0 732:1.0 2303:2.0 666:1.0 265:1.0 1165:1.0 565:1.0 2461:1.0 322:1.0 1472:1.0 2381:1.0 2462:1.0 690:1.0 
-90.0 90.0 1:-0.0625 1009:1.0 232:1.0 29:2.0 2463:1.0 1154:1.0 575:1.0 8:1.0 
-90.0 61.82511374590955 1:-0.5 91:2.0 454:1.0 2053:1.0 35:1.0 298:1.0 2464:1.0 1693:1.0 24:1.0 257:1.0 177:1.0 1095:1.0 765:1.0 2465:1.0 2466:1.0 69:1.0 86:1.0 122:1.0 16:1.0 2467:1.0 90:1.0 606:1.0 2468:1.0 2469:1.0 2470:1.0 36:1.0 
-10.61983207455382 21.84971931883107 1:0.5 21:2.0 199:2.0 449:2.0 2471:1.0 351:5.0 352:5.0 353:5.0 354:5.0 119:1.0 121:1.0 249:1.0 1649:1.0 1055:1.0 1116:1.0 2472:1.0 2473:1.0 2474:1.0 1409:1.0 1563:1.0 793:2.0 2475:1.0 2476:1.0 1061:1.0 12:2.0 728:1.0 874:1.0 2477:1.0 97:1.0 2478:1.0 2479:1.0 2480:1.0 2481:1.0 2482:1.0 36:1.0 
-90.0 90.0 1:-0.5 2139:1.0 27:1.0 25:1.0 86:1.0 199:1.0 732:1.0 28:1.0 200:1.0 55:1.0 1567:1.0 362:1.0 
-82.94168571187483 40.3428655126479 1:-100.0 833:1.0 21:1.0 55:1.0 218:1.0 2483:1.0 284:1.0 2484:1.0 7:1.0 44:1.0 728:1.0 
-56.105585694618604 20.586265160510447 1:-100.0 122:1.0 12:1.0 1055:1.0 2485:1.0 504:1.0 1847:1.0 36:1.0 1622:1.0 2486:1.0 1438:1.0 133:1.0 303:1.0 
-86.81256649439801 42.50535278115231 1:-100.0 1055:1.0 461:1.0 462:1.0 4:1.0 53:2.0 
-90.0 90.0 1:-0.5 38:2.0 957:2.0 86:1.0 427:1.0 277:1.0 77:1.0 35:1.0 1055:1.0 346:1.0 237:1.0 
-90.0 90.0 1:0.6666666666666666 568:1.0 155:1.0 2487:1.0 1771:1.0 1154:1.0 24:1.0 122:1.0 12:1.0 1055:1.0 2488:1.0 8:1.0 
-42.54689133622885 22.144401154786507 1:-100.0 1089:1.0 2489:1.0 406:1.0 2490:1.0 36:1.0 351:1.0 352:1.0 353:1.0 354:1.0 335:1.0 2491:1.0 476:1.0 2492:1.0 25:1.0 2493:1.0 222:1.0 12:1.0 2494:1.0 
-90.0 90.0 1:0.5 610:1.0 16:1.0 2495:1.0 2496:1.0 794:1.0 548:1.0 223:1.0 90:1.0 298:1.0 2174:1.0 
-20.577699553442024 12.366751956829868 1:-100.0 225:1.0 485:1.0 15:2.0 49:1.0 249:1.0 232:1.0 1627:1.0 2497:1.0 1122:1.0 2145:1.0 44:1.0 2498:1.0 122:3.0 139:1.0 185:1.0 2499:1.0 2500:1.0 2501:1.0 36:2.0 2219:1.0 751:1.0 362:1.0 1072:1.0 221:1.0 12:1.0 1742:1.0 121:1.0 37:1.0 
-75.85554786773088 40.306021844041545 1:-100.0 1120:1.0 100:1.0 238:1.0 76:1.0 610:1.0 35:1.0 142:1.0 762:1.0 468:1.0 994:1.0 
-67.77436217615416 34.55743338643426 1:-0.625 146:3.0 572:1.0 256:1.0 2502:1.0 15:1.0 55:1.0 2503:1.0 90:2.0 2504:2.0 35:1.0 1125:1.0 24:2.0 769:1.0 2399:1.0 49:1.0 102:1.0 346:1.0 192:1.0 107:1.0 1047:1.0 238:1.0 887:1.0 2505:1.0 565:1.0 2506:1.0 548:1.0 2507:1.0 36:1.0 
-90.0 56.7768845994153 1:-100.0 257:1.0 38:1.0 2507:1.0 684:1.0 1620:1.0 7:1.0 36:1.0 
-68.1565487306854 35.89301938591375 1:-100.0 970:1.0 565:1.0 471:1.0 24:1.0 411:1.0 1672:1.0 318:1.0 1864:1.0 16:1.0 2359:1.0 36:1.0 
-90.0 83.03903589449864 1:-0.5 190:2.0 2508:1.0 411:1.0 396:1.0 34:1.0 406:1.0 1051:1.0 71:1.0 2509:1.0 793:1.0 236:1.0 2510:1.0 309:1.0 2511:1.0 199:1.0 2512:1.0 36:1.0 189:1.0 77:1.0 35:1.0 2023:1.0 971:1.0 722:1.0 86:1.0 412:1.0 780:1.0 
-39.32015718043122 21.317098394046592 1:-100.0 826:1.0 2513:3.0 2514:2.0 36:2.0 2515:1.0 416:1.0 2516:1.0 193:1.0 2517:1.0 
-3.8992645514928093 1.0817282677755216 1:-0.5 225:1.0 783:1.0 637:5.0 1513:2.0 291:13.0 275:5.0 2325:1.0 284:15.0 650:5.0 491:1.0 653:6.0 289:7.0 662:5.0 2518:2.0 562:9.0 559:2.0 374:2.0 900:4.0 1083:4.0 1230:1.0 2324:1.0 644:2.0 645:2.0 36:3.0 1845:1.0 643:1.0 16:4.0 1208:1.0 648:1.0 24:2.0 1133:2.0 2519:2.0 290:1.0 1678:2.0 2520:1.0 1062:1.0 86:1.0 2521:1.0 784:2.0 166:1.0 641:4.0 782:3.0 664:1.0 640:1.0 257:1.0 2522:1.0 2523:1.0 775:1.0 1293:1.0 507:1.0 2524:1.0 123:2.0 285:1.0 1658:1.0 1849:1.0 560:1.0 634:1.0 639:1.0 1309:1.0 777:1.0 287:1.0 2525:1.0 1448:2.0 1593:1.0 780:1.0 
-53.930974064488105 27.46180691737775 1:-100.0 91:1.0 948:1.0 1228:1.0 2526:1.0 36:1.0 755:1.0 2527:1.0 27:1.0 25:1.0 1486:1.0 489:1.0 1572:1.0 200:1.0 2528:1.0 100:1.0 2529:1.0 
-51.184030125930505 24.061898016000324 1:-100.0 144:1.0 2530:1.0 1459:2.0 71:1.0 34:1.0 2466:1.0 25:1.0 2531:1.0 1095:1.0 237:1.0 59:1.0 
-90.0 90.0 1:-100.0 839:1.0 1735:1.0 535:1.0 743:1.0 
-46.12036508021119 85.72110542906971 1:0.375 2532:1.0 144:1.0 659:1.0 1707:3.0 837:2.0 71:2.0 1199:1.0 2533:1.0 2534:1.0 1596:1.0 2535:1.0 1710:1.0 1191:1.0 2536:1.0 24:1.0 1133:1.0 532:1.0 2537:1.0 2538:1.0 2180:1.0 2539:1.0 1090:1.0 1713:1.0 
-90.0 38.97720990421386 1:-100.0 839:1.0 61:1.0 793:1.0 44:1.0 2540:1.0 327:1.0 432:1.0 36:1.0 
-90.0 90.0 1:0.0 86:1.0 225:2.0 2541:1.0 424:1.0 320:1.0 88:1.0 1248:1.0 224:1.0 223:1.0 100:1.0 684:1.0 8:1.0 
-90.0 63.308970339049154 1:-100.0 225:1.0 148:1.0 222:1.0 55:1.0 2542:1.0 353:1.0 321:1.0 424:1.0 
-86.60115893342642 90.0 1:0.0 225:1.0 49:2.0 91:1.0 306:1.0 236:1.0 200:1.0 86:1.0 2543:1.0 24:1.0 396:1.0 939:1.0 27:1.0 16:2.0 449:1.0 110:1.0 359:1.0 59:1.0 
-43.84932075975331 22.385208981782274 1:-100.0 145:2.0 1358:1.0 30:1.0 1544:1.0 126:1.0 148:2.0 2544:1.0 215:1.0 151:1.0 105:1.0 119:1.0 36:1.0 
-90.0 90.0 1:0.625 659:1.0 49:1.0 920:1.0 71:1.0 2545:1.0 88:1.0 2546:1.0 2359:1.0 
-77.1819818164253 41.40558405135367 1:-100.0 190:1.0 394:2.0 199:1.0 218:1.0 16:1.0 142:1.0 2547:1.0 88:1.0 2548:1.0 95:1.0 36:1.0 
-69.24816669993832 58.40656280328624 1:-0.25 390:1.0 751:2.0 122:4.0 765:1.0 2549:1.0 2192:1.0 24:1.0 2550:1.0 221:1.0 49:1.0 91:1.0 2551:1.0 401:1.0 36:1.0 2552:1.0 394:1.0 55:1.0 34:1.0 35:1.0 298:1.0 59:1.0 275:1.0 
-11.583872174473273 19.092218698287503 1:0.18055555555555555 225:1.0 142:2.0 232:1.0 122:1.0 514:1.0 920:3.0 71:4.0 353:4.0 1410:1.0 522:1.0 530:1.0 2553:1.0 3:2.0 486:2.0 27:1.0 2554:1.0 440:1.0 70:2.0 373:1.0 568:1.0 2338:1.0 214:1.0 133:1.0 864:1.0 1506:1.0 16:1.0 49:1.0 2555:2.0 346:1.0 193:1.0 2556:1.0 50:2.0 2557:1.0 1349:1.0 2558:1.0 2559:1.0 207:1.0 230:1.0 1853:1.0 86:1.0 416:1.0 2560:1.0 185:1.0 36:1.0 1309:1.0 8:1.0 
-49.77533808486562 55.556823530161104 1:-1.3877787807814457E-17 265:1.0 841:1.0 706:1.0 514:1.0 126:1.0 1285:1.0 35:1.0 929:1.0 2561:1.0 15:1.0 327:1.0 215:1.0 71:2.0 406:1.0 2562:1.0 36:1.0 2563:1.0 1282:1.0 236:1.0 2564:1.0 2565:1.0 1907:1.0 1019:1.0 669:1.0 12:1.0 2566:1.0 24:2.0 931:1.0 199:1.0 197:1.0 1633:1.0 28:1.0 2567:1.0 2568:1.0 44:1.0 34:1.0 302:1.0 2569:1.0 86:1.0 845:1.0 117:1.0 
-16.6747106872294 8.102610693852599 1:-100.0 2570:1.0 684:1.0 2571:1.0 76:1.0 918:1.0 35:2.0 72:1.0 322:1.0 119:1.0 24:1.0 2572:1.0 25:1.0 2573:1.0 246:1.0 189:2.0 190:2.0 2574:1.0 321:1.0 70:1.0 199:1.0 2575:1.0 2576:1.0 36:2.0 929:1.0 1232:1.0 327:1.0 235:1.0 514:1.0 71:1.0 121:1.0 1786:1.0 2577:1.0 49:1.0 2062:1.0 
-82.2610064022909 60.22629869496669 1:-0.3333333333333333 49:1.0 233:1.0 1044:1.0 2112:1.0 706:1.0 514:1.0 224:1.0 24:4.0 71:1.0 148:1.0 2578:1.0 2579:1.0 684:1.0 2073:1.0 696:1.0 1319:1.0 31:1.0 222:1.0 1280:1.0 1713:1.0 36:1.0 
-26.2980006702223 16.68246906687819 1:-100.0 2580:1.0 427:1.0 49:1.0 91:2.0 238:2.0 24:1.0 167:1.0 71:2.0 629:1.0 651:1.0 35:2.0 1318:1.0 2581:1.0 2582:1.0 2583:1.0 150:1.0 255:1.0 
-90.0 82.0107362695894 1:-100.0 238:1.0 1325:1.0 1326:1.0 1331:1.0 105:1.0 
-90.0 56.85430368635548 1:-100.0 119:1.0 298:1.0 15:1.0 1285:1.0 76:1.0 2584:1.0 77:1.0 
-26.606454929756918 17.610763090803037 1:-0.375 207:5.0 189:4.0 190:4.0 2585:1.0 2586:1.0 766:1.0 2587:1.0 2588:1.0 2589:1.0 257:1.0 70:2.0 279:2.0 2590:1.0 896:1.0 35:1.0 823:1.0 951:1.0 2591:1.0 25:1.0 1443:1.0 185:1.0 2592:1.0 2593:1.0 86:1.0 7:2.0 12:1.0 2594:1.0 1062:1.0 811:1.0 36:1.0 126:1.0 146:1.0 77:1.0 24:2.0 2595:1.0 2596:1.0 135:1.0 238:1.0 2184:1.0 2584:1.0 2597:1.0 271:1.0 16:1.0 745:1.0 798:1.0 55:1.0 214:2.0 8:1.0 406:1.0 1719:1.0 2484:1.0 199:1.0 44:1.0 2598:1.0 30:1.0 2599:1.0 895:1.0 790:1.0 2600:1.0 2601:1.0 
-41.74002281369286 44.28740987904617 1:-0.0625 790:1.0 1108:1.0 27:1.0 568:1.0 35:1.0 122:2.0 860:2.0 36:4.0 257:1.0 120:1.0 1521:1.0 2602:1.0 459:1.0 2184:1.0 2603:1.0 24:1.0 1359:1.0 1913:1.0 2604:1.0 406:1.0 2605:1.0 440:1.0 4:1.0 189:2.0 190:2.0 720:1.0 2606:1.0 166:1.0 195:1.0 2607:1.0 2608:1.0 55:1.0 2609:1.0 
-90.0 72.46861742318592 1:-0.625 49:1.0 91:1.0 2610:1.0 137:1.0 35:1.0 24:2.0 1360:1.0 16:1.0 804:1.0 1368:1.0 113:1.0 257:1.0 2611:1.0 1414:1.0 33:1.0 588:1.0 589:1.0 2612:1.0 325:1.0 36:1.0 
-90.0 72.97608391677657 1:-0.625 137:1.0 58:1.0 24:2.0 804:1.0 100:1.0 39:1.0 2613:1.0 218:1.0 321:1.0 122:1.0 36:1.0 230:1.0 697:1.0 59:3.0 
-13.277184344530566 7.800712462774513 1:-100.0 2614:1.0 24:3.0 215:1.0 2615:1.0 1074:1.0 2185:2.0 2184:3.0 2616:1.0 440:1.0 2617:1.0 2618:2.0 253:1.0 441:1.0 306:2.0 794:2.0 900:1.0 126:1.0 659:1.0 1384:1.0 2619:1.0 394:1.0 1459:1.0 2620:1.0 185:1.0 2145:1.0 565:1.0 758:1.0 193:1.0 761:1.0 36:1.0 
-90.0 90.0 1:0.375 215:1.0 2621:1.0 88:1.0 225:1.0 921:1.0 249:1.0 2622:1.0 1048:1.0 
-90.0 44.11330519106789 1:-100.0 16:1.0 2623:1.0 346:1.0 1667:1.0 1958:1.0 735:1.0 207:1.0 8:1.0 
-90.0 90.0 1:-0.375 2624:1.0 240:1.0 955:1.0 199:1.0 2625:1.0 222:1.0 795:1.0 730:1.0 
-36.4685847604096 15.600051797224452 1:-100.0 348:1.0 2626:1.0 25:1.0 762:1.0 1176:1.0 1326:1.0 36:2.0 133:1.0 145:1.0 199:1.0 222:1.0 795:1.0 2627:1.0 2624:1.0 240:1.0 24:1.0 2124:1.0 218:1.0 2145:1.0 2628:1.0 
-90.0 62.060623396082775 1:-100.0 750:1.0 76:1.0 21:1.0 2629:1.0 2630:1.0 8:1.0 
-90.0 90.0 1:0.0 33:1.0 199:1.0 2631:1.0 530:1.0 103:1.0 765:1.0 61:1.0 2632:1.0 1406:1.0 796:2.0 24:1.0 86:2.0 1252:1.0 89:1.0 185:1.0 122:1.0 117:1.0 36:1.0 
-90.0 90.0 1:0.625 266:1.0 77:1.0 35:1.0 2633:1.0 2634:1.0 2635:1.0 230:1.0 97:1.0 44:1.0 2636:1.0 224:1.0 25:1.0 
-90.0 90.0 1:0.0 34:1.0 35:1.0 1423:1.0 278:1.0 61:1.0 2637:1.0 1406:1.0 796:1.0 2638:1.0 2633:1.0 97:1.0 702:1.0 2639:1.0 243:1.0 36:1.0 
-58.37035263336095 30.82229350546471 1:-100.0 2640:1.0 2641:1.0 2642:1.0 2643:1.0 650:1.0 321:1.0 1426:1.0 36:1.0 2644:1.0 2645:1.0 2646:1.0 2647:1.0 780:1.0 
-37.41066221397081 19.77049045730202 1:-100.0 1430:1.0 24:1.0 860:1.0 55:1.0 266:1.0 35:1.0 195:1.0 1551:1.0 125:1.0 432:1.0 475:1.0 25:1.0 148:1.0 323:1.0 327:1.0 237:1.0 2648:1.0 59:1.0 
-90.0 81.21256884682674 1:-100.0 15:1.0 1410:1.0 224:1.0 2649:1.0 25:1.0 
-90.0 67.75954720239928 1:-100.0 2650:1.0 2651:1.0 25:1.0 2652:1.0 199:1.0 78:1.0 
-26.55848130127401 90.0 1:0.875 225:1.0 2653:1.0 394:1.0 1114:1.0 16:1.0 142:2.0 24:1.0 1364:1.0 105:1.0 970:1.0 406:1.0 119:1.0 36:1.0 110:1.0 90:1.0 1663:1.0 199:1.0 427:1.0 8:1.0 
-90.0 44.587311857294466 1:-100.0 572:1.0 49:1.0 2654:1.0 2655:1.0 48:1.0 235:1.0 119:1.0 2089:1.0 2656:1.0 
-54.20599907485014 28.550211503254047 1:-100.0 2657:1.0 651:1.0 4:1.0 189:2.0 190:2.0 2658:1.0 35:1.0 77:1.0 
-62.60410423623168 24.09075863505732 1:-100.0 49:1.0 346:1.0 35:1.0 1475:1.0 58:1.0 59:3.0 
-78.04583175482034 90.0 1:0.7500000000000001 9:1.0 588:1.0 155:1.0 189:2.0 190:2.0 874:1.0 2659:1.0 2660:1.0 36:1.0 
-90.0 44.56592946088673 1:-100.0 1305:1.0 764:1.0 246:1.0 2661:1.0 2662:1.0 146:1.0 73:1.0 52:1.0 36:1.0 
-83.85880240466815 90.0 1:0.2916666666666667 428:1.0 297:1.0 38:1.0 236:1.0 2663:1.0 326:1.0 24:1.0 360:1.0 2664:1.0 730:1.0 36:2.0 95:1.0 148:1.0 49:1.0 122:1.0 729:1.0 497:1.0 401:1.0 100:1.0 224:1.0 
-47.61467917480438 24.864653016215442 1:-100.0 51:1.0 1092:1.0 409:1.0 2665:1.0 24:1.0 38:1.0 2666:1.0 2667:1.0 2668:1.0 1089:1.0 119:1.0 8:2.0 
-90.0 67.75689268953674 1:-100.0 2669:1.0 24:1.0 150:1.0 35:1.0 2670:1.0 36:1.0 
-90.0 90.0 1:-0.6250000000000001 91:1.0 478:1.0 2671:1.0 3:1.0 122:1.0 1429:1.0 
-79.4923215952155 41.540029240949536 1:-100.0 146:1.0 488:1.0 28:1.0 15:1.0 439:1.0 44:1.0 2672:1.0 
-71.47453809788954 90.0 1:0.1875 997:1.0 265:1.0 236:1.0 1074:1.0 2673:1.0 2674:1.0 486:1.0 489:1.0 881:2.0 1503:1.0 2675:1.0 1268:1.0 4:1.0 321:1.0 35:2.0 1433:1.0 36:1.0 2676:1.0 243:1.0 2634:1.0 465:1.0 1043:1.0 373:1.0 
-64.50789966346176 26.48568934724391 1:-100.0 348:1.0 2296:1.0 25:1.0 21:1.0 764:1.0 235:1.0 24:1.0 298:1.0 2677:1.0 2678:1.0 2679:1.0 8:1.0 
-41.7148381691161 54.48928954219102 1:0.0 91:2.0 70:1.0 2680:1.0 2681:1.0 148:1.0 49:1.0 195:1.0 2682:1.0 1381:1.0 230:2.0 2683:1.0 361:1.0 359:1.0 86:1.0 2684:1.0 24:1.0 1501:1.0 2685:1.0 371:1.0 25:1.0 1028:1.0 2303:1.0 2075:1.0 2686:1.0 1120:1.0 76:1.0 2687:1.0 177:1.0 2688:1.0 207:1.0 36:2.0 30:1.0 1320:1.0 
-15.969661613611832 6.922050085915901 1:-100.0 900:1.0 225:1.0 28:1.0 1572:1.0 113:1.0 214:1.0 200:1.0 1992:1.0 2689:1.0 193:3.0 73:2.0 27:1.0 2690:1.0 738:1.0 1791:1.0 233:3.0 2691:1.0 2365:1.0 246:1.0 177:1.0 2692:1.0 38:1.0 117:1.0 224:1.0 36:2.0 241:1.0 16:1.0 49:1.0 346:1.0 100:1.0 
-79.04945667957345 42.42439766221185 1:-100.0 1912:1.0 214:1.0 200:1.0 39:1.0 230:1.0 1415:1.0 2693:1.0 176:1.0 165:1.0 
-90.0 90.0 1:0.0 816:1.0 1140:1.0 568:1.0 2694:1.0 2205:1.0 25:1.0 279:1.0 
-56.26623005765943 63.32042693102133 1:0.0 706:2.0 416:1.0 2282:1.0 142:1.0 2695:1.0 24:2.0 769:1.0 257:1.0 49:1.0 478:1.0 572:1.0 176:1.0 816:2.0 2696:2.0 727:1.0 321:1.0 424:1.0 28:2.0 568:1.0 306:1.0 1358:1.0 2408:1.0 55:1.0 2697:1.0 44:1.0 122:1.0 31:1.0 235:1.0 
-38.49409561594542 9.294582102113132 1:-100.0 16:1.0 839:1.0 686:1.0 2698:1.0 351:1.0 352:1.0 353:1.0 354:1.0 36:2.0 199:1.0 2699:1.0 588:1.0 596:1.0 2700:1.0 44:1.0 477:1.0 
-64.25001009212346 33.460768727396804 1:-100.0 596:1.0 105:1.0 28:2.0 78:1.0 2701:1.0 881:1.0 2702:1.0 55:1.0 36:1.0 
-3.6850630465826564 0.9874473760332869 1:-100.0 659:1.0 2703:1.0 1074:1.0 7:1.0 36:3.0 2704:1.0 2705:1.0 38:1.0 359:1.0 2706:2.0 249:1.0 2707:1.0 999:1.0 2708:1.0 221:1.0 49:1.0 881:1.0 2709:1.0 24:13.0 91:1.0 412:2.0 35:2.0 2710:1.0 2711:1.0 2712:1.0 2713:1.0 2714:1.0 2715:1.0 2716:1.0 1541:1.0 2717:1.0 2718:1.0 17:1.0 136:1.0 2719:1.0 2720:1.0 2721:1.0 2722:1.0 
-36.18507918981452 51.1782983724624 1:-100.0 782:1.0 291:3.0 289:1.0 642:1.0 643:1.0 1593:1.0 637:1.0 641:1.0 948:1.0 284:1.0 287:1.0 290:1.0 77:1.0 36:1.0 
-90.0 90.0 1:-0.5 771:1.0 86:1.0 475:1.0 55:1.0 772:1.0 36:1.0 
-39.9263507460571 45.38576689975288 1:0.0 517:1.0 2723:1.0 2724:1.0 24:4.0 2725:1.0 908:1.0 41:1.0 2726:1.0 798:1.0 27:1.0 16:1.0 8:3.0 59:1.0 265:1.0 749:1.0 90:1.0 1096:1.0 2727:1.0 2728:1.0 1268:1.0 588:1.0 49:1.0 12:1.0 948:1.0 133:1.0 145:1.0 1154:1.0 361:1.0 86:1.0 100:1.0 2729:1.0 1497:1.0 2730:1.0 2731:1.0 289:1.0 2732:1.0 2733:1.0 
-48.73618504500309 21.80587808821641 1:-100.0 38:1.0 957:1.0 2734:1.0 224:1.0 241:1.0 276:1.0 1538:1.0 230:1.0 427:1.0 1126:1.0 222:1.0 590:1.0 727:1.0 90:1.0 4:1.0 46:1.0 
-81.39574333100161 33.236799782758794 1:-100.0 138:1.0 195:1.0 610:1.0 39:1.0 327:1.0 2735:1.0 161:1.0 548:1.0 938:1.0 34:1.0 2736:1.0 
-63.20283067166389 33.46732426531909 1:-100.0 2737:1.0 284:1.0 275:1.0 2347:1.0 562:1.0 287:1.0 1593:1.0 653:1.0 780:1.0 2738:1.0 637:1.0 36:1.0 
-27.310656770198694 13.614548222197838 1:-100.0 646:1.0 2482:1.0 938:1.0 2739:1.0 200:1.0 2740:1.0 321:3.0 424:1.0 1276:1.0 666:1.0 723:1.0 88:1.0 2741:1.0 572:1.0 24:1.0 61:1.0 659:1.0 58:1.0 4:1.0 415:1.0 
-90.0 90.0 1:-100.0 2742:1.0 947:1.0 207:1.0 
-27.852487873776255 12.727338993790688 1:-100.0 900:1.0 2743:1.0 28:1.0 77:1.0 35:1.0 103:2.0 766:1.0 945:2.0 946:2.0 897:2.0 36:1.0 1181:1.0 588:1.0 1417:1.0 476:1.0 465:1.0 1043:1.0 373:1.0 
-81.06735251170622 33.703738218529615 1:-100.0 70:1.0 34:1.0 2258:1.0 2600:1.0 189:1.0 190:2.0 2744:1.0 36:1.0 
-90.0 90.0 1:-0.5 142:1.0 1667:1.0 2745:1.0 2746:1.0 414:1.0 146:1.0 572:1.0 
-51.11395801227958 31.600799555308274 1:-0.5 2747:1.0 166:1.0 2746:1.0 414:1.0 146:1.0 488:1.0 24:1.0 214:1.0 49:1.0 177:1.0 2748:1.0 16:1.0 58:1.0 59:7.0 
-90.0 90.0 1:-100.0 95:1.0 1893:1.0 346:1.0 943:1.0 
-90.0 90.0 1:0.5 39:1.0 1678:1.0 27:1.0 25:1.0 1620:1.0 2749:1.0 2750:1.0 146:1.0 141:1.0 35:1.0 449:1.0 36:1.0 
-90.0 67.73483212875246 1:-100.0 2751:1.0 105:1.0 2752:1.0 1667:1.0 2753:1.0 36:1.0 
-90.0 90.0 1:-100.0 2754:1.0 36:1.0 
-87.68378430627885 90.0 1:0.375 17:1.0 1303:1.0 2755:1.0 2756:1.0 476:1.0 24:2.0 2757:1.0 27:1.0 957:1.0 1671:1.0 2758:1.0 1090:1.0 753:1.0 16:1.0 872:1.0 119:1.0 36:1.0 
-29.361594708354804 30.08239539431821 1:-0.0625 900:1.0 225:1.0 265:1.0 49:2.0 911:1.0 28:1.0 221:1.0 2759:1.0 88:1.0 195:3.0 2679:1.0 878:2.0 200:1.0 638:1.0 687:1.0 24:4.0 659:3.0 510:1.0 2760:1.0 2761:1.0 2513:1.0 1765:1.0 37:1.0 2657:1.0 207:1.0 36:2.0 2762:1.0 35:1.0 2763:2.0 709:2.0 2009:1.0 1252:1.0 2703:1.0 2764:1.0 122:1.0 2765:1.0 2766:1.0 86:1.0 892:1.0 165:1.0 1744:1.0 143:1.0 
-51.25430265034129 20.93622592006568 1:-100.0 565:1.0 1771:1.0 514:2.0 606:1.0 271:1.0 160:1.0 24:1.0 548:1.0 176:1.0 232:1.0 148:1.0 517:1.0 361:1.0 686:1.0 36:1.0 
-90.0 90.0 1:0.0 427:1.0 931:1.0 2767:1.0 1769:1.0 913:1.0 1087:1.0 892:1.0 459:1.0 105:1.0 449:1.0 2768:1.0 2769:1.0 77:1.0 2770:1.0 36:1.0 
-19.18159364311826 6.522929658821475 1:-100.0 16:1.0 2771:1.0 2772:1.0 653:2.0 643:1.0 1133:2.0 562:2.0 650:1.0 2773:1.0 1874:1.0 284:2.0 287:1.0 2774:1.0 291:3.0 289:1.0 1849:1.0 2775:1.0 275:1.0 199:1.0 645:1.0 642:1.0 224:1.0 36:1.0 
