svm_type c_svc
kernel_type rbf
gamma 2.587991718426501E-4
nr_class 2
total_sv 903
rho 15.194348935947968
label 1 -1
nr_sv 548 355
SV
90.0 -1:1.0 0:1.0 1:1.0 2:1.0 3:1.0 4:1.0 
72.39866058722397 0:1.0 5:1.0 6:1.0 7:1.0 8:1.0 9:1.0 10:2.0 11:1.0 12:1.0 13:1.0 14:1.0 15:1.0 16:1.0 17:1.0 18:1.0 19:1.0 20:1.0 
90.0 21:1.0 22:1.0 19:1.0 23:1.0 24:1.0 25:1.0 6:1.0 
5.920109025452384 26:1.0 27:1.0 28:1.0 29:1.0 30:1.0 31:1.0 32:1.0 0:3.0 33:1.0 34:2.0 35:1.0 36:1.0 37:2.0 38:1.0 39:1.0 40:1.0 41:2.0 42:3.0 43:1.0 11:1.0 44:2.0 45:2.0 46:1.0 47:1.0 48:1.0 49:1.0 50:1.0 4:2.0 51:1.0 52:1.0 53:1.0 54:1.0 55:1.0 56:1.0 57:1.0 58:1.0 59:1.0 60:1.0 61:1.0 62:1.0 9:1.0 63:1.0 64:1.0 8:1.0 20:1.0 65:1.0 66:1.0 67:1.0 68:1.0 69:1.0 18:1.0 6:1.0 70:1.0 71:1.0 72:1.0 73:1.0 
32.17894168878316 45:1.0 74:1.0 75:1.0 76:1.0 77:1.0 78:1.0 40:1.0 79:1.0 80:1.0 81:1.0 82:1.0 83:1.0 67:1.0 
20.735159549476208 84:1.0 64:1.0 85:2.0 86:3.0 87:2.0 88:2.0 89:4.0 90:1.0 91:1.0 40:1.0 92:1.0 93:1.0 94:1.0 95:1.0 96:1.0 97:1.0 98:1.0 6:2.0 18:1.0 99:1.0 
73.00977612917285 9:4.0 100:1.0 40:2.0 101:1.0 4:1.0 102:1.0 103:1.0 6:1.0 
55.73690072257905 104:1.0 105:1.0 50:1.0 106:1.0 107:1.0 108:1.0 109:1.0 110:1.0 111:1.0 112:1.0 113:1.0 114:1.0 115:1.0 
41.92269489867089 126:1.0 127:1.0 128:1.0 129:2.0 130:1.0 131:1.0 132:1.0 133:1.0 14:1.0 106:1.0 5:1.0 50:1.0 134:1.0 6:2.0 135:1.0 136:1.0 137:1.0 138:1.0 64:1.0 139:1.0 43:1.0 140:1.0 141:1.0 142:1.0 81:1.0 143:1.0 
20.33004862382087 144:1.0 122:2.0 145:1.0 146:1.0 40:4.0 147:1.0 148:2.0 9:1.0 149:2.0 150:1.0 151:1.0 52:3.0 152:1.0 153:1.0 29:2.0 154:1.0 155:1.0 156:1.0 157:1.0 158:1.0 159:1.0 4:3.0 160:1.0 161:1.0 162:1.0 163:1.0 71:1.0 164:1.0 165:1.0 166:1.0 167:1.0 168:1.0 169:1.0 170:1.0 171:1.0 172:1.0 
90.0 173:1.0 174:1.0 86:1.0 175:1.0 176:1.0 177:1.0 89:1.0 178:1.0 
27.11145509840524 45:1.0 182:1.0 6:1.0 183:1.0 184:1.0 185:1.0 186:1.0 187:1.0 188:1.0 40:1.0 158:1.0 43:1.0 189:1.0 33:1.0 190:1.0 191:1.0 41:1.0 192:1.0 83:1.0 193:1.0 194:1.0 4:1.0 
36.082894267075694 237:1.0 76:1.0 238:1.0 239:1.0 155:1.0 240:1.0 124:1.0 241:1.0 242:1.0 243:1.0 40:1.0 9:1.0 244:1.0 245:1.0 181:1.0 8:1.0 6:1.0 
18.67557184974567 9:2.0 184:2.0 246:2.0 240:3.0 247:2.0 58:1.0 53:1.0 143:3.0 248:1.0 242:1.0 83:1.0 189:1.0 238:1.0 239:1.0 112:1.0 249:2.0 41:1.0 250:1.0 181:1.0 18:1.0 227:1.0 251:1.0 33:1.0 252:1.0 66:1.0 253:1.0 254:1.0 255:1.0 4:2.0 256:1.0 257:1.0 76:1.0 258:1.0 259:1.0 260:1.0 261:1.0 262:1.0 263:1.0 43:1.0 
57.83966040209221 263:1.0 264:1.0 41:1.0 265:1.0 266:1.0 107:1.0 242:1.0 185:1.0 267:1.0 268:1.0 260:1.0 240:1.0 269:1.0 
59.59403096063399 12:1.0 270:1.0 155:1.0 271:1.0 272:1.0 114:1.0 273:1.0 43:1.0 40:1.0 274:1.0 275:1.0 276:1.0 9:1.0 277:1.0 4:1.0 
90.0 278:1.0 205:1.0 19:1.0 60:1.0 
90.0 279:1.0 280:1.0 225:1.0 121:1.0 122:1.0 281:1.0 282:1.0 4:1.0 
53.33594179816473 143:1.0 293:1.0 47:1.0 43:1.0 294:1.0 205:1.0 213:1.0 227:1.0 122:1.0 295:1.0 296:1.0 297:1.0 49:1.0 62:1.0 112:1.0 
82.46311737789749 284:2.0 7:1.0 287:1.0 298:1.0 299:1.0 76:1.0 71:1.0 300:1.0 14:1.0 6:1.0 
32.69709373552073 128:2.0 43:1.0 325:1.0 310:1.0 148:1.0 9:1.0 326:1.0 327:1.0 328:1.0 40:1.0 329:1.0 330:1.0 249:1.0 76:1.0 0:3.0 71:1.0 331:1.0 332:1.0 12:1.0 333:1.0 334:1.0 17:1.0 335:1.0 336:1.0 337:1.0 338:1.0 339:1.0 284:1.0 340:1.0 341:1.0 313:1.0 342:1.0 343:1.0 344:1.0 345:1.0 346:1.0 347:1.0 348:1.0 349:1.0 141:1.0 350:1.0 351:1.0 
52.7790198628971 352:1.0 353:1.0 329:1.0 310:1.0 155:1.0 354:1.0 355:1.0 356:1.0 357:1.0 358:1.0 359:1.0 360:1.0 143:1.0 4:1.0 
90.0 0:1.0 293:1.0 301:1.0 242:1.0 9:1.0 378:1.0 219:1.0 379:1.0 380:1.0 141:1.0 381:1.0 382:1.0 383:1.0 384:1.0 
90.0 385:1.0 122:1.0 141:1.0 386:1.0 
90.0 387:1.0 175:1.0 122:1.0 388:1.0 0:1.0 379:1.0 385:1.0 181:1.0 4:1.0 
44.70534978389858 389:1.0 122:1.0 50:1.0 390:1.0 112:1.0 384:2.0 391:1.0 392:1.0 41:1.0 0:1.0 9:2.0 393:1.0 11:1.0 394:1.0 395:1.0 396:1.0 
90.0 404:1.0 43:1.0 405:1.0 1:1.0 301:1.0 406:1.0 
43.64030129147747 404:1.0 43:1.0 29:1.0 412:1.0 9:2.0 40:1.0 413:1.0 218:1.0 293:1.0 298:1.0 414:1.0 45:1.0 
58.17226846673962 246:1.0 43:1.0 428:1.0 365:1.0 410:1.0 429:1.0 430:1.0 83:1.0 431:1.0 261:1.0 97:1.0 432:1.0 40:1.0 333:1.0 433:1.0 
26.52615255423009 434:1.0 435:1.0 436:1.0 40:2.0 437:1.0 128:2.0 438:1.0 365:1.0 41:1.0 404:1.0 249:1.0 33:1.0 439:1.0 440:1.0 138:1.0 0:2.0 441:1.0 442:1.0 371:2.0 141:1.0 187:1.0 148:1.0 443:1.0 444:1.0 445:1.0 429:1.0 29:1.0 368:1.0 446:1.0 447:1.0 184:1.0 11:1.0 293:1.0 448:1.0 69:1.0 
52.312103861704934 493:1.0 128:1.0 245:2.0 76:1.0 71:1.0 494:1.0 40:1.0 0:1.0 495:1.0 496:1.0 4:1.0 
34.24868384193996 106:1.0 50:2.0 496:1.0 497:1.0 498:1.0 499:1.0 75:1.0 276:1.0 500:1.0 155:1.0 317:2.0 4:2.0 249:1.0 501:1.0 502:1.0 503:1.0 83:1.0 504:1.0 505:1.0 184:1.0 506:1.0 
24.97595574694826 423:1.0 381:1.0 507:1.0 155:1.0 508:1.0 509:1.0 60:1.0 457:1.0 40:3.0 510:1.0 511:1.0 42:1.0 384:3.0 20:1.0 512:1.0 513:1.0 514:1.0 515:1.0 516:1.0 517:1.0 141:1.0 518:1.0 76:1.0 519:1.0 520:1.0 41:1.0 71:1.0 521:1.0 
23.43848399216848 17:1.0 369:1.0 474:2.0 325:2.0 5:1.0 522:1.0 40:4.0 405:1.0 50:2.0 523:1.0 238:1.0 322:2.0 41:1.0 4:3.0 237:1.0 16:1.0 524:2.0 43:1.0 298:1.0 525:1.0 112:1.0 9:1.0 526:2.0 58:1.0 518:2.0 527:1.0 71:1.0 423:1.0 381:1.0 74:1.0 191:1.0 66:1.0 528:1.0 190:1.0 462:1.0 288:1.0 529:1.0 332:1.0 52:1.0 152:1.0 530:1.0 278:1.0 
12.8922418625536 246:3.0 539:1.0 249:4.0 405:1.0 540:2.0 541:1.0 141:1.0 542:1.0 543:1.0 12:1.0 218:1.0 544:1.0 40:1.0 335:1.0 545:1.0 148:1.0 546:1.0 66:1.0 475:2.0 476:2.0 547:2.0 32:1.0 548:2.0 549:1.0 219:2.0 45:1.0 550:1.0 190:1.0 551:1.0 191:1.0 552:1.0 4:1.0 553:1.0 41:1.0 11:1.0 554:1.0 261:1.0 555:1.0 556:1.0 557:1.0 558:1.0 6:2.0 7:1.0 49:1.0 189:1.0 33:1.0 145:1.0 559:1.0 560:1.0 561:1.0 
90.0 595:1.0 50:1.0 293:1.0 298:1.0 123:1.0 
87.39544791587213 596:1.0 597:1.0 184:1.0 591:1.0 14:1.0 598:1.0 40:1.0 17:1.0 599:1.0 474:1.0 600:1.0 601:1.0 462:1.0 
57.58454212293065 602:1.0 50:1.0 603:1.0 604:1.0 249:1.0 605:1.0 120:1.0 606:1.0 607:1.0 20:2.0 
67.89990289608815 487:1.0 7:1.0 14:1.0 608:1.0 609:1.0 610:1.0 107:1.0 191:1.0 611:1.0 612:1.0 613:1.0 614:1.0 615:1.0 616:1.0 44:1.0 
13.883549881890152 143:1.0 76:1.0 9:1.0 617:1.0 618:1.0 45:1.0 146:1.0 19:1.0 157:1.0 619:1.0 199:1.0 61:1.0 598:1.0 114:2.0 620:2.0 242:1.0 621:1.0 40:5.0 397:1.0 622:1.0 50:2.0 623:1.0 624:1.0 83:1.0 488:1.0 625:1.0 626:1.0 627:1.0 64:1.0 628:1.0 320:3.0 629:2.0 611:5.0 630:1.0 631:1.0 632:1.0 487:1.0 387:1.0 219:1.0 633:2.0 634:1.0 313:1.0 635:1.0 636:1.0 52:1.0 246:1.0 637:1.0 187:1.0 474:1.0 32:1.0 638:1.0 29:1.0 639:1.0 4:1.0 49:1.0 640:1.0 641:1.0 642:1.0 643:1.0 644:1.0 6:1.0 
90.0 143:1.0 76:1.0 32:1.0 672:1.0 83:1.0 673:1.0 187:1.0 106:1.0 4:1.0 
15.822785822743205 519:1.0 674:1.0 40:1.0 675:2.0 298:1.0 676:1.0 360:1.0 661:3.0 662:3.0 107:3.0 663:3.0 677:1.0 678:1.0 672:1.0 679:1.0 673:1.0 680:1.0 25:1.0 381:1.0 681:1.0 22:1.0 682:1.0 683:1.0 684:1.0 685:1.0 686:1.0 4:1.0 
90.0 673:1.0 687:1.0 69:1.0 688:1.0 40:1.0 4:1.0 
10.698910923063362 689:1.0 690:1.0 40:2.0 691:1.0 513:1.0 66:1.0 4:2.0 519:1.0 692:3.0 693:3.0 694:1.0 488:1.0 695:1.0 81:2.0 32:1.0 696:1.0 187:1.0 276:1.0 191:1.0 381:1.0 219:1.0 71:1.0 697:1.0 698:1.0 155:1.0 52:1.0 585:1.0 43:1.0 9:1.0 184:1.0 699:1.0 385:1.0 700:1.0 
24.939740991497587 701:1.0 702:1.0 227:2.0 379:1.0 313:1.0 83:1.0 703:1.0 298:1.0 704:1.0 705:1.0 40:1.0 33:1.0 706:1.0 567:1.0 7:1.0 707:1.0 66:2.0 708:1.0 709:1.0 710:1.0 4:1.0 
23.567075357543146 190:1.0 219:1.0 293:1.0 14:1.0 155:1.0 64:1.0 711:2.0 4:4.0 712:2.0 702:2.0 462:1.0 661:1.0 662:1.0 107:1.0 663:1.0 7:1.0 43:1.0 713:1.0 29:3.0 714:1.0 60:1.0 585:1.0 715:1.0 20:2.0 83:1.0 66:1.0 716:1.0 187:1.0 717:1.0 148:1.0 718:1.0 719:1.0 720:1.0 50:1.0 519:1.0 721:1.0 722:1.0 723:1.0 503:1.0 724:1.0 725:1.0 19:1.0 
8.116094107408053 726:1.0 4:2.0 138:1.0 61:1.0 727:1.0 9:2.0 45:2.0 702:1.0 442:1.0 577:1.0 203:1.0 155:1.0 706:1.0 567:1.0 728:1.0 729:1.0 50:1.0 560:1.0 730:1.0 
90.0 412:1.0 233:1.0 731:1.0 732:1.0 
90.0 733:1.0 734:1.0 43:1.0 9:1.0 365:1.0 412:1.0 714:1.0 4:1.0 
24.55688829635387 726:1.0 4:2.0 138:1.0 61:1.0 727:1.0 9:2.0 45:2.0 702:1.0 442:1.0 577:1.0 203:1.0 155:1.0 706:1.0 567:1.0 728:1.0 729:1.0 50:1.0 
76.76360557749226 756:1.0 459:1.0 355:1.0 4:1.0 10:1.0 237:1.0 757:1.0 758:1.0 759:1.0 611:1.0 
58.68780471012367 390:2.0 50:2.0 760:1.0 581:1.0 9:1.0 184:1.0 761:2.0 762:1.0 81:1.0 317:1.0 123:1.0 41:1.0 763:1.0 175:1.0 716:1.0 190:2.0 83:1.0 293:1.0 251:1.0 40:1.0 756:1.0 764:1.0 412:1.0 4:1.0 
90.0 423:1.0 412:1.0 590:1.0 
22.0168815492327 80:1.0 4:2.0 553:1.0 141:1.0 237:2.0 184:1.0 765:1.0 19:1.0 50:1.0 766:1.0 767:1.0 
90.0 184:1.0 768:1.0 41:1.0 658:1.0 76:1.0 769:1.0 238:1.0 384:1.0 
90.0 773:1.0 4:1.0 774:1.0 
90.0 781:1.0 81:1.0 633:1.0 782:1.0 
33.87020717265975 783:1.0 784:1.0 785:2.0 298:1.0 123:1.0 189:1.0 786:1.0 462:1.0 190:1.0 787:1.0 155:1.0 788:1.0 40:1.0 789:1.0 790:1.0 83:1.0 791:1.0 157:1.0 792:1.0 793:1.0 4:1.0 
90.0 0:1.0 355:1.0 794:1.0 8:1.0 198:1.0 795:1.0 767:1.0 4:1.0 
90.0 796:1.0 146:1.0 41:1.0 76:1.0 797:1.0 798:1.0 69:1.0 384:1.0 19:1.0 799:1.0 
90.0 391:1.0 690:1.0 191:1.0 238:1.0 
62.84119227804712 803:1.0 106:1.0 50:1.0 355:2.0 804:1.0 29:1.0 805:1.0 392:1.0 806:1.0 807:1.0 18:1.0 
63.16110313504502 800:1.0 40:2.0 801:2.0 187:1.0 867:1.0 219:1.0 106:1.0 410:1.0 50:1.0 868:1.0 869:1.0 9:1.0 802:1.0 
39.35063896383736 875:1.0 9:2.0 802:1.0 607:3.0 707:1.0 876:1.0 739:1.0 877:1.0 741:1.0 878:1.0 6:1.0 
46.958676702228836 879:1.0 880:1.0 40:1.0 141:1.0 611:1.0 673:1.0 187:1.0 881:1.0 801:1.0 241:1.0 882:1.0 6:1.0 5:1.0 883:1.0 664:1.0 884:1.0 885:1.0 227:1.0 713:1.0 4:1.0 
90.0 219:1.0 29:1.0 889:1.0 40:1.0 890:1.0 205:1.0 801:1.0 4:1.0 
90.0 221:1.0 848:1.0 53:1.0 9:1.0 215:1.0 4:1.0 560:1.0 730:1.0 
59.57236963849278 320:1.0 52:1.0 891:1.0 892:2.0 122:1.0 893:1.0 444:1.0 153:1.0 894:1.0 895:1.0 41:1.0 0:1.0 896:1.0 245:1.0 69:1.0 
40.31701521890897 523:1.0 902:1.0 462:1.0 903:1.0 219:1.0 239:1.0 904:1.0 905:1.0 76:1.0 906:1.0 71:1.0 873:1.0 
67.80380880218044 173:1.0 907:1.0 207:1.0 10:1.0 165:1.0 50:1.0 66:1.0 112:1.0 19:1.0 711:1.0 
90.0 908:1.0 
84.3907746498605 909:1.0 4:2.0 910:1.0 911:1.0 912:1.0 913:1.0 
34.46784782338843 289:1.0 271:1.0 272:1.0 892:1.0 146:1.0 83:1.0 265:1.0 205:1.0 40:1.0 45:1.0 914:1.0 6:3.0 
90.0 369:1.0 915:1.0 916:1.0 
90.0 915:1.0 916:1.0 112:1.0 19:1.0 20:1.0 
90.0 917:1.0 410:1.0 66:1.0 918:1.0 916:1.0 112:1.0 384:1.0 
65.04933991474687 0:1.0 293:1.0 921:1.0 922:1.0 43:1.0 17:1.0 75:1.0 71:1.0 923:1.0 50:1.0 205:1.0 924:1.0 4:1.0 
43.19661459467107 934:1.0 518:1.0 145:2.0 924:1.0 40:1.0 697:1.0 935:1.0 265:1.0 191:1.0 936:1.0 155:1.0 937:1.0 938:1.0 939:1.0 4:1.0 
15.546229015578106 940:2.0 462:1.0 611:2.0 112:1.0 49:1.0 4:1.0 50:1.0 809:1.0 941:1.0 942:1.0 943:1.0 198:1.0 944:1.0 945:1.0 41:1.0 227:1.0 423:1.0 66:1.0 6:1.0 
16.257794300635258 298:1.0 949:1.0 950:1.0 369:2.0 9:2.0 47:1.0 951:1.0 952:1.0 953:2.0 40:4.0 954:1.0 4:3.0 530:1.0 473:1.0 955:1.0 956:1.0 141:1.0 79:1.0 576:2.0 81:1.0 957:1.0 148:1.0 14:2.0 958:1.0 381:1.0 959:1.0 157:2.0 60:1.0 519:1.0 122:2.0 408:1.0 139:1.0 960:1.0 20:1.0 553:1.0 961:1.0 962:1.0 873:1.0 652:1.0 963:1.0 855:1.0 280:1.0 964:1.0 965:1.0 146:1.0 143:1.0 966:1.0 967:1.0 392:1.0 768:1.0 409:1.0 968:1.0 969:1.0 
20.47573720792625 975:1.0 43:1.0 40:4.0 967:1.0 392:3.0 976:1.0 63:1.0 977:1.0 968:1.0 4:3.0 825:1.0 962:1.0 978:1.0 83:1.0 979:1.0 955:2.0 71:1.0 980:1.0 786:1.0 981:1.0 423:1.0 982:1.0 957:1.0 106:1.0 50:1.0 983:1.0 22:1.0 984:1.0 138:1.0 
32.00305177337589 985:1.0 977:1.0 83:2.0 423:1.0 141:2.0 45:1.0 986:1.0 191:1.0 957:1.0 14:1.0 153:1.0 987:1.0 114:1.0 988:1.0 175:1.0 989:1.0 40:1.0 990:1.0 4:1.0 
90.0 991:1.0 992:1.0 906:1.0 310:1.0 429:1.0 993:1.0 152:1.0 315:1.0 
90.0 17:1.0 0:1.0 994:1.0 429:1.0 993:1.0 69:1.0 384:1.0 4:1.0 
9.92757404346746 407:2.0 1049:2.0 146:2.0 1050:1.0 661:7.0 662:7.0 107:7.0 663:7.0 1051:1.0 1052:1.0 587:1.0 412:1.0 1053:1.0 19:1.0 414:1.0 1054:1.0 344:1.0 298:1.0 181:1.0 1055:1.0 760:1.0 581:1.0 1056:1.0 900:1.0 1057:1.0 317:1.0 409:1.0 1058:1.0 366:1.0 40:1.0 676:1.0 80:1.0 239:1.0 603:1.0 1059:1.0 658:1.0 436:1.0 326:1.0 327:1.0 1060:1.0 141:1.0 461:1.0 1061:1.0 6:1.0 
76.77116524100278 1062:1.0 298:1.0 407:1.0 205:2.0 146:1.0 40:1.0 1063:1.0 
15.242590704187212 1064:1.0 88:1.0 1065:3.0 87:1.0 759:2.0 1066:2.0 1067:1.0 95:7.0 93:1.0 1068:1.0 1069:1.0 561:1.0 4:2.0 419:1.0 86:3.0 174:1.0 1070:3.0 563:3.0 1071:1.0 89:1.0 98:1.0 1072:1.0 91:1.0 1073:1.0 40:1.0 387:1.0 106:1.0 295:1.0 1074:1.0 648:1.0 122:1.0 
90.0 1049:1.0 1075:1.0 45:1.0 1076:1.0 4:1.0 
90.0 71:1.0 923:1.0 50:1.0 205:1.0 146:1.0 6:1.0 
90.0 1057:1.0 
18.445097738606155 414:1.0 1077:3.0 146:3.0 1078:1.0 384:3.0 1030:1.0 1068:1.0 33:1.0 9:3.0 355:2.0 1079:1.0 1080:1.0 215:1.0 49:1.0 50:2.0 1081:2.0 41:2.0 190:1.0 219:1.0 71:1.0 1082:1.0 19:1.0 48:1.0 122:1.0 1083:1.0 242:1.0 290:1.0 76:1.0 906:2.0 1084:1.0 1085:1.0 590:2.0 965:1.0 768:1.0 407:1.0 249:1.0 317:1.0 8:1.0 6:1.0 
90.0 430:1.0 
58.779843556258406 410:1.0 76:1.0 430:1.0 261:1.0 1153:1.0 1154:1.0 1155:1.0 
90.0 278:1.0 410:1.0 692:1.0 1156:1.0 205:1.0 
90.0 1157:1.0 89:1.0 96:1.0 408:1.0 29:1.0 205:1.0 
19.330387149320245 1179:1.0 1180:2.0 298:2.0 181:1.0 76:1.0 1087:1.0 322:1.0 4:3.0 11:1.0 697:1.0 83:1.0 372:2.0 1181:1.0 0:1.0 9:2.0 567:1.0 41:1.0 769:1.0 1182:1.0 1183:1.0 1184:1.0 40:2.0 53:2.0 1185:1.0 403:1.0 66:1.0 384:1.0 261:1.0 237:1.0 71:1.0 1186:1.0 1187:1.0 799:1.0 461:1.0 413:1.0 218:1.0 1188:1.0 1189:1.0 
13.37780552820255 1190:1.0 155:1.0 1191:1.0 1192:1.0 4:2.0 1193:1.0 29:1.0 1194:1.0 968:1.0 1195:1.0 32:2.0 1196:3.0 1197:1.0 505:2.0 190:1.0 1198:3.0 41:2.0 52:2.0 1199:1.0 1200:1.0 344:2.0 573:1.0 1201:1.0 40:4.0 165:1.0 49:1.0 9:2.0 1202:1.0 1179:1.0 1189:1.0 1203:1.0 1180:3.0 83:1.0 145:1.0 128:1.0 46:1.0 50:1.0 1204:1.0 66:1.0 1205:1.0 17:1.0 141:1.0 219:1.0 977:1.0 1206:1.0 0:2.0 1207:1.0 369:1.0 1178:1.0 379:1.0 1208:1.0 6:1.0 
23.587623633074763 237:2.0 9:4.0 355:1.0 1209:1.0 1210:1.0 1211:2.0 466:1.0 40:2.0 1212:1.0 1213:1.0 141:1.0 53:1.0 852:1.0 1192:1.0 1214:1.0 576:1.0 148:1.0 1215:1.0 1216:1.0 900:1.0 4:1.0 553:1.0 43:1.0 1217:1.0 1218:1.0 1219:1.0 1220:1.0 32:1.0 0:1.0 1221:1.0 1222:1.0 157:1.0 739:1.0 1223:1.0 741:1.0 
46.68543110404723 53:2.0 475:2.0 476:2.0 1180:1.0 298:1.0 1238:1.0 189:1.0 897:1.0 1287:1.0 127:1.0 157:1.0 1288:1.0 594:1.0 107:1.0 575:1.0 11:1.0 76:1.0 690:1.0 1289:1.0 
90.0 1314:1.0 397:1.0 1268:1.0 11:1.0 409:1.0 12:1.0 1315:1.0 1316:1.0 
20.05600629502762 237:1.0 1327:1.0 27:1.0 40:2.0 553:1.0 123:1.0 83:1.0 1328:1.0 0:1.0 1329:1.0 1330:1.0 25:1.0 145:1.0 873:1.0 1331:1.0 1332:1.0 298:1.0 860:1.0 43:1.0 4:1.0 
42.446622380673645 1356:1.0 43:1.0 410:1.0 1009:1.0 114:1.0 360:1.0 112:1.0 519:1.0 205:1.0 580:1.0 1357:1.0 1358:1.0 11:1.0 369:1.0 153:1.0 517:1.0 141:1.0 1005:1.0 1359:1.0 4:1.0 
21.98352113767162 906:2.0 293:1.0 143:1.0 9:1.0 1179:1.0 1360:1.0 387:1.0 4:2.0 381:2.0 1361:1.0 1344:1.0 191:1.0 778:2.0 152:1.0 1362:1.0 227:1.0 13:1.0 488:2.0 871:2.0 122:1.0 205:1.0 676:1.0 245:1.0 708:1.0 155:1.0 32:1.0 145:1.0 1363:1.0 
15.37545041323456 1364:1.0 89:9.0 91:1.0 1304:2.0 648:2.0 651:2.0 86:8.0 1365:1.0 1299:2.0 7:1.0 678:1.0 1066:3.0 1366:2.0 1367:1.0 1368:2.0 759:3.0 1293:1.0 178:1.0 1099:1.0 1065:4.0 1295:1.0 563:2.0 384:2.0 488:1.0 4:5.0 1020:1.0 98:2.0 1070:1.0 1369:1.0 1370:1.0 95:1.0 1297:1.0 87:1.0 1371:1.0 1310:1.0 1372:1.0 88:1.0 1373:1.0 658:1.0 181:1.0 
15.105350646522147 1100:1.0 147:1.0 1374:2.0 81:2.0 52:1.0 1005:1.0 3:1.0 58:2.0 671:1.0 43:1.0 4:3.0 518:2.0 312:1.0 971:1.0 27:2.0 246:3.0 1375:1.0 282:2.0 12:1.0 218:1.0 9:2.0 1188:2.0 1376:1.0 544:2.0 40:2.0 335:1.0 8:1.0 1377:1.0 900:1.0 41:1.0 1378:1.0 625:1.0 143:1.0 475:2.0 476:2.0 848:1.0 1379:1.0 1380:1.0 368:1.0 6:1.0 661:1.0 662:1.0 107:1.0 663:1.0 293:1.0 1381:1.0 50:1.0 1382:1.0 1383:1.0 394:1.0 1384:1.0 144:1.0 1257:1.0 1338:1.0 112:1.0 61:1.0 49:1.0 1385:1.0 365:1.0 
15.533427482758603 825:1.0 1386:1.0 572:1.0 786:1.0 906:1.0 873:1.0 181:1.0 4:7.0 1387:1.0 1388:1.0 112:1.0 611:1.0 310:2.0 1389:1.0 715:1.0 46:1.0 537:1.0 75:1.0 986:2.0 114:2.0 257:1.0 1375:1.0 315:2.0 423:1.0 369:1.0 61:1.0 581:1.0 1390:1.0 1391:1.0 1392:2.0 1393:1.0 322:1.0 141:1.0 103:1.0 394:1.0 1394:1.0 22:1.0 
66.60807536436049 1395:1.0 574:1.0 1396:1.0 486:1.0 607:1.0 1397:1.0 185:1.0 1398:1.0 346:1.0 786:1.0 1399:1.0 1400:1.0 1401:1.0 0:1.0 423:1.0 4:1.0 
55.29134674091402 52:1.0 922:1.0 1402:1.0 205:1.0 40:1.0 1403:1.0 448:1.0 76:1.0 293:1.0 4:1.0 
90.0 1404:1.0 4:2.0 165:1.0 1405:1.0 
62.33357073261889 146:1.0 858:1.0 1217:2.0 1406:1.0 288:1.0 1407:1.0 40:1.0 52:1.0 922:1.0 312:1.0 1408:1.0 205:1.0 
33.165241899131324 9:1.0 355:1.0 1409:1.0 1410:1.0 219:2.0 1411:1.0 1030:1.0 40:3.0 225:1.0 1396:1.0 1412:1.0 276:1.0 850:1.0 1413:1.0 1414:1.0 1331:1.0 390:1.0 320:1.0 668:1.0 279:1.0 1415:1.0 1416:1.0 45:1.0 1131:1.0 1417:1.0 6:1.0 
90.0 225:1.0 1396:1.0 1412:1.0 4:2.0 464:1.0 9:1.0 219:1.0 1411:1.0 1030:1.0 29:1.0 706:1.0 52:1.0 1426:1.0 
12.514654817681958 148:1.0 952:4.0 1331:1.0 512:1.0 439:3.0 776:4.0 577:2.0 1427:2.0 191:2.0 9:2.0 977:1.0 267:1.0 40:1.0 553:1.0 599:1.0 11:2.0 1428:1.0 50:1.0 585:4.0 112:1.0 4:2.0 0:1.0 579:1.0 1301:1.0 475:2.0 476:2.0 997:1.0 52:1.0 1426:1.0 898:1.0 29:2.0 129:2.0 1217:1.0 18:3.0 83:3.0 584:1.0 260:2.0 1429:1.0 145:1.0 190:1.0 219:2.0 298:1.0 71:2.0 1430:1.0 381:1.0 231:1.0 1431:1.0 1432:1.0 1004:1.0 819:1.0 66:2.0 238:1.0 1433:1.0 1434:1.0 
20.986230640167527 225:1.0 1396:1.0 1435:1.0 86:6.0 563:1.0 1436:1.0 89:4.0 98:2.0 1437:1.0 1438:1.0 96:2.0 85:1.0 1065:2.0 600:1.0 1033:1.0 95:1.0 384:1.0 4:2.0 1439:1.0 1066:1.0 1440:1.0 12:1.0 1307:1.0 91:1.0 1441:1.0 122:1.0 1442:1.0 1126:1.0 93:1.0 29:1.0 88:1.0 832:1.0 1443:1.0 178:1.0 
4.817587075674607 1444:1.0 940:4.0 6:4.0 1445:1.0 1446:1.0 237:1.0 227:1.0 3:1.0 519:1.0 1447:1.0 83:2.0 1448:1.0 1449:1.0 1450:1.0 1451:1.0 1452:1.0 81:1.0 4:3.0 1004:2.0 33:2.0 381:3.0 67:1.0 261:1.0 11:1.0 1332:1.0 40:3.0 128:1.0 1453:1.0 79:1.0 1454:1.0 32:2.0 743:1.0 1455:1.0 238:1.0 966:1.0 538:1.0 460:1.0 660:2.0 1456:1.0 664:2.0 29:1.0 1188:1.0 258:1.0 141:1.0 668:1.0 1457:1.0 14:1.0 155:1.0 850:1.0 219:1.0 1458:1.0 1459:1.0 157:1.0 1038:1.0 43:1.0 
90.0 1460:1.0 
32.55288302628176 475:2.0 476:2.0 237:3.0 971:1.0 553:1.0 585:1.0 519:1.0 1461:1.0 43:1.0 40:2.0 1462:1.0 76:1.0 1463:1.0 560:1.0 9:1.0 184:1.0 128:1.0 245:1.0 49:1.0 45:1.0 1464:1.0 29:2.0 1465:1.0 81:1.0 381:1.0 67:1.0 1452:1.0 268:1.0 1466:1.0 1467:1.0 1468:1.0 1469:1.0 4:1.0 
20.331769031736528 906:1.0 355:1.0 1466:1.0 1470:1.0 40:1.0 1471:1.0 1384:1.0 122:1.0 261:2.0 1472:1.0 83:2.0 1473:1.0 1474:1.0 1475:1.0 940:1.0 184:1.0 1049:1.0 412:1.0 1476:1.0 1445:1.0 4:1.0 263:1.0 1477:1.0 227:1.0 576:1.0 29:1.0 1478:1.0 219:1.0 1479:1.0 1460:1.0 6:1.0 
90.0 1049:1.0 43:1.0 992:1.0 49:1.0 153:1.0 1480:1.0 
90.0 1281:1.0 760:1.0 1481:1.0 6:1.0 
90.0 1482:1.0 390:1.0 1483:1.0 
32.84391104865888 317:1.0 1484:1.0 1485:1.0 40:2.0 940:2.0 1479:1.0 45:1.0 1452:1.0 1444:1.0 
60.9295561415329 1486:1.0 95:2.0 93:1.0 1292:1.0 89:1.0 178:1.0 1487:1.0 1154:1.0 96:1.0 40:1.0 
90.0 106:1.0 1488:1.0 50:1.0 1460:1.0 317:1.0 123:1.0 
90.0 381:1.0 1489:1.0 1460:1.0 
48.23890912787085 213:1.0 9:2.0 1066:1.0 4:1.0 40:1.0 668:1.0 219:1.0 405:1.0 971:1.0 29:1.0 412:1.0 218:1.0 1049:1.0 43:1.0 
19.872274240991594 475:1.0 476:1.0 1499:2.0 498:1.0 79:1.0 1500:1.0 81:1.0 486:1.0 1473:1.0 1384:1.0 365:1.0 1501:1.0 212:1.0 13:1.0 263:2.0 1477:1.0 114:1.0 391:1.0 576:1.0 4:2.0 257:1.0 49:1.0 40:2.0 1502:1.0 710:1.0 1503:1.0 1491:1.0 611:1.0 33:1.0 369:1.0 75:1.0 0:1.0 1504:1.0 44:1.0 560:2.0 739:1.0 877:1.0 741:1.0 1505:1.0 205:1.0 1506:1.0 1325:1.0 1507:1.0 124:1.0 1508:1.0 6:1.0 
27.081249987355868 1509:1.0 50:1.0 940:2.0 1510:1.0 86:2.0 178:1.0 1511:1.0 384:3.0 4:1.0 1025:1.0 1512:1.0 1513:1.0 1065:1.0 600:1.0 472:1.0 191:1.0 1491:1.0 263:1.0 1477:1.0 32:1.0 94:1.0 95:1.0 96:1.0 668:1.0 1441:1.0 98:1.0 1514:1.0 
10.879710431634264 33:1.0 611:1.0 263:1.0 218:1.0 293:1.0 122:1.0 384:1.0 4:1.0 75:1.0 0:1.0 1504:1.0 6:18.0 661:2.0 662:2.0 107:2.0 663:2.0 1515:1.0 1516:1.0 205:1.0 1517:1.0 315:1.0 246:1.0 1518:1.0 
22.599272590983983 237:2.0 16:1.0 415:1.0 41:1.0 1121:1.0 580:1.0 365:1.0 1519:1.0 1013:1.0 1520:1.0 4:3.0 1442:1.0 381:1.0 1049:1.0 36:1.0 405:1.0 9:1.0 301:1.0 412:1.0 1521:1.0 1036:1.0 
25.95541391031194 1142:1.0 184:1.0 1522:1.0 1523:1.0 6:6.0 
34.01616091512186 157:1.0 124:1.0 80:1.0 40:1.0 184:1.0 1449:1.0 1524:1.0 66:1.0 1525:1.0 940:1.0 1526:1.0 4:1.0 1444:1.0 1499:1.0 1527:1.0 384:2.0 760:1.0 
77.54443285560761 184:1.0 1493:1.0 80:1.0 40:1.0 966:1.0 940:1.0 276:1.0 1528:1.0 538:1.0 1529:1.0 
35.961688619744926 940:1.0 651:1.0 246:1.0 418:1.0 145:1.0 1530:1.0 1531:1.0 6:3.0 
24.371685025651754 1005:1.0 9:1.0 274:1.0 1532:1.0 145:2.0 146:1.0 83:2.0 1533:1.0 1534:1.0 40:2.0 45:1.0 1535:1.0 148:1.0 460:1.0 1414:1.0 391:1.0 1536:1.0 219:1.0 155:1.0 1537:1.0 1538:1.0 1539:1.0 225:1.0 1396:1.0 1412:1.0 276:1.0 1540:1.0 262:1.0 1541:1.0 13:1.0 1081:1.0 488:1.0 871:1.0 365:1.0 1542:1.0 4:1.0 
20.066528970702667 1543:1.0 40:1.0 17:1.0 1544:1.0 1545:1.0 219:4.0 1030:2.0 157:1.0 1546:1.0 0:1.0 190:1.0 41:2.0 951:2.0 954:1.0 953:1.0 123:1.0 130:1.0 83:1.0 1315:1.0 1547:1.0 799:1.0 898:1.0 9:1.0 124:1.0 530:1.0 18:1.0 1548:1.0 4:3.0 98:1.0 561:1.0 
90.0 517:1.0 205:1.0 
9.976735464731158 1568:1.0 86:16.0 98:8.0 1296:2.0 89:19.0 1125:5.0 1310:1.0 1569:1.0 563:7.0 594:2.0 346:1.0 1570:1.0 93:1.0 1571:1.0 1071:1.0 4:4.0 1311:1.0 1572:3.0 651:2.0 1573:1.0 1574:3.0 759:4.0 1293:4.0 178:13.0 1575:2.0 246:1.0 1441:2.0 1576:1.0 1069:1.0 95:9.0 561:1.0 29:1.0 1577:1.0 96:1.0 1290:3.0 661:1.0 662:1.0 107:1.0 663:1.0 1578:1.0 129:1.0 1299:1.0 261:2.0 1579:1.0 1325:1.0 1099:1.0 1065:8.0 355:1.0 1291:1.0 1580:1.0 1066:3.0 176:1.0 1581:1.0 40:1.0 1582:2.0 1583:2.0 1584:2.0 1585:1.0 1347:1.0 655:1.0 87:3.0 1298:1.0 741:1.0 682:2.0 1295:1.0 1020:1.0 239:1.0 1302:1.0 1586:1.0 1587:1.0 600:1.0 141:1.0 1352:1.0 1513:1.0 1292:2.0 560:1.0 1588:1.0 
15.443148408096178 46:1.0 47:1.0 1589:1.0 0:2.0 71:2.0 658:1.0 76:1.0 1590:1.0 1591:1.0 668:1.0 660:2.0 41:1.0 143:1.0 279:1.0 423:1.0 40:4.0 325:1.0 55:1.0 1592:1.0 191:1.0 1593:1.0 379:1.0 529:1.0 405:1.0 1417:1.0 27:1.0 1594:1.0 43:2.0 227:2.0 1595:1.0 365:1.0 1596:1.0 83:2.0 1597:1.0 1598:1.0 652:1.0 12:2.0 1599:1.0 955:1.0 1600:1.0 141:1.0 1601:1.0 148:1.0 153:1.0 66:1.0 381:1.0 213:1.0 1188:1.0 32:1.0 1602:1.0 1603:1.0 
18.078066435393676 52:1.0 152:1.0 394:1.0 971:1.0 1604:1.0 1605:1.0 979:1.0 50:1.0 0:2.0 986:1.0 4:3.0 1606:1.0 1607:1.0 43:2.0 145:1.0 1134:1.0 83:1.0 272:1.0 1608:1.0 786:1.0 40:5.0 1609:1.0 123:1.0 189:2.0 1610:1.0 1611:1.0 155:1.0 1612:1.0 1613:1.0 1173:1.0 1614:1.0 968:1.0 1105:1.0 518:1.0 994:1.0 175:1.0 143:1.0 9:1.0 284:1.0 246:1.0 11:1.0 205:1.0 1034:1.0 405:1.0 1:1.0 824:1.0 567:1.0 41:1.0 1039:1.0 322:1.0 
90.0 825:1.0 43:1.0 601:1.0 258:1.0 505:1.0 1615:1.0 4:1.0 
90.0 175:1.0 1616:1.0 1617:1.0 365:1.0 1134:1.0 6:1.0 
41.46895338915442 1605:1.0 979:1.0 1413:1.0 519:1.0 123:1.0 9:2.0 1632:1.0 561:1.0 560:1.0 1633:1.0 218:1.0 83:1.0 1134:1.0 462:1.0 75:1.0 553:1.0 1634:1.0 155:1.0 381:1.0 245:1.0 407:1.0 279:1.0 11:1.0 189:1.0 986:1.0 1628:1.0 190:1.0 4:1.0 
8.312058802229366 1347:1.0 95:10.0 98:9.0 1441:1.0 86:8.0 1635:1.0 89:11.0 1626:2.0 594:1.0 1607:2.0 419:1.0 906:1.0 1039:1.0 40:2.0 1513:1.0 563:5.0 243:1.0 1636:1.0 93:4.0 1290:1.0 1072:2.0 1582:2.0 1637:1.0 1311:3.0 1293:3.0 1310:1.0 264:1.0 1638:1.0 75:2.0 1639:1.0 1065:1.0 295:1.0 178:2.0 92:1.0 4:2.0 1299:1.0 286:1.0 409:2.0 17:1.0 0:1.0 88:1.0 1640:1.0 1641:1.0 651:1.0 1642:1.0 91:1.0 648:1.0 1436:1.0 1303:1.0 1643:1.0 561:1.0 1644:1.0 1366:1.0 
25.696442743879622 249:1.0 191:1.0 298:1.0 1645:1.0 160:1.0 1646:1.0 12:1.0 1647:1.0 145:1.0 986:1.0 4:3.0 33:1.0 1604:1.0 845:1.0 32:1.0 590:1.0 1648:1.0 141:1.0 1649:1.0 1618:1.0 50:1.0 1225:1.0 83:1.0 1650:1.0 322:1.0 41:1.0 
14.012991895446762 1298:2.0 86:7.0 178:2.0 170:1.0 1293:2.0 295:2.0 906:1.0 1639:1.0 1065:1.0 95:2.0 1311:1.0 563:4.0 1310:2.0 1651:1.0 89:3.0 93:3.0 92:1.0 1570:1.0 1652:1.0 96:1.0 1292:1.0 98:1.0 1653:1.0 1039:1.0 1126:1.0 
90.0 189:1.0 986:1.0 1660:1.0 4:1.0 
27.82986945902887 825:1.0 1039:1.0 218:1.0 344:1.0 1662:1.0 0:1.0 1672:1.0 1673:1.0 1674:1.0 86:4.0 165:1.0 1675:1.0 89:3.0 93:1.0 1676:1.0 95:1.0 178:1.0 759:2.0 1065:2.0 1066:2.0 1626:1.0 1303:1.0 1644:1.0 98:1.0 1366:1.0 563:1.0 1297:1.0 87:1.0 
90.0 12:1.0 1039:1.0 15:1.0 212:1.0 148:1.0 1677:1.0 218:1.0 
33.93579812868833 257:1.0 317:2.0 627:1.0 413:1.0 14:1.0 940:1.0 1678:1.0 1679:1.0 1680:1.0 4:1.0 
90.0 225:1.0 1681:1.0 1396:1.0 1412:1.0 276:1.0 317:1.0 940:1.0 4:1.0 
82.53446000470626 584:1.0 123:1.0 892:1.0 1495:1.0 124:1.0 1692:1.0 1320:1.0 24:1.0 1325:1.0 18:1.0 
19.707905766130605 1683:1.0 184:2.0 760:2.0 255:1.0 369:2.0 379:3.0 1101:3.0 3:3.0 298:1.0 1693:1.0 1320:1.0 43:2.0 40:2.0 1632:1.0 1694:1.0 81:1.0 1695:1.0 1696:1.0 1697:1.0 123:1.0 384:1.0 45:1.0 691:1.0 47:1.0 580:1.0 6:1.0 
90.0 584:1.0 18:1.0 
24.02687240490266 1682:1.0 423:1.0 1699:1.0 1700:1.0 1496:1.0 50:1.0 1488:1.0 40:5.0 1341:1.0 9:1.0 1701:1.0 1702:1.0 1703:1.0 873:1.0 379:1.0 1704:1.0 1705:1.0 1101:1.0 3:1.0 4:1.0 123:1.0 1495:1.0 1706:1.0 12:1.0 1707:1.0 46:1.0 55:1.0 1708:1.0 1709:1.0 0:1.0 1710:1.0 518:1.0 265:1.0 6:1.0 
80.9169640617504 817:1.0 818:1.0 43:1.0 153:1.0 1683:1.0 50:1.0 1426:1.0 906:1.0 1711:1.0 4:1.0 
90.0 1712:1.0 871:1.0 390:1.0 50:1.0 184:1.0 1460:1.0 
6.625027017286919 45:2.0 80:1.0 184:2.0 1713:1.0 40:2.0 940:3.0 238:1.0 29:1.0 1279:1.0 1180:1.0 298:1.0 1238:1.0 75:1.0 681:1.0 81:2.0 1714:1.0 1179:1.0 261:1.0 1715:1.0 4:4.0 1716:1.0 0:1.0 9:1.0 245:1.0 55:1.0 1717:1.0 141:2.0 66:2.0 1718:1.0 387:1.0 1719:1.0 43:1.0 1257:2.0 288:1.0 369:1.0 1488:1.0 143:1.0 16:1.0 227:1.0 423:1.0 1373:1.0 1720:1.0 225:1.0 1449:1.0 597:1.0 394:1.0 191:1.0 1721:1.0 1722:1.0 1723:1.0 148:1.0 1374:1.0 405:1.0 33:1.0 50:1.0 1724:1.0 1725:1.0 1726:1.0 
42.140617568855944 776:1.0 466:1.0 29:1.0 1727:1.0 1728:1.0 219:1.0 157:1.0 1729:1.0 1730:1.0 1731:1.0 1732:1.0 384:1.0 41:1.0 189:1.0 371:1.0 576:1.0 40:1.0 1701:1.0 81:1.0 67:1.0 45:1.0 1733:1.0 
90.0 1446:1.0 82:1.0 3:1.0 384:1.0 
60.91122036499732 1734:1.0 81:1.0 674:1.0 475:2.0 476:2.0 1735:1.0 1736:1.0 
42.430071898789684 80:1.0 1737:1.0 1045:1.0 6:1.0 661:1.0 662:1.0 107:1.0 663:1.0 966:1.0 124:1.0 1540:1.0 611:1.0 32:1.0 576:1.0 1738:1.0 
27.691345864013712 1728:1.0 1739:1.0 1740:1.0 1512:1.0 17:1.0 1741:1.0 251:1.0 661:2.0 662:2.0 107:2.0 663:2.0 1742:1.0 297:1.0 191:1.0 461:1.0 146:1.0 332:1.0 682:1.0 4:1.0 425:1.0 6:1.0 
17.79786259538277 29:1.0 320:1.0 74:1.0 664:1.0 11:1.0 955:1.0 67:1.0 71:2.0 1751:1.0 191:1.0 710:1.0 141:1.0 143:1.0 184:1.0 1752:1.0 40:2.0 1753:1.0 261:1.0 1754:1.0 81:1.0 219:1.0 1755:1.0 43:2.0 50:2.0 690:1.0 1756:1.0 384:1.0 1718:1.0 1257:1.0 1757:1.0 900:1.0 532:1.0 1758:1.0 83:1.0 16:1.0 106:1.0 1759:1.0 
90.0 1760:1.0 1761:1.0 53:1.0 325:1.0 
90.0 1762:2.0 1763:1.0 1764:1.0 1765:1.0 6:1.0 
61.529414291134934 1446:1.0 81:1.0 237:1.0 436:1.0 40:1.0 17:1.0 1766:1.0 369:1.0 3:1.0 384:1.0 18:1.0 
84.39069896689948 1767:1.0 1368:1.0 1580:1.0 1768:1.0 1769:1.0 1770:1.0 1771:1.0 1772:1.0 6:1.0 
84.41555575774188 1773:1.0 1774:1.0 1775:1.0 1776:1.0 4:1.0 1777:1.0 1778:1.0 1779:1.0 98:1.0 
24.171721436819077 1206:1.0 81:1.0 1780:1.0 1142:2.0 1447:1.0 4:2.0 29:1.0 1781:1.0 1782:1.0 544:1.0 369:1.0 423:1.0 66:1.0 660:1.0 43:1.0 1783:1.0 1784:1.0 1785:1.0 1531:1.0 436:1.0 1066:1.0 6:1.0 
59.36280996961212 80:1.0 141:1.0 1449:1.0 4:2.0 6:1.0 
90.0 1786:1.0 45:1.0 1529:1.0 519:1.0 9:1.0 1760:1.0 544:1.0 6:1.0 
17.121911343347858 1787:1.0 1046:1.0 955:1.0 19:4.0 661:3.0 662:3.0 107:3.0 663:3.0 355:1.0 4:3.0 508:1.0 664:1.0 1788:3.0 253:1.0 1789:1.0 799:1.0 1790:1.0 189:1.0 50:1.0 1791:1.0 
11.833747144692268 237:1.0 971:1.0 155:1.0 1503:1.0 423:1.0 1792:1.0 60:1.0 793:1.0 0:2.0 865:1.0 1793:1.0 1794:1.0 20:1.0 32:2.0 1795:1.0 40:4.0 1796:1.0 1253:1.0 83:1.0 1797:2.0 481:1.0 873:1.0 1798:1.0 58:2.0 1799:1.0 4:3.0 682:1.0 49:2.0 1718:1.0 955:1.0 1800:1.0 1801:2.0 1802:1.0 165:2.0 21:1.0 114:1.0 125:1.0 1206:1.0 1803:1.0 826:1.0 190:1.0 219:1.0 1804:1.0 75:1.0 50:1.0 1805:1.0 191:2.0 518:1.0 1806:1.0 1807:1.0 1808:1.0 968:1.0 1809:1.0 1004:1.0 
43.00179173095251 914:1.0 79:1.0 1452:1.0 40:1.0 1851:1.0 83:1.0 1852:1.0 261:1.0 940:1.0 4:2.0 6:1.0 
19.802299650175584 1854:1.0 75:2.0 1855:1.0 83:2.0 1856:1.0 81:2.0 123:1.0 40:1.0 1857:1.0 52:1.0 317:1.0 1858:1.0 11:2.0 237:3.0 1859:1.0 4:3.0 1860:1.0 1861:1.0 1862:2.0 1217:1.0 1488:1.0 1205:1.0 145:1.0 1:1.0 225:1.0 394:1.0 1700:1.0 916:1.0 519:1.0 106:1.0 50:1.0 1863:1.0 
38.857828467436285 1869:1.0 284:1.0 1870:1.0 1266:1.0 50:2.0 1349:1.0 1871:1.0 1861:1.0 1862:1.0 40:1.0 106:1.0 203:2.0 1872:1.0 1873:1.0 81:2.0 136:1.0 1867:1.0 1868:2.0 335:1.0 0:1.0 71:1.0 1800:1.0 315:1.0 6:1.0 
77.5362815934791 212:1.0 148:1.0 1874:1.0 512:1.0 817:1.0 617:1.0 122:1.0 227:1.0 315:1.0 4:1.0 
29.690212402842242 76:1.0 50:3.0 1865:1.0 530:1.0 49:1.0 75:1.0 783:1.0 1876:1.0 378:1.0 1877:1.0 40:1.0 125:1.0 298:1.0 106:1.0 
39.35063896383749 1882:1.0 11:1.0 32:1.0 1648:1.0 365:1.0 40:1.0 71:1.0 923:1.0 219:1.0 953:1.0 518:2.0 265:1.0 45:1.0 1883:1.0 0:1.0 1884:1.0 141:1.0 284:1.0 4:1.0 
33.91895185806237 52:1.0 152:1.0 1146:1.0 112:1.0 203:2.0 43:1.0 50:1.0 1885:1.0 207:1.0 1865:1.0 335:1.0 0:1.0 71:1.0 1862:1.0 
43.25978432468103 1856:1.0 1349:1.0 736:1.0 32:1.0 1350:1.0 191:1.0 55:1.0 1593:1.0 1754:1.0 43:1.0 18:3.0 
12.142340179057108 1887:2.0 1638:2.0 1460:1.0 40:3.0 518:1.0 1476:1.0 191:1.0 978:3.0 1888:1.0 1889:1.0 1890:1.0 212:1.0 1891:1.0 1892:1.0 4:1.0 1893:1.0 1894:1.0 1895:1.0 384:1.0 
33.20932802510054 658:1.0 227:1.0 1616:1.0 5:1.0 1896:1.0 169:1.0 1897:1.0 898:1.0 293:1.0 1227:1.0 53:1.0 761:1.0 475:2.0 476:2.0 1898:1.0 44:1.0 1899:1.0 1900:1.0 43:1.0 
13.694453484750118 1901:1.0 53:2.0 81:3.0 1898:2.0 227:4.0 1902:1.0 1903:1.0 141:1.0 79:1.0 1904:1.0 1905:1.0 1638:1.0 29:4.0 1906:1.0 1166:1.0 83:4.0 1332:1.0 1907:1.0 317:1.0 1485:1.0 1167:1.0 4:1.0 1908:1.0 1473:1.0 1909:1.0 1910:1.0 148:1.0 293:1.0 27:1.0 1692:2.0 1614:1.0 40:3.0 184:3.0 1616:1.0 1911:1.0 145:1.0 190:1.0 862:1.0 768:1.0 405:2.0 1912:1.0 1913:1.0 369:1.0 691:1.0 1914:1.0 580:1.0 1227:1.0 379:1.0 1915:1.0 1916:1.0 66:1.0 978:1.0 997:1.0 1917:1.0 778:1.0 1918:1.0 531:1.0 1887:1.0 1919:1.0 518:1.0 372:1.0 1461:1.0 43:1.0 551:1.0 253:1.0 575:1.0 560:2.0 1920:1.0 561:1.0 
90.0 1887:1.0 1638:1.0 1460:1.0 6:1.0 
84.39165441609097 1921:1.0 1485:2.0 40:1.0 219:1.0 1328:1.0 4:1.0 
90.0 761:1.0 1922:1.0 4:1.0 
30.77736910113718 474:2.0 14:2.0 317:1.0 1328:1.0 1485:1.0 261:1.0 79:1.0 1923:1.0 1924:1.0 52:1.0 1144:1.0 710:1.0 1925:1.0 157:1.0 1004:1.0 1921:1.0 391:1.0 673:1.0 1926:1.0 
33.702473448434205 1460:2.0 81:1.0 381:1.0 6:1.0 
72.92782528334935 148:1.0 67:1.0 238:1.0 778:1.0 686:1.0 317:1.0 83:1.0 1332:1.0 978:1.0 1888:1.0 11:1.0 518:1.0 50:1.0 1927:1.0 1928:1.0 6:1.0 
14.101836587176129 383:1.0 11:1.0 1936:1.0 1937:1.0 1938:1.0 413:2.0 423:2.0 63:1.0 40:2.0 1939:1.0 191:2.0 219:3.0 1930:3.0 33:1.0 9:2.0 1206:2.0 1940:1.0 71:1.0 1842:1.0 1941:1.0 1942:1.0 350:1.0 141:1.0 4:2.0 67:1.0 955:1.0 66:1.0 1567:1.0 277:1.0 61:1.0 79:1.0 968:2.0 81:1.0 1943:2.0 1944:1.0 76:1.0 405:1.0 148:1.0 
52.837607754941054 474:1.0 900:1.0 11:1.0 1088:1.0 0:1.0 9:1.0 1925:1.0 1597:1.0 335:1.0 237:1.0 1048:1.0 1979:1.0 81:1.0 1980:1.0 114:1.0 772:1.0 219:1.0 1560:1.0 4:2.0 639:1.0 462:1.0 1981:1.0 
90.0 1982:1.0 40:1.0 128:1.0 245:1.0 279:1.0 1331:1.0 155:1.0 1238:1.0 317:1.0 940:1.0 383:1.0 18:1.0 
40.2132494343428 1983:1.0 1984:1.0 1679:1.0 205:1.0 190:1.0 1985:1.0 40:1.0 752:1.0 951:2.0 1680:1.0 83:1.0 355:1.0 952:1.0 1986:1.0 6:2.0 225:1.0 1396:1.0 1412:1.0 276:1.0 317:1.0 940:1.0 
69.52283429877146 1799:1.0 212:1.0 148:1.0 900:1.0 577:1.0 1987:1.0 1988:1.0 81:1.0 317:1.0 940:1.0 18:1.0 
56.25238709393598 327:1.0 6:1.0 390:1.0 391:1.0 1989:1.0 143:1.0 127:1.0 53:1.0 1182:1.0 366:1.0 1990:1.0 4:1.0 1432:1.0 668:1.0 219:1.0 1433:1.0 
66.63847467845129 262:1.0 141:1.0 317:1.0 940:1.0 1517:1.0 4:1.0 
87.03248236981267 34:1.0 245:1.0 279:1.0 1331:1.0 157:1.0 1004:1.0 383:1.0 18:1.0 
24.418179901250124 1238:1.0 2015:1.0 190:1.0 2016:2.0 1846:1.0 664:1.0 1004:1.0 40:1.0 152:1.0 122:1.0 181:1.0 1350:1.0 898:1.0 379:1.0 2017:1.0 83:1.0 2018:1.0 18:4.0 2019:1.0 837:1.0 2020:1.0 1009:1.0 
90.0 529:1.0 141:1.0 381:1.0 793:1.0 4:1.0 
13.615563740029497 410:2.0 1413:1.0 2021:1.0 0:1.0 71:1.0 219:2.0 165:1.0 991:1.0 992:1.0 40:5.0 12:1.0 2022:2.0 37:2.0 2023:1.0 51:1.0 2024:1.0 50:1.0 1680:1.0 2025:1.0 184:1.0 963:1.0 4:2.0 335:1.0 553:1.0 2026:1.0 358:1.0 355:1.0 1560:1.0 32:1.0 66:1.0 2027:1.0 29:1.0 551:1.0 2028:1.0 2029:1.0 900:1.0 538:1.0 2030:1.0 181:1.0 112:1.0 802:1.0 8:1.0 
23.996032021226796 1325:1.0 279:1.0 826:1.0 1004:2.0 1168:1.0 74:1.0 4:3.0 2035:1.0 41:1.0 123:1.0 276:1.0 288:1.0 114:1.0 355:1.0 905:1.0 11:1.0 32:1.0 0:1.0 33:1.0 381:1.0 2036:1.0 2037:1.0 43:1.0 225:1.0 1396:1.0 1412:1.0 317:1.0 940:1.0 1178:1.0 793:1.0 29:1.0 284:1.0 185:1.0 387:1.0 1331:1.0 1215:1.0 83:1.0 1680:1.0 
63.93039202464207 1099:1.0 1065:1.0 651:1.0 86:1.0 2038:1.0 1574:1.0 95:1.0 563:1.0 322:1.0 6:1.0 52:1.0 152:1.0 931:1.0 205:1.0 
20.46180537614076 2039:1.0 2040:1.0 2041:1.0 474:1.0 145:1.0 45:1.0 4:3.0 106:1.0 50:1.0 79:1.0 2042:1.0 2043:1.0 652:1.0 12:1.0 184:1.0 1949:1.0 1950:1.0 2044:1.0 2045:1.0 52:1.0 2046:1.0 76:1.0 405:1.0 293:1.0 2047:1.0 350:1.0 81:1.0 143:1.0 
16.431571724203682 2048:1.0 2049:1.0 41:1.0 44:2.0 2050:1.0 2051:1.0 6:8.0 1412:1.0 
16.431551577653984 88:1.0 89:9.0 600:1.0 2052:1.0 2053:1.0 4:3.0 1635:1.0 2054:2.0 1065:2.0 178:1.0 563:2.0 1436:1.0 98:2.0 25:1.0 261:1.0 1571:1.0 2055:1.0 93:2.0 1157:1.0 96:1.0 175:1.0 1394:1.0 1020:1.0 2056:1.0 
85.42576260221739 631:1.0 45:1.0 83:1.0 1248:1.0 4:1.0 2039:1.0 2040:1.0 
23.641236504809328 2057:1.0 2040:1.0 2058:1.0 40:4.0 474:1.0 45:1.0 1727:1.0 690:1.0 2059:1.0 43:1.0 312:1.0 519:1.0 350:1.0 466:1.0 967:1.0 11:1.0 2060:1.0 2061:1.0 409:1.0 906:1.0 968:1.0 66:2.0 2062:1.0 17:1.0 
74.06141541203002 1460:1.0 141:1.0 79:1.0 1459:1.0 83:1.0 2064:1.0 4:1.0 
27.20426841887838 1471:1.0 227:1.0 1524:1.0 155:1.0 381:1.0 2092:1.0 2093:1.0 81:2.0 184:1.0 219:1.0 1479:1.0 83:1.0 2094:1.0 2095:1.0 1450:1.0 148:1.0 940:1.0 2096:1.0 2097:1.0 519:1.0 79:1.0 1517:1.0 793:1.0 4:1.0 
15.48735230014071 1692:3.0 344:1.0 219:1.0 1479:1.0 76:1.0 61:1.0 2049:3.0 41:2.0 900:1.0 40:2.0 0:1.0 9:2.0 11:1.0 250:1.0 2098:1.0 2099:1.0 2100:1.0 83:1.0 2101:1.0 191:1.0 2102:1.0 369:1.0 2103:1.0 6:1.0 
9.660856604739815 1297:2.0 86:3.0 87:2.0 258:1.0 2119:1.0 2120:1.0 1065:6.0 2121:1.0 89:6.0 93:3.0 2122:1.0 88:2.0 658:1.0 2123:1.0 328:1.0 344:1.0 1639:1.0 295:1.0 95:4.0 178:2.0 1572:1.0 98:1.0 409:1.0 1125:1.0 4:3.0 2124:1.0 563:2.0 2125:1.0 2126:1.0 626:1.0 2127:1.0 2128:1.0 2129:1.0 2130:1.0 676:1.0 2131:1.0 1126:1.0 759:1.0 2132:2.0 1438:1.0 96:1.0 2133:1.0 1486:1.0 1299:1.0 387:1.0 1292:1.0 2134:1.0 
32.22521901868304 184:2.0 2137:1.0 239:1.0 50:1.0 658:1.0 2138:1.0 2139:1.0 40:1.0 148:1.0 379:1.0 313:1.0 898:1.0 2140:1.0 2141:1.0 127:1.0 141:1.0 219:1.0 0:1.0 2142:1.0 155:1.0 1225:1.0 2143:1.0 2144:1.0 2145:1.0 4:1.0 
42.39583077763481 706:1.0 219:1.0 43:1.0 313:1.0 1930:1.0 2152:1.0 261:1.0 2153:1.0 144:1.0 40:1.0 1210:1.0 2154:1.0 384:1.0 298:1.0 2155:1.0 586:1.0 391:1.0 33:1.0 1363:1.0 29:1.0 825:1.0 2156:1.0 11:1.0 986:1.0 2157:1.0 4:1.0 
53.902321552616414 2180:1.0 2181:1.0 2182:1.0 205:1.0 6:1.0 955:1.0 2183:1.0 2184:1.0 381:1.0 64:1.0 43:1.0 191:1.0 2185:1.0 2186:1.0 4:1.0 
8.950775333105385 37:2.0 122:2.0 293:2.0 2201:1.0 661:5.0 662:5.0 107:5.0 663:5.0 112:1.0 218:1.0 145:1.0 346:1.0 889:1.0 2202:1.0 2203:1.0 2204:1.0 2205:1.0 2206:1.0 2207:1.0 13:2.0 2208:1.0 2209:1.0 582:1.0 29:2.0 715:1.0 1460:1.0 2210:1.0 199:1.0 2211:1.0 2212:1.0 2213:1.0 2214:1.0 2215:1.0 4:1.0 
67.06319885225041 721:1.0 43:1.0 41:1.0 141:1.0 122:1.0 1391:1.0 11:1.0 423:1.0 66:1.0 506:1.0 825:1.0 
20.66226372279828 52:2.0 922:2.0 141:1.0 611:1.0 395:1.0 106:1.0 50:1.0 889:1.0 245:1.0 530:1.0 
73.14706823136977 410:1.0 16:1.0 2220:1.0 2221:1.0 2075:1.0 40:1.0 219:1.0 29:1.0 889:1.0 2222:1.0 6:1.0 
51.243725114595264 234:1.0 2223:1.0 227:1.0 2067:1.0 4:1.0 661:1.0 662:1.0 107:1.0 663:1.0 800:1.0 2224:1.0 255:1.0 2225:1.0 41:1.0 2226:1.0 523:1.0 29:1.0 2227:1.0 
39.36651583708754 71:1.0 313:1.0 141:3.0 824:1.0 1544:1.0 112:1.0 2228:1.0 185:1.0 2165:1.0 249:1.0 1396:1.0 2229:1.0 900:1.0 1495:1.0 25:1.0 2230:1.0 8:1.0 2231:1.0 218:1.0 66:1.0 310:1.0 1389:1.0 384:1.0 
68.6256963442945 517:1.0 940:1.0 2236:1.0 190:1.0 462:1.0 4:1.0 
54.371901105137276 10:1.0 1030:1.0 41:1.0 198:1.0 367:1.0 2194:1.0 58:1.0 556:1.0 907:1.0 221:1.0 50:1.0 599:1.0 71:1.0 337:1.0 892:1.0 181:1.0 4:1.0 
71.64673912809623 1228:1.0 0:1.0 2237:1.0 604:1.0 263:1.0 769:1.0 238:1.0 155:1.0 658:1.0 893:1.0 
18.475193324189437 237:1.0 1011:1.0 32:2.0 9:1.0 145:1.0 190:1.0 1489:1.0 2243:1.0 2244:1.0 442:1.0 58:1.0 2245:1.0 219:3.0 289:1.0 83:1.0 2246:1.0 2247:1.0 2248:1.0 4:2.0 1167:1.0 668:1.0 825:1.0 448:1.0 405:1.0 29:1.0 2249:1.0 218:1.0 51:1.0 
25.584786200108514 298:3.0 407:1.0 545:1.0 2259:1.0 32:1.0 66:1.0 2260:1.0 155:2.0 1739:2.0 50:1.0 2261:1.0 40:2.0 1430:1.0 1754:1.0 9:1.0 125:1.0 245:1.0 478:1.0 207:1.0 2230:1.0 246:1.0 1793:1.0 417:1.0 900:1.0 2262:1.0 769:1.0 2263:1.0 4:1.0 
21.104450353030554 2265:1.0 298:1.0 857:1.0 1988:1.0 11:1.0 2266:1.0 32:1.0 986:2.0 462:1.0 175:1.0 4:3.0 1193:1.0 906:1.0 658:1.0 517:1.0 246:1.0 778:1.0 623:1.0 49:1.0 50:1.0 674:1.0 2267:1.0 83:1.0 237:1.0 564:1.0 155:1.0 1266:1.0 2268:1.0 81:1.0 1228:1.0 405:1.0 258:1.0 604:1.0 1477:1.0 708:1.0 2075:1.0 365:1.0 2269:1.0 1808:1.0 2270:1.0 141:1.0 768:1.0 
32.77221422133606 298:1.0 2271:1.0 1739:1.0 986:1.0 462:1.0 40:1.0 219:1.0 2272:1.0 512:1.0 397:1.0 2273:1.0 33:1.0 0:1.0 293:1.0 9:1.0 2274:1.0 580:1.0 141:1.0 143:1.0 599:1.0 4:2.0 1114:1.0 14:1.0 246:1.0 
22.125554247786265 2275:1.0 12:1.0 298:1.0 155:1.0 1739:1.0 986:2.0 462:1.0 40:1.0 2272:1.0 2276:1.0 2273:1.0 250:1.0 2274:1.0 2259:1.0 66:1.0 4:1.0 148:1.0 604:3.0 824:1.0 2075:1.0 553:1.0 2277:1.0 11:1.0 2278:1.0 937:1.0 141:1.0 387:1.0 275:1.0 49:1.0 1808:1.0 6:2.0 
90.0 413:1.0 900:1.0 144:1.0 40:1.0 1755:1.0 2293:1.0 778:1.0 2294:1.0 0:1.0 1711:1.0 4:1.0 
39.715206978992164 719:1.0 2295:1.0 13:1.0 152:1.0 276:1.0 2189:1.0 122:1.0 2289:1.0 40:2.0 595:1.0 1301:1.0 43:1.0 76:1.0 66:1.0 33:1.0 9:1.0 2296:1.0 2297:1.0 
26.704186095190536 1674:1.0 751:1.0 0:1.0 276:4.0 185:2.0 575:1.0 75:1.0 2298:1.0 409:1.0 2299:1.0 58:1.0 2289:1.0 639:1.0 4:2.0 
55.998648072445164 355:1.0 1301:2.0 2301:1.0 40:1.0 2302:1.0 103:1.0 
84.64033853486063 1495:1.0 444:1.0 13:1.0 58:1.0 2289:1.0 40:1.0 76:1.0 986:1.0 69:1.0 
32.77389315397105 1449:1.0 2278:3.0 2303:2.0 4:2.0 2304:1.0 280:1.0 2305:1.0 12:1.0 2306:1.0 
25.212566899526834 148:1.0 1331:1.0 2307:1.0 40:2.0 668:1.0 219:1.0 2282:1.0 25:1.0 155:3.0 184:1.0 2308:1.0 384:2.0 4:1.0 733:1.0 205:1.0 46:1.0 809:1.0 175:1.0 147:1.0 642:1.0 2309:1.0 18:1.0 
69.77244363013271 1495:1.0 444:1.0 13:1.0 122:1.0 2326:1.0 2327:1.0 50:1.0 986:1.0 112:1.0 
39.32766923731639 2328:1.0 33:1.0 1504:1.0 1785:1.0 369:1.0 191:1.0 13:1.0 122:1.0 2289:1.0 49:1.0 4:1.0 1660:1.0 284:1.0 2230:1.0 2329:1.0 570:1.0 40:1.0 0:1.0 697:1.0 2330:1.0 245:1.0 1009:1.0 
9.884646069399881 237:1.0 1442:1.0 1293:5.0 2331:2.0 86:13.0 563:5.0 1072:1.0 89:15.0 93:5.0 1020:1.0 1065:6.0 98:7.0 1310:5.0 2332:2.0 95:9.0 600:2.0 173:2.0 165:4.0 2194:4.0 1512:1.0 1513:1.0 1297:2.0 87:2.0 4:3.0 1364:1.0 91:1.0 0:4.0 1574:1.0 1299:1.0 40:2.0 419:2.0 2120:2.0 651:1.0 1639:2.0 2333:1.0 736:1.0 141:1.0 2122:1.0 88:2.0 261:1.0 178:4.0 1441:3.0 1312:1.0 1295:1.0 148:1.0 2334:1.0 2335:1.0 1436:1.0 2336:1.0 1033:1.0 2124:1.0 220:2.0 648:1.0 1583:1.0 174:1.0 1126:1.0 1290:1.0 1070:1.0 754:1.0 1438:1.0 96:1.0 1769:1.0 594:2.0 759:1.0 1066:1.0 
90.0 1412:1.0 141:1.0 2165:1.0 1359:1.0 205:1.0 
79.49178185514259 2260:1.0 45:1.0 2349:1.0 381:1.0 951:1.0 2350:1.0 261:1.0 43:1.0 
18.27569218875366 2365:1.0 900:1.0 2366:1.0 129:4.0 153:2.0 526:2.0 2336:1.0 2367:1.0 365:2.0 40:3.0 2368:1.0 599:1.0 2369:1.0 75:1.0 2370:1.0 2254:1.0 76:1.0 66:1.0 2371:1.0 1049:1.0 49:2.0 1:1.0 2372:1.0 237:1.0 122:1.0 619:1.0 257:1.0 335:1.0 0:1.0 5:1.0 524:1.0 559:1.0 2373:1.0 
27.161518370683517 2352:1.0 40:1.0 75:1.0 181:1.0 71:1.0 1048:1.0 1315:5.0 50:1.0 1008:1.0 2377:1.0 4:2.0 249:1.0 405:1.0 2364:1.0 148:1.0 9:1.0 2378:2.0 66:2.0 2379:1.0 58:1.0 83:1.0 2356:1.0 
58.48759720491928 17:1.0 2380:1.0 590:2.0 129:1.0 49:1.0 2141:1.0 41:1.0 2381:1.0 313:1.0 530:1.0 18:1.0 
9.989789156082441 602:2.0 1126:1.0 86:3.0 1780:1.0 98:1.0 2383:1.0 89:5.0 0:2.0 1579:1.0 1065:4.0 2272:1.0 95:1.0 1299:2.0 2055:1.0 6:2.0 1364:1.0 91:1.0 2339:1.0 178:2.0 88:1.0 87:1.0 2384:1.0 93:1.0 2385:1.0 2386:1.0 419:1.0 2387:1.0 533:1.0 
90.0 955:1.0 2388:1.0 1102:1.0 1411:1.0 
25.000124007814566 2038:1.0 17:1.0 906:1.0 2389:3.0 626:2.0 129:2.0 2321:1.0 2390:1.0 2391:1.0 2392:1.0 2393:1.0 2394:1.0 1013:1.0 2395:1.0 40:1.0 419:1.0 1099:1.0 2396:1.0 2397:1.0 902:1.0 2398:1.0 430:1.0 2399:1.0 
90.0 690:1.0 1289:1.0 205:1.0 6:1.0 
45.16902653498163 2402:1.0 50:1.0 184:1.0 289:1.0 265:1.0 40:1.0 75:1.0 2403:1.0 1445:1.0 227:1.0 585:1.0 61:1.0 212:1.0 148:1.0 2404:1.0 186:1.0 14:1.0 4:1.0 
44.535314699180034 237:1.0 76:1.0 523:1.0 66:1.0 2405:1.0 184:1.0 2406:1.0 
19.73454568607971 141:1.0 237:2.0 1633:1.0 185:1.0 780:1.0 81:1.0 2404:1.0 322:1.0 238:1.0 124:1.0 461:1.0 6:1.0 
50.74104525931742 2407:1.0 43:1.0 892:2.0 146:1.0 83:2.0 265:1.0 1179:1.0 6:1.0 
90.0 237:1.0 2408:1.0 301:1.0 185:1.0 141:1.0 10:1.0 
32.54328295054473 237:1.0 76:1.0 523:1.0 66:1.0 2405:1.0 107:1.0 355:1.0 185:1.0 
25.323917811619896 587:2.0 1941:3.0 50:2.0 2411:1.0 2412:1.0 1057:1.0 4:2.0 1610:1.0 567:1.0 58:1.0 2413:1.0 1943:1.0 2414:1.0 2415:1.0 71:1.0 1795:1.0 11:1.0 658:1.0 76:1.0 1048:1.0 
63.27835880824246 780:1.0 786:1.0 11:1.0 587:1.0 1941:1.0 190:1.0 40:1.0 943:1.0 9:1.0 245:1.0 41:1.0 71:1.0 816:1.0 124:1.0 6:1.0 
84.87033419645248 123:1.0 32:1.0 2319:1.0 900:1.0 1033:1.0 229:1.0 141:1.0 52:1.0 317:1.0 2417:1.0 66:1.0 4:1.0 
39.336230982116355 2418:1.0 19:1.0 184:2.0 761:1.0 238:1.0 40:3.0 2419:1.0 2420:1.0 2421:1.0 681:1.0 1485:1.0 
90.0 2422:1.0 1389:1.0 690:1.0 2423:1.0 6:1.0 
33.913834538130445 553:1.0 9:1.0 567:1.0 143:2.0 76:1.0 122:1.0 310:1.0 40:1.0 519:1.0 293:1.0 1248:1.0 706:1.0 49:1.0 1847:1.0 181:1.0 83:1.0 1350:1.0 4:1.0 
48.500288526769616 2424:1.0 1318:1.0 729:1.0 50:1.0 223:1.0 567:1.0 2075:1.0 75:1.0 76:1.0 690:1.0 191:1.0 66:1.0 310:1.0 2425:1.0 276:1.0 2418:1.0 4:1.0 
23.399434973182686 2426:1.0 143:1.0 9:1.0 190:1.0 567:1.0 191:4.0 66:2.0 397:1.0 310:1.0 184:1.0 2422:1.0 2425:1.0 276:1.0 7:2.0 384:1.0 293:1.0 40:2.0 2427:1.0 423:1.0 841:1.0 4:1.0 
41.36395689517591 7:2.0 871:1.0 45:1.0 2428:1.0 75:1.0 76:2.0 2429:1.0 519:1.0 2430:1.0 205:1.0 112:1.0 4:1.0 
90.0 1034:1.0 6:1.0 
84.2221290572719 906:1.0 9:1.0 1202:1.0 129:1.0 2431:1.0 81:1.0 2432:1.0 1711:1.0 
41.82011125040028 476:1.0 710:2.0 122:1.0 369:1.0 0:1.0 153:1.0 2433:1.0 81:1.0 2434:1.0 181:1.0 4:1.0 
17.74959944917022 2435:1.0 122:1.0 2436:1.0 40:6.0 2437:1.0 2438:1.0 50:1.0 190:1.0 2439:1.0 284:1.0 128:2.0 1202:1.0 129:2.0 43:1.0 4:1.0 298:2.0 2440:1.0 2441:1.0 261:1.0 2442:1.0 407:1.0 530:1.0 2443:1.0 103:1.0 2444:1.0 
27.41972700534194 850:1.0 668:2.0 219:4.0 898:1.0 2445:1.0 146:1.0 40:1.0 2446:1.0 405:1.0 9:1.0 184:1.0 2447:1.0 858:1.0 4:1.0 2448:1.0 710:1.0 66:1.0 49:1.0 50:1.0 658:1.0 18:1.0 563:1.0 
18.204903341188402 96:1.0 2449:1.0 50:4.0 2450:2.0 129:4.0 103:1.0 664:1.0 81:2.0 2451:2.0 4:5.0 369:1.0 2452:1.0 12:1.0 2453:1.0 133:1.0 1909:1.0 80:1.0 40:2.0 152:2.0 16:1.0 1727:1.0 494:1.0 33:1.0 986:1.0 906:2.0 2454:1.0 776:1.0 2455:1.0 640:1.0 248:1.0 14:1.0 2456:1.0 335:1.0 2457:1.0 9:2.0 498:1.0 699:1.0 49:1.0 1944:1.0 11:1.0 344:1.0 381:2.0 1632:1.0 1614:1.0 76:2.0 21:1.0 2458:1.0 29:1.0 1610:1.0 83:1.0 2363:1.0 2459:1.0 390:1.0 2460:1.0 1654:1.0 2461:1.0 1843:1.0 148:1.0 2462:1.0 125:1.0 955:1.0 71:1.0 2463:1.0 519:1.0 840:1.0 2464:1.0 966:1.0 1039:1.0 590:1.0 2465:1.0 
18.39075629674148 129:2.0 130:1.0 242:1.0 11:3.0 37:1.0 50:2.0 245:1.0 4:3.0 2466:1.0 2452:1.0 33:1.0 986:1.0 0:3.0 1351:1.0 49:1.0 181:2.0 40:2.0 2467:1.0 2468:1.0 120:1.0 553:1.0 776:1.0 1334:1.0 955:1.0 2469:1.0 29:1.0 136:1.0 1843:1.0 786:1.0 261:1.0 52:1.0 1870:1.0 1266:1.0 
28.244411118814902 553:1.0 1048:1.0 312:1.0 1039:1.0 75:1.0 2470:1.0 50:1.0 1843:1.0 2469:1.0 32:1.0 786:1.0 519:1.0 129:2.0 227:1.0 2471:1.0 4:1.0 2472:1.0 330:1.0 152:1.0 2473:1.0 2474:1.0 1370:1.0 2109:1.0 1318:1.0 29:1.0 402:1.0 40:2.0 1845:1.0 122:1.0 392:1.0 2475:1.0 11:1.0 2476:1.0 2477:1.0 58:1.0 49:1.0 691:1.0 2478:1.0 141:1.0 979:1.0 215:1.0 
33.71050884349617 2451:1.0 122:1.0 145:1.0 1048:1.0 4:2.0 75:1.0 2479:1.0 797:1.0 339:1.0 112:1.0 12:1.0 2480:1.0 617:1.0 462:1.0 114:1.0 2073:1.0 1843:1.0 191:1.0 2459:1.0 611:1.0 249:1.0 
45.216172061205924 567:1.0 49:1.0 710:1.0 246:1.0 2481:1.0 33:1.0 430:1.0 41:1.0 122:1.0 152:1.0 436:1.0 4:1.0 0:1.0 71:1.0 2482:1.0 114:1.0 125:1.0 2462:1.0 
90.0 1225:1.0 1654:1.0 553:1.0 129:1.0 33:1.0 986:1.0 6:1.0 
9.904093515720106 553:1.0 658:1.0 474:1.0 2451:3.0 96:2.0 122:1.0 1256:1.0 567:1.0 60:4.0 461:2.0 2483:1.0 2484:1.0 114:1.0 106:1.0 20:4.0 40:1.0 2485:1.0 218:1.0 405:1.0 198:1.0 475:2.0 476:2.0 1394:1.0 335:1.0 37:1.0 1610:3.0 4:4.0 50:1.0 2450:1.0 103:1.0 664:1.0 81:1.0 906:1.0 787:2.0 155:2.0 129:2.0 2486:1.0 2487:1.0 83:3.0 1843:1.0 2459:1.0 1056:1.0 279:2.0 797:1.0 2488:1.0 1554:1.0 242:1.0 2489:1.0 394:1.0 595:3.0 219:3.0 215:1.0 820:1.0 141:1.0 152:1.0 1719:1.0 518:1.0 66:1.0 778:1.0 2490:2.0 2491:1.0 2492:1.0 607:1.0 2420:1.0 344:1.0 381:2.0 227:1.0 1616:1.0 1035:1.0 190:1.0 
14.802234503865398 1327:2.0 37:1.0 153:1.0 96:1.0 2493:1.0 2452:1.0 461:2.0 2494:1.0 369:1.0 1351:1.0 475:2.0 476:2.0 146:1.0 383:1.0 181:1.0 19:2.0 20:6.0 40:1.0 312:1.0 2495:1.0 45:1.0 2496:1.0 212:1.0 148:1.0 2497:1.0 315:1.0 4:2.0 1225:1.0 43:1.0 2498:1.0 2499:1.0 831:1.0 14:1.0 640:1.0 355:1.0 2500:1.0 966:1.0 152:1.0 1039:1.0 129:1.0 2501:1.0 
11.73010468367832 2502:1.0 776:2.0 1084:1.0 76:1.0 1048:1.0 40:6.0 75:1.0 1843:1.0 1610:1.0 145:2.0 786:3.0 2503:1.0 1225:2.0 2504:1.0 83:2.0 330:1.0 71:1.0 2505:1.0 14:1.0 1961:1.0 242:1.0 4:5.0 237:1.0 2470:1.0 0:3.0 2506:1.0 11:4.0 1381:1.0 2507:1.0 405:2.0 9:3.0 799:2.0 2508:1.0 2509:1.0 2462:1.0 60:1.0 2510:1.0 2511:1.0 2512:1.0 20:1.0 152:2.0 2336:1.0 900:1.0 414:1.0 840:1.0 1958:1.0 181:1.0 41:3.0 58:1.0 136:1.0 1948:1.0 122:1.0 52:1.0 1785:1.0 2513:1.0 129:2.0 926:1.0 114:1.0 959:1.0 157:1.0 322:1.0 12:1.0 1039:2.0 553:1.0 2514:1.0 567:1.0 1710:1.0 218:1.0 
62.872198800007986 237:1.0 2530:1.0 2531:1.0 2350:1.0 129:1.0 43:1.0 741:1.0 2532:1.0 2533:1.0 4:1.0 
51.82942762922013 9:1.0 462:1.0 903:1.0 574:1.0 312:1.0 1039:1.0 322:1.0 40:4.0 129:1.0 76:1.0 2534:1.0 2078:1.0 461:1.0 339:1.0 1349:1.0 2535:1.0 46:1.0 523:1.0 2503:1.0 2399:1.0 4:1.0 
36.76912476998277 797:1.0 1649:1.0 141:1.0 355:1.0 1632:1.0 129:1.0 2534:1.0 2536:1.0 4:1.0 33:1.0 155:1.0 706:1.0 567:1.0 43:1.0 76:1.0 0:1.0 9:1.0 190:1.0 2537:1.0 384:1.0 
43.86172888932234 2092:1.0 2450:1.0 43:1.0 498:1.0 2538:1.0 322:1.0 152:1.0 315:1.0 4:1.0 553:1.0 769:1.0 776:1.0 2064:1.0 2539:1.0 2540:1.0 32:1.0 2541:1.0 462:1.0 
25.910167785229795 553:1.0 50:3.0 237:3.0 11:2.0 155:1.0 706:1.0 567:1.0 43:1.0 32:1.0 710:1.0 1039:2.0 246:1.0 137:1.0 2542:1.0 461:1.0 2483:1.0 40:3.0 1674:1.0 129:1.0 2543:1.0 60:1.0 1252:1.0 219:1.0 1179:1.0 20:1.0 75:1.0 249:1.0 1451:1.0 103:1.0 83:2.0 122:1.0 145:1.0 2084:1.0 2503:1.0 873:1.0 0:1.0 2464:1.0 6:2.0 2544:1.0 495:1.0 251:1.0 658:1.0 1700:1.0 916:1.0 225:1.0 228:1.0 
28.722318198350415 2554:1.0 611:1.0 9:1.0 184:2.0 246:2.0 40:1.0 455:1.0 129:2.0 1266:1.0 1301:1.0 50:2.0 2555:1.0 2556:1.0 2557:1.0 321:1.0 390:1.0 544:1.0 
48.28184898580421 2538:1.0 11:1.0 1039:1.0 902:1.0 384:1.0 129:1.0 76:1.0 797:1.0 2444:1.0 40:1.0 2503:1.0 906:1.0 190:1.0 365:1.0 362:1.0 2558:1.0 
10.656109380711154 2559:1.0 2560:3.0 76:2.0 405:1.0 50:1.0 2561:1.0 2562:1.0 81:1.0 2563:1.0 2564:1.0 40:2.0 2565:1.0 257:1.0 148:1.0 2566:1.0 2567:1.0 2275:1.0 83:1.0 2568:1.0 120:1.0 41:1.0 1488:1.0 237:1.0 0:1.0 579:1.0 519:1.0 249:2.0 1165:1.0 2569:1.0 2570:1.0 344:1.0 2571:1.0 255:1.0 4:3.0 
90.0 246:1.0 463:1.0 2560:1.0 2572:1.0 205:1.0 
47.51164527044579 2573:1.0 2574:1.0 40:1.0 927:1.0 2575:1.0 1024:1.0 2576:1.0 858:1.0 383:1.0 41:1.0 76:1.0 2577:1.0 384:2.0 6:1.0 
89.55752044344398 475:2.0 476:2.0 547:1.0 430:1.0 106:1.0 112:1.0 40:1.0 2578:2.0 463:1.0 971:1.0 
90.0 246:1.0 463:1.0 2560:1.0 288:1.0 74:1.0 2579:1.0 
55.32859828314449 450:1.0 935:1.0 6:2.0 7:1.0 463:1.0 9:1.0 2308:1.0 2580:1.0 2581:1.0 40:1.0 2572:1.0 2582:1.0 
25.136919542317916 892:1.0 1176:1.0 907:3.0 519:1.0 122:1.0 333:1.0 114:1.0 294:1.0 4:1.0 817:1.0 818:1.0 444:1.0 113:1.0 900:1.0 2585:1.0 603:1.0 83:1.0 474:1.0 19:1.0 475:2.0 476:2.0 611:1.0 1518:1.0 940:1.0 48:1.0 227:1.0 2587:1.0 61:1.0 1084:1.0 6:1.0 
31.33259941856154 817:1.0 41:1.0 1447:1.0 205:1.0 40:1.0 633:1.0 15:1.0 2585:1.0 603:1.0 2588:1.0 11:1.0 379:1.0 2589:1.0 2590:1.0 475:2.0 476:2.0 2272:1.0 43:1.0 2591:1.0 384:1.0 6:1.0 
20.452926127203856 1719:2.0 674:1.0 81:2.0 518:1.0 218:2.0 45:1.0 2592:1.0 4:2.0 1087:1.0 237:1.0 369:1.0 971:1.0 2593:1.0 83:1.0 2594:1.0 50:1.0 344:1.0 664:1.0 412:1.0 335:1.0 
54.520497840719635 145:1.0 2595:1.0 83:1.0 1448:1.0 674:1.0 219:1.0 81:1.0 2596:1.0 2597:1.0 4:1.0 
90.0 112:1.0 658:1.0 32:1.0 2470:1.0 14:1.0 2598:1.0 106:1.0 
61.635850338694844 686:1.0 227:1.0 122:1.0 165:1.0 274:1.0 2251:1.0 2601:1.0 560:1.0 2602:1.0 2255:1.0 124:1.0 2202:1.0 384:1.0 
25.88459566187863 284:1.0 2603:1.0 237:1.0 1117:1.0 2604:1.0 786:1.0 40:2.0 2605:1.0 8:1.0 907:2.0 76:1.0 298:1.0 275:1.0 1244:1.0 2606:1.0 234:1.0 570:1.0 924:1.0 462:2.0 817:1.0 818:1.0 672:1.0 43:1.0 1909:1.0 1165:1.0 1518:1.0 4:1.0 
22.677364421745924 1503:1.0 106:1.0 462:1.0 792:1.0 242:1.0 2607:1.0 4:3.0 45:1.0 914:1.0 2608:1.0 238:1.0 40:2.0 79:2.0 1134:1.0 1559:1.0 81:1.0 518:2.0 2609:1.0 227:1.0 66:1.0 1246:1.0 145:1.0 986:1.0 
20.952321101756397 384:5.0 475:4.0 476:4.0 2610:1.0 2611:1.0 1217:1.0 2612:1.0 2613:1.0 2516:1.0 148:1.0 128:2.0 585:2.0 2614:1.0 1718:1.0 50:1.0 683:1.0 1880:1.0 2615:1.0 41:1.0 2616:1.0 83:1.0 2617:1.0 2618:1.0 141:1.0 25:2.0 29:1.0 2619:1.0 736:1.0 737:1.0 4:1.0 75:1.0 298:1.0 106:1.0 40:2.0 2620:1.0 2621:1.0 157:1.0 246:1.0 953:1.0 2598:1.0 2622:1.0 189:1.0 0:1.0 1396:1.0 1503:1.0 66:1.0 518:2.0 6:1.0 227:1.0 2585:1.0 603:1.0 122:1.0 58:1.0 2623:1.0 45:1.0 80:1.0 682:1.0 486:1.0 2624:1.0 686:1.0 
16.17538698133418 2625:2.0 274:1.0 2251:1.0 2430:1.0 2047:1.0 25:1.0 379:1.0 2626:1.0 29:1.0 317:1.0 83:2.0 52:1.0 2627:1.0 5:1.0 2628:1.0 760:1.0 2629:2.0 157:1.0 2630:1.0 191:1.0 369:2.0 141:2.0 237:2.0 1076:1.0 1947:1.0 2631:1.0 664:1.0 114:2.0 412:2.0 43:1.0 4:2.0 661:1.0 662:1.0 107:1.0 663:1.0 33:1.0 19:1.0 675:1.0 2593:1.0 257:1.0 148:1.0 2632:1.0 2633:1.0 2634:1.0 371:1.0 2635:1.0 11:1.0 1394:1.0 128:1.0 2636:1.0 2637:1.0 155:1.0 1737:1.0 2594:1.0 826:1.0 2638:1.0 40:1.0 1515:1.0 518:1.0 
22.572985700642075 412:2.0 2639:1.0 157:2.0 1049:1.0 2640:1.0 2598:1.0 40:1.0 145:2.0 344:1.0 4:1.0 213:1.0 9:1.0 43:1.0 410:1.0 1341:1.0 219:1.0 1030:1.0 579:1.0 114:1.0 2641:1.0 
90.0 355:1.0 412:1.0 145:1.0 344:1.0 4:1.0 
64.83629825053038 106:1.0 218:1.0 1142:1.0 304:1.0 674:1.0 1485:1.0 384:1.0 4:2.0 
23.071054381671985 45:1.0 1034:1.0 2642:1.0 384:3.0 2643:1.0 245:1.0 143:1.0 76:1.0 9:1.0 686:1.0 261:1.0 2644:1.0 518:1.0 32:1.0 2254:1.0 253:1.0 275:1.0 25:1.0 
24.501757332858958 817:1.0 818:1.0 43:1.0 237:1.0 33:1.0 1498:1.0 462:1.0 16:1.0 444:1.0 412:1.0 2598:1.0 4:1.0 381:1.0 219:1.0 9:1.0 2645:1.0 2646:1.0 518:1.0 32:1.0 238:1.0 2254:1.0 
17.841919684085767 34:2.0 674:2.0 81:2.0 2596:1.0 45:1.0 2647:1.0 83:1.0 1450:1.0 40:1.0 817:1.0 444:1.0 153:1.0 344:1.0 462:1.0 124:1.0 253:1.0 734:1.0 1488:1.0 29:1.0 412:1.0 2598:1.0 6:1.0 
90.0 45:1.0 914:1.0 384:1.0 
90.0 1432:1.0 2648:1.0 141:1.0 381:1.0 219:1.0 871:1.0 
31.827799872131347 474:1.0 165:1.0 2658:1.0 11:1.0 2659:1.0 2660:1.0 83:3.0 2661:1.0 227:1.0 2662:1.0 978:1.0 2655:1.0 238:1.0 2663:1.0 2664:1.0 191:1.0 2665:1.0 2666:1.0 64:1.0 2652:1.0 2650:1.0 6:1.0 
44.53334011377578 817:1.0 184:2.0 2667:1.0 41:1.0 261:1.0 2668:1.0 2669:1.0 4:2.0 935:1.0 1009:1.0 124:1.0 219:1.0 
90.0 2404:1.0 871:1.0 1452:1.0 45:1.0 4:1.0 
36.29579041383188 9:1.0 184:1.0 2670:1.0 287:1.0 50:1.0 40:2.0 2650:1.0 0:1.0 1507:1.0 2655:1.0 212:1.0 148:1.0 2014:1.0 163:1.0 48:1.0 279:1.0 164:1.0 2671:1.0 785:1.0 4:1.0 
28.802751183051743 9:1.0 2544:1.0 114:1.0 2672:1.0 215:1.0 19:1.0 742:1.0 642:1.0 41:1.0 1968:1.0 238:1.0 83:1.0 79:1.0 1452:1.0 80:1.0 4:2.0 155:1.0 2673:1.0 49:1.0 218:1.0 405:1.0 50:1.0 604:1.0 263:1.0 2674:1.0 573:1.0 
34.32304167987608 287:1.0 69:1.0 40:2.0 1507:1.0 124:1.0 53:1.0 386:1.0 369:1.0 355:1.0 219:1.0 4:1.0 191:1.0 1350:1.0 18:3.0 
20.890587259630774 2682:1.0 40:3.0 519:1.0 2683:1.0 1495:1.0 954:2.0 953:3.0 2684:1.0 365:1.0 2685:1.0 2686:2.0 542:1.0 927:1.0 488:2.0 263:2.0 165:1.0 75:1.0 906:1.0 2687:1.0 2688:1.0 710:1.0 590:1.0 2689:1.0 83:1.0 442:1.0 900:1.0 577:1.0 12:1.0 267:1.0 4:1.0 
68.6890911219518 488:1.0 263:1.0 2690:1.0 2552:1.0 1531:1.0 40:1.0 243:1.0 227:1.0 50:1.0 184:1.0 219:1.0 289:1.0 1947:1.0 6:1.0 
90.0 519:1.0 2691:1.0 81:1.0 237:1.0 1818:1.0 145:1.0 2181:1.0 2329:1.0 
17.911347944626552 212:1.0 143:1.0 122:1.0 203:2.0 9:1.0 284:2.0 2315:1.0 2696:1.0 46:1.0 2697:1.0 2698:4.0 2699:2.0 2038:2.0 2700:1.0 60:2.0 2701:2.0 261:1.0 379:1.0 2702:2.0 2703:1.0 29:1.0 2704:1.0 20:2.0 40:1.0 1399:1.0 157:1.0 410:1.0 50:1.0 1213:1.0 141:1.0 2705:1.0 199:1.0 1678:1.0 207:1.0 2706:1.0 
28.78137736827626 257:1.0 148:1.0 2707:1.0 444:1.0 40:1.0 55:1.0 957:1.0 293:1.0 143:1.0 227:1.0 1035:1.0 2506:1.0 1349:1.0 2708:1.0 12:1.0 0:1.0 697:1.0 580:1.0 2709:1.0 2710:1.0 43:1.0 4:1.0 2711:1.0 218:1.0 442:1.0 2712:1.0 2713:1.0 807:1.0 18:1.0 
90.0 16:1.0 965:1.0 43:1.0 218:1.0 579:1.0 2013:1.0 940:1.0 221:1.0 442:1.0 2712:1.0 4:1.0 
47.66337740448482 410:1.0 320:1.0 228:1.0 900:1.0 1477:1.0 2714:1.0 286:1.0 12:1.0 776:1.0 1085:1.0 855:1.0 2715:1.0 83:1.0 940:1.0 227:1.0 371:1.0 1455:1.0 550:1.0 462:1.0 2716:1.0 
22.527003151521967 165:1.0 261:1.0 532:1.0 817:1.0 2721:1.0 2722:1.0 81:1.0 143:2.0 11:1.0 55:1.0 2723:1.0 19:1.0 111:1.0 1816:1.0 1426:1.0 318:1.0 1019:1.0 1027:1.0 83:2.0 0:1.0 477:1.0 2724:1.0 2439:1.0 50:1.0 658:1.0 141:1.0 187:1.0 297:1.0 148:1.0 1785:1.0 2725:1.0 128:1.0 2636:1.0 560:2.0 739:1.0 877:1.0 741:1.0 2713:1.0 2726:1.0 6:1.0 
90.0 1757:1.0 532:1.0 743:1.0 122:1.0 2727:1.0 523:1.0 1477:1.0 315:1.0 
72.46617411455902 410:1.0 320:1.0 49:1.0 1780:1.0 1785:1.0 1019:1.0 12:1.0 710:1.0 144:1.0 2728:1.0 4:1.0 
28.675976094692036 0:2.0 122:2.0 293:1.0 1145:1.0 1630:1.0 661:3.0 662:3.0 107:3.0 663:3.0 112:1.0 2729:1.0 71:1.0 2730:1.0 2336:1.0 114:1.0 2731:1.0 754:1.0 2732:1.0 124:1.0 1462:1.0 1432:1.0 577:1.0 1117:1.0 225:1.0 1880:1.0 1644:1.0 538:1.0 
36.27901759084551 817:1.0 2733:1.0 41:1.0 599:1.0 2301:1.0 2560:1.0 4:2.0 284:1.0 7:1.0 122:1.0 523:1.0 1477:1.0 2714:1.0 1757:1.0 532:1.0 40:1.0 614:1.0 369:1.0 442:1.0 2712:1.0 
56.996731241521246 405:1.0 355:1.0 1301:1.0 474:1.0 322:1.0 19:1.0 2734:1.0 106:1.0 611:1.0 50:1.0 2247:1.0 6:1.0 83:1.0 1471:1.0 2735:1.0 515:1.0 
53.89869434140532 2736:1.0 89:2.0 561:1.0 387:1.0 257:1.0 148:1.0 1569:1.0 1065:1.0 87:1.0 106:1.0 1126:1.0 86:1.0 
22.695087057751497 320:1.0 2737:1.0 288:1.0 611:1.0 2738:1.0 2228:1.0 1328:1.0 40:2.0 75:2.0 148:1.0 2739:1.0 2740:1.0 2720:1.0 4:3.0 2741:1.0 1477:1.0 146:1.0 1674:2.0 190:1.0 1383:1.0 1349:1.0 643:1.0 0:2.0 33:1.0 378:1.0 461:1.0 219:1.0 238:1.0 184:1.0 760:1.0 198:1.0 15:1.0 2742:1.0 43:1.0 181:1.0 1177:1.0 
28.141555430461285 48:1.0 122:1.0 2746:1.0 344:1.0 203:1.0 898:1.0 71:1.0 2747:1.0 2748:1.0 576:2.0 40:1.0 141:2.0 1488:1.0 143:1.0 83:1.0 219:1.0 215:1.0 4:1.0 
68.68447553902666 554:1.0 106:1.0 50:1.0 619:1.0 1258:1.0 2749:1.0 191:1.0 199:1.0 58:1.0 2750:1.0 322:1.0 41:1.0 
60.07645679809801 49:1.0 50:1.0 2013:1.0 584:1.0 71:1.0 2751:1.0 2748:1.0 576:1.0 2752:1.0 619:1.0 199:1.0 147:1.0 2753:1.0 534:1.0 4:1.0 
25.058668886335298 48:1.0 9:2.0 2747:1.0 2748:1.0 576:1.0 11:2.0 553:1.0 152:1.0 122:2.0 29:1.0 619:1.0 199:1.0 43:1.0 40:1.0 760:1.0 257:1.0 2457:1.0 76:1.0 710:1.0 2754:1.0 191:1.0 322:1.0 4:1.0 
23.2979061660825 619:1.0 199:1.0 81:1.0 1718:2.0 2716:1.0 2763:1.0 799:1.0 2315:1.0 4:2.0 75:1.0 553:1.0 52:1.0 152:1.0 2764:1.0 11:1.0 1257:1.0 2765:1.0 40:1.0 237:1.0 293:1.0 184:1.0 2608:1.0 2766:1.0 83:1.0 55:1.0 2767:1.0 601:1.0 462:1.0 334:1.0 
21.99436692019524 475:2.0 476:2.0 217:1.0 2206:1.0 25:1.0 776:1.0 1185:1.0 275:3.0 2768:1.0 83:1.0 71:1.0 191:1.0 288:1.0 900:1.0 414:1.0 2769:1.0 560:1.0 9:1.0 34:1.0 2770:1.0 255:1.0 17:1.0 409:1.0 40:2.0 124:1.0 157:1.0 163:1.0 76:2.0 1593:1.0 2771:1.0 43:1.0 553:1.0 203:1.0 2772:1.0 305:1.0 2773:1.0 41:1.0 379:1.0 2774:1.0 205:1.0 2775:1.0 272:1.0 2012:1.0 8:1.0 519:1.0 2013:1.0 855:1.0 2776:1.0 2777:1.0 50:1.0 691:1.0 1491:1.0 580:1.0 4:1.0 
90.0 145:1.0 2778:1.0 6:1.0 
76.76141936740852 2779:1.0 381:1.0 725:1.0 40:1.0 143:1.0 1048:1.0 2780:1.0 2781:1.0 462:1.0 4:1.0 
60.93823463601699 2782:1.0 2783:1.0 2784:1.0 2785:1.0 93:1.0 355:1.0 2786:1.0 4:1.0 2787:1.0 2788:1.0 2789:1.0 2790:1.0 1066:1.0 
49.03812900468879 729:1.0 4:2.0 2791:1.0 1079:1.0 271:1.0 83:1.0 2092:1.0 2497:1.0 2075:1.0 664:1.0 1004:1.0 50:1.0 106:1.0 
56.9083441305066 12:1.0 122:1.0 392:1.0 175:1.0 249:1.0 9:1.0 2092:1.0 664:1.0 384:1.0 6:1.0 
14.351581024229025 633:1.0 1584:1.0 1065:2.0 178:3.0 1099:1.0 1310:1.0 89:6.0 2797:1.0 563:1.0 594:1.0 95:2.0 1303:2.0 86:3.0 88:1.0 96:2.0 1157:1.0 2798:1.0 322:1.0 1371:1.0 4:2.0 658:1.0 2799:1.0 170:1.0 1293:2.0 40:1.0 940:1.0 1020:1.0 561:1.0 759:1.0 1306:1.0 2800:1.0 416:1.0 1486:1.0 93:1.0 2801:1.0 2802:1.0 2803:1.0 2804:1.0 2805:1.0 2806:1.0 87:1.0 6:3.0 2807:1.0 
50.64590105870441 123:2.0 2319:1.0 2808:1.0 4:2.0 660:1.0 49:1.0 1909:1.0 2809:1.0 79:1.0 80:1.0 81:1.0 1943:1.0 40:1.0 55:1.0 1840:1.0 1550:1.0 727:1.0 2810:1.0 227:1.0 66:1.0 2811:1.0 
90.0 249:1.0 122:1.0 58:1.0 808:1.0 67:1.0 112:1.0 
18.735335172267895 2813:1.0 2814:1.0 19:1.0 2302:1.0 236:1.0 50:2.0 2815:1.0 462:1.0 1009:1.0 83:2.0 45:1.0 46:1.0 2816:1.0 4:1.0 658:1.0 55:1.0 293:1.0 2817:1.0 18:1.0 12:1.0 325:1.0 1042:1.0 522:1.0 181:1.0 40:3.0 405:1.0 583:1.0 977:1.0 2818:1.0 2819:1.0 81:2.0 668:1.0 273:1.0 191:1.0 984:1.0 2820:1.0 41:1.0 1449:1.0 141:1.0 2024:1.0 2821:1.0 2822:1.0 2823:1.0 2175:1.0 143:1.0 739:1.0 1223:1.0 741:1.0 
90.0 32:1.0 1185:1.0 322:1.0 2828:1.0 41:1.0 
90.0 1784:1.0 2832:1.0 41:1.0 2833:1.0 122:1.0 5:1.0 
90.0 205:1.0 227:1.0 4:2.0 
29.491534822614987 237:1.0 2840:1.0 710:1.0 2254:1.0 0:1.0 153:2.0 40:1.0 602:1.0 205:1.0 413:1.0 227:1.0 112:1.0 4:1.0 114:1.0 155:1.0 2841:1.0 122:1.0 611:1.0 6:1.0 
49.507611608861794 88:1.0 95:2.0 1125:1.0 610:1.0 487:1.0 122:1.0 2120:1.0 1293:1.0 1069:1.0 561:1.0 462:1.0 2842:2.0 
90.0 1349:1.0 2407:1.0 251:1.0 286:1.0 658:1.0 41:1.0 441:1.0 927:1.0 335:1.0 
90.0 407:1.0 9:1.0 2843:1.0 2844:1.0 62:1.0 332:1.0 112:1.0 2845:1.0 2846:1.0 
90.0 553:1.0 1048:1.0 355:1.0 66:1.0 253:1.0 11:1.0 1034:1.0 6:1.0 
53.79392892312569 145:1.0 2847:1.0 40:1.0 183:1.0 298:1.0 407:1.0 9:1.0 184:1.0 2848:1.0 2849:1.0 4:1.0 
28.798762563151957 184:2.0 1209:1.0 344:1.0 83:1.0 145:1.0 2850:1.0 4:3.0 553:1.0 9:1.0 567:1.0 143:1.0 76:1.0 32:1.0 2851:1.0 2852:1.0 1220:1.0 2464:1.0 526:1.0 
90.0 1732:1.0 83:1.0 287:1.0 
51.59229319985873 9:1.0 245:1.0 50:1.0 2860:1.0 69:1.0 18:3.0 
18.571764430048113 430:1.0 83:1.0 182:1.0 560:1.0 17:1.0 2860:1.0 778:1.0 310:1.0 2861:1.0 40:1.0 2862:1.0 2863:1.0 384:1.0 
15.463249475235022 309:1.0 43:1.0 311:1.0 2850:1.0 40:3.0 9:1.0 245:1.0 181:1.0 41:1.0 2860:2.0 4:1.0 71:1.0 820:1.0 14:1.0 50:1.0 1151:1.0 2864:1.0 2865:1.0 2866:1.0 2867:1.0 2868:1.0 2862:1.0 2863:1.0 384:1.0 
90.0 26:1.0 279:1.0 16:1.0 475:2.0 476:2.0 1460:1.0 2869:1.0 2870:1.0 4:1.0 
80.66279401372249 943:1.0 579:1.0 249:1.0 2871:1.0 2872:1.0 298:1.0 131:1.0 8:1.0 4:1.0 
23.454771048196907 309:2.0 310:1.0 43:1.0 145:1.0 2850:1.0 83:1.0 182:1.0 120:1.0 335:1.0 4:4.0 9:1.0 245:1.0 1282:1.0 2860:1.0 181:1.0 17:1.0 41:1.0 1:1.0 778:1.0 2873:1.0 179:1.0 40:1.0 2874:1.0 2875:1.0 2876:2.0 
90.0 2877:1.0 2878:1.0 205:2.0 4:1.0 430:1.0 
90.0 33:1.0 237:1.0 11:1.0 441:1.0 51:1.0 2879:1.0 384:1.0 
90.0 430:1.0 
72.79321625417217 769:1.0 66:1.0 15:1.0 16:1.0 261:1.0 8:1.0 40:1.0 288:1.0 227:1.0 153:1.0 182:1.0 112:1.0 
55.185060081527304 1042:1.0 9:1.0 245:1.0 191:1.0 474:1.0 50:1.0 2860:1.0 4:2.0 405:1.0 153:1.0 182:1.0 769:1.0 310:1.0 322:1.0 
11.514376777230718 237:1.0 153:1.0 1503:2.0 43:1.0 145:1.0 2891:1.0 41:4.0 4:2.0 106:1.0 50:2.0 2446:1.0 2892:1.0 334:1.0 152:1.0 55:1.0 310:2.0 66:1.0 60:1.0 430:1.0 215:1.0 20:1.0 2893:1.0 246:1.0 2894:1.0 0:2.0 955:1.0 1263:1.0 317:2.0 8:1.0 124:1.0 147:1.0 298:1.0 2895:1.0 2567:1.0 556:1.0 71:1.0 2896:1.0 76:1.0 9:1.0 
37.98467307622658 2897:1.0 2898:1.0 2899:1.0 41:1.0 227:1.0 2900:1.0 2748:1.0 2901:1.0 191:1.0 2902:1.0 556:1.0 83:1.0 52:1.0 487:1.0 81:1.0 246:1.0 2894:1.0 112:1.0 17:1.0 18:1.0 2903:1.0 643:1.0 6:1.0 
27.217910602535603 2904:1.0 181:1.0 1126:1.0 86:2.0 2339:1.0 1065:1.0 178:1.0 1310:1.0 89:3.0 2905:1.0 95:1.0 600:1.0 2906:1.0 561:1.0 4:2.0 75:1.0 98:1.0 93:1.0 344:1.0 1307:1.0 91:1.0 322:1.0 
26.219822904448733 475:2.0 476:2.0 2913:2.0 2914:1.0 298:1.0 2915:1.0 481:1.0 310:2.0 531:1.0 40:3.0 2916:1.0 2917:1.0 2868:1.0 83:1.0 2861:1.0 4:1.0 488:1.0 871:1.0 205:1.0 602:1.0 2918:1.0 379:1.0 249:2.0 48:1.0 630:1.0 29:1.0 2919:1.0 81:1.0 384:2.0 2920:2.0 
11.548308254763116 1574:2.0 86:5.0 1299:3.0 40:3.0 1372:1.0 563:2.0 237:3.0 2120:1.0 1293:2.0 1304:1.0 1065:3.0 1366:1.0 2921:1.0 1066:3.0 2922:1.0 600:1.0 2923:1.0 1126:1.0 1642:1.0 89:4.0 2339:1.0 96:1.0 2055:1.0 6:2.0 434:2.0 88:1.0 98:1.0 2924:1.0 759:1.0 
40.546427761458816 344:1.0 205:1.0 4:1.0 312:1.0 26:1.0 1005:1.0 926:1.0 249:1.0 582:1.0 2925:1.0 112:1.0 2926:1.0 335:1.0 
22.097212439906475 145:2.0 344:1.0 40:1.0 221:1.0 2927:1.0 335:1.0 0:1.0 2928:1.0 261:1.0 409:1.0 4:1.0 
24.187807422893503 602:1.0 249:1.0 0:1.0 2929:1.0 40:1.0 557:1.0 50:1.0 488:1.0 577:1.0 1256:1.0 567:1.0 122:1.0 2221:1.0 2930:1.0 2406:1.0 4:2.0 2470:1.0 2931:1.0 603:1.0 778:1.0 2932:1.0 212:1.0 148:1.0 1330:1.0 83:1.0 2933:1.0 2934:1.0 155:1.0 2935:1.0 279:1.0 2936:1.0 2937:1.0 1413:1.0 2843:1.0 315:1.0 
90.0 184:1.0 1005:1.0 2938:1.0 22:1.0 219:1.0 627:1.0 
90.0 298:1.0 409:1.0 11:1.0 32:1.0 926:1.0 58:1.0 2925:1.0 
13.243970558457367 237:2.0 2939:1.0 311:1.0 505:1.0 190:2.0 309:2.0 4:3.0 2940:1.0 83:2.0 2941:1.0 1020:1.0 155:1.0 1019:1.0 40:4.0 429:1.0 357:1.0 2942:1.0 2943:1.0 2944:1.0 2945:1.0 255:1.0 75:1.0 0:1.0 310:1.0 519:1.0 249:1.0 261:1.0 2946:1.0 2825:1.0 2947:1.0 2948:1.0 
90.0 1042:1.0 579:1.0 245:1.0 
90.0 943:1.0 579:1.0 245:1.0 384:1.0 
56.192253750123406 817:1.0 1480:1.0 41:1.0 37:1.0 579:1.0 332:1.0 40:1.0 658:1.0 2957:1.0 617:1.0 2958:1.0 6:1.0 
88.1181665272365 1989:1.0 518:1.0 423:1.0 53:1.0 191:1.0 1593:1.0 2971:1.0 310:1.0 429:1.0 
90.0 344:1.0 
16.36891290823853 476:1.0 553:1.0 52:1.0 152:2.0 113:1.0 2664:1.0 2978:1.0 840:1.0 916:1.0 155:1.0 1856:1.0 1134:2.0 11:1.0 227:1.0 1210:1.0 53:1.0 207:1.0 2953:2.0 245:1.0 49:1.0 2336:1.0 2979:1.0 335:1.0 943:1.0 423:1.0 2350:2.0 1969:1.0 83:1.0 2980:1.0 2981:1.0 4:2.0 1863:1.0 81:2.0 2982:1.0 114:1.0 825:1.0 1442:1.0 381:1.0 43:1.0 50:1.0 1658:1.0 1055:1.0 
31.456111390244402 615:1.0 430:1.0 1126:1.0 86:3.0 310:1.0 1307:1.0 91:1.0 419:1.0 1586:1.0 89:2.0 537:1.0 2209:1.0 1587:1.0 600:1.0 4:1.0 2846:1.0 
90.0 2990:1.0 181:1.0 944:1.0 2991:1.0 427:1.0 
55.40919637481739 0:1.0 955:1.0 567:1.0 2992:1.0 661:1.0 662:1.0 107:1.0 663:1.0 4:2.0 122:1.0 2993:1.0 279:1.0 1156:1.0 944:1.0 58:1.0 597:1.0 
50.36104064519652 1156:1.0 205:1.0 11:2.0 5:1.0 2994:1.0 253:1.0 2995:1.0 66:1.0 4:1.0 
22.24080643565312 1870:1.0 310:1.0 2996:1.0 181:1.0 2997:1.0 582:1.0 2998:1.0 1233:1.0 2999:1.0 607:1.0 20:6.0 
11.548631679569862 906:1.0 3000:1.0 1495:1.0 25:1.0 4:3.0 3001:1.0 268:1.0 52:1.0 317:1.0 3002:2.0 145:1.0 3003:1.0 2440:1.0 3004:1.0 405:1.0 9:1.0 253:1.0 3005:1.0 40:13.0 184:1.0 275:2.0 50:2.0 3006:1.0 3007:1.0 3008:1.0 3009:1.0 3010:1.0 3011:1.0 3012:1.0 3013:1.0 3014:1.0 3015:1.0 33:1.0 286:1.0 3016:1.0 3017:1.0 3018:1.0 3019:1.0 
80.69883303654991 52:1.0 317:1.0 1495:1.0 25:1.0 405:1.0 9:1.0 277:1.0 141:1.0 275:1.0 848:1.0 1322:1.0 
88.66944851809748 2249:1.0 3040:1.0 43:1.0 55:1.0 2207:1.0 1225:1.0 3041:1.0 1842:1.0 3042:1.0 
21.447962057329057 1441:1.0 86:3.0 98:1.0 1296:1.0 91:1.0 759:1.0 1293:1.0 178:1.0 1586:1.0 89:1.0 96:1.0 651:1.0 106:1.0 4:1.0 
28.194020856079714 148:1.0 1225:2.0 3045:1.0 371:1.0 40:2.0 11:1.0 825:3.0 3028:2.0 155:2.0 794:1.0 2098:1.0 3046:1.0 32:2.0 2207:1.0 3041:1.0 365:1.0 83:1.0 1837:1.0 3047:1.0 1631:1.0 3048:1.0 3049:1.0 1797:1.0 3050:1.0 1004:2.0 4:2.0 3051:1.0 3052:1.0 55:1.0 379:1.0 1488:1.0 3002:1.0 
10.348319902651738 32:3.0 46:1.0 1331:1.0 1332:1.0 4:4.0 75:3.0 3053:1.0 2763:1.0 11:2.0 3013:2.0 1750:1.0 2075:1.0 519:1.0 3054:1.0 462:1.0 145:3.0 190:1.0 40:2.0 1919:1.0 2428:1.0 205:1.0 1825:1.0 58:1.0 1797:1.0 275:2.0 414:1.0 3055:1.0 3056:1.0 379:2.0 3057:1.0 1589:1.0 2893:1.0 52:1.0 794:1.0 3058:1.0 1042:1.0 955:1.0 293:1.0 8:1.0 3059:1.0 3060:1.0 1495:1.0 3061:1.0 2522:1.0 106:1.0 123:1.0 2319:1.0 3062:1.0 322:1.0 
90.0 1432:1.0 141:1.0 1004:1.0 66:1.0 1433:1.0 4:1.0 
35.062992928591015 52:1.0 922:1.0 3070:1.0 322:1.0 335:1.0 394:1.0 1332:1.0 191:1.0 611:1.0 2007:1.0 523:1.0 445:1.0 1389:1.0 155:1.0 19:1.0 60:1.0 
27.254988986775963 2440:1.0 37:1.0 148:1.0 8:1.0 3072:1.0 2517:1.0 4:1.0 52:1.0 317:1.0 29:1.0 860:1.0 43:1.0 553:1.0 3073:1.0 2330:1.0 11:2.0 2580:1.0 74:1.0 40:1.0 1332:1.0 1331:1.0 298:1.0 106:1.0 32:1.0 2207:1.0 1225:1.0 3041:1.0 365:1.0 786:1.0 45:1.0 3074:1.0 384:1.0 
14.419375272821211 52:1.0 3075:1.0 29:1.0 506:1.0 9:3.0 3076:1.0 3077:1.0 155:1.0 25:1.0 40:1.0 12:1.0 237:1.0 971:1.0 106:1.0 405:2.0 50:3.0 3078:1.0 191:1.0 3079:1.0 3041:1.0 4:3.0 1701:1.0 1332:1.0 0:1.0 809:1.0 3080:1.0 3081:1.0 519:1.0 3082:1.0 3083:1.0 
90.0 288:1.0 381:1.0 1228:1.0 53:1.0 786:1.0 3087:1.0 452:1.0 769:1.0 387:1.0 49:1.0 3088:1.0 
65.32193801174851 3089:1.0 89:1.0 563:1.0 1676:1.0 95:1.0 96:1.0 759:1.0 1065:1.0 1066:1.0 170:1.0 1293:1.0 4:1.0 
28.394302982030855 595:1.0 2215:1.0 387:1.0 3090:1.0 423:1.0 3091:1.0 355:3.0 185:1.0 607:1.0 575:1.0 572:1.0 81:1.0 3092:1.0 407:1.0 40:1.0 71:1.0 906:1.0 69:1.0 19:1.0 2644:1.0 
79.57970546105494 83:1.0 2859:1.0 50:1.0 518:1.0 423:1.0 841:1.0 390:1.0 3093:1.0 739:1.0 1223:1.0 741:1.0 
18.641020449455446 914:1.0 45:1.0 37:1.0 474:1.0 187:1.0 3094:1.0 41:2.0 1449:1.0 138:1.0 129:2.0 2982:1.0 81:2.0 143:2.0 1491:1.0 3095:1.0 50:2.0 2517:1.0 1289:1.0 3096:1.0 219:1.0 49:1.0 369:1.0 3097:1.0 3090:1.0 255:1.0 
23.903775097816343 76:1.0 61:1.0 3098:2.0 41:1.0 900:1.0 4:3.0 381:2.0 1024:1.0 906:2.0 9:1.0 423:1.0 3099:1.0 991:1.0 992:1.0 1430:1.0 219:1.0 1566:1.0 741:1.0 518:1.0 238:1.0 205:1.0 1576:1.0 69:1.0 
40.02515539304334 390:1.0 112:1.0 49:2.0 152:1.0 40:1.0 906:1.0 71:1.0 355:1.0 575:2.0 581:1.0 41:1.0 55:1.0 50:1.0 3100:1.0 4:1.0 
47.99399962423129 49:1.0 218:1.0 50:1.0 3097:1.0 3101:1.0 4:2.0 219:1.0 9:1.0 3102:1.0 40:1.0 1714:1.0 83:1.0 3103:1.0 
29.969594812157155 165:1.0 3124:1.0 11:1.0 106:1.0 50:1.0 203:2.0 1217:1.0 1827:2.0 1828:2.0 1800:2.0 4:1.0 733:1.0 279:1.0 2772:1.0 255:1.0 739:1.0 1223:1.0 741:1.0 
90.0 3024:1.0 123:1.0 1953:1.0 3138:1.0 83:1.0 2411:1.0 1052:1.0 4:1.0 
68.52168437847081 298:1.0 123:1.0 3144:1.0 668:1.0 571:1.0 40:1.0 2061:1.0 384:1.0 898:1.0 1217:1.0 3145:1.0 962:1.0 
30.280785421211736 3146:1.0 245:2.0 328:2.0 293:2.0 405:1.0 50:2.0 184:2.0 3147:1.0 2898:1.0 4:2.0 381:1.0 37:1.0 3148:1.0 
90.0 128:1.0 49:1.0 1282:1.0 2624:1.0 475:1.0 476:2.0 3150:1.0 4:1.0 
90.0 346:1.0 75:1.0 145:1.0 3151:1.0 
29.92746836451772 407:1.0 76:1.0 9:2.0 382:2.0 2849:1.0 50:1.0 707:1.0 426:1.0 40:1.0 75:1.0 1503:1.0 802:1.0 11:1.0 215:1.0 1710:1.0 4:1.0 1167:1.0 808:1.0 0:1.0 775:1.0 553:1.0 1718:1.0 3167:1.0 234:1.0 986:1.0 3168:1.0 81:1.0 249:1.0 6:1.0 
19.24608105782699 3169:1.0 261:1.0 707:1.0 426:1.0 298:1.0 409:1.0 40:1.0 518:1.0 9:1.0 379:1.0 3170:1.0 0:1.0 69:1.0 18:7.0 
90.0 181:1.0 495:1.0 245:1.0 175:1.0 
51.40882220840587 45:1.0 914:1.0 2596:1.0 3171:1.0 
33.95715679958769 493:1.0 289:2.0 955:1.0 71:1.0 146:1.0 40:1.0 1589:1.0 3172:1.0 481:1.0 3173:1.0 322:1.0 6:1.0 
17.388727231308454 475:2.0 476:1.0 325:1.0 2577:1.0 274:1.0 1956:2.0 237:4.0 279:1.0 122:2.0 40:5.0 1632:1.0 1478:1.0 723:1.0 344:1.0 3174:1.0 157:1.0 556:1.0 4:1.0 29:1.0 148:1.0 49:2.0 907:1.0 927:1.0 184:1.0 466:1.0 3175:1.0 3176:1.0 2255:1.0 1633:1.0 242:1.0 11:1.0 2186:1.0 0:1.0 477:1.0 3177:1.0 245:1.0 124:1.0 1698:2.0 493:1.0 633:1.0 153:1.0 50:1.0 145:1.0 955:1.0 71:1.0 3178:1.0 3179:1.0 315:1.0 6:1.0 
41.12173414107786 2445:1.0 219:1.0 2084:1.0 1633:2.0 242:1.0 927:1.0 184:1.0 466:1.0 3180:1.0 191:1.0 114:1.0 3181:1.0 1039:1.0 53:1.0 1318:1.0 594:1.0 4:1.0 
90.0 840:1.0 3182:1.0 9:1.0 215:1.0 40:1.0 927:1.0 62:1.0 251:1.0 3183:1.0 4:1.0 
37.43914134119213 225:1.0 141:1.0 219:1.0 58:1.0 53:1.0 81:2.0 3171:2.0 211:1.0 2841:1.0 842:1.0 3184:1.0 907:1.0 369:1.0 315:1.0 4:1.0 475:2.0 
44.26268915067209 3185:1.0 3186:1.0 599:1.0 150:1.0 1172:2.0 4:2.0 41:1.0 249:1.0 405:1.0 1537:1.0 3187:1.0 29:1.0 49:1.0 
13.44476638683197 825:3.0 3192:2.0 3193:1.0 81:1.0 3194:2.0 50:4.0 3195:1.0 40:3.0 1589:1.0 381:3.0 219:1.0 3196:2.0 481:1.0 9:1.0 0:2.0 3197:1.0 155:1.0 32:1.0 652:1.0 1020:1.0 1065:1.0 563:1.0 3198:1.0 207:2.0 13:1.0 47:2.0 3199:1.0 423:1.0 855:1.0 1858:1.0 3200:1.0 803:1.0 848:1.0 2148:1.0 3201:1.0 39:1.0 900:1.0 2941:1.0 384:1.0 4:1.0 493:1.0 2514:1.0 76:1.0 394:1.0 3202:1.0 41:1.0 518:1.0 3203:1.0 
62.841518565654546 53:1.0 1639:1.0 43:1.0 41:1.0 460:1.0 3214:1.0 3215:1.0 298:1.0 291:1.0 50:1.0 293:1.0 4:1.0 
84.2431692733114 76:1.0 50:1.0 1644:1.0 124:1.0 461:1.0 75:1.0 1951:1.0 3216:1.0 3217:1.0 
90.0 3222:1.0 205:1.0 3223:1.0 150:1.0 3224:1.0 4:1.0 
90.0 3226:1.0 4:1.0 
46.25658451534452 3227:1.0 81:1.0 799:1.0 1639:1.0 43:1.0 410:1.0 9:1.0 190:1.0 3228:1.0 3229:1.0 187:1.0 12:1.0 218:1.0 379:1.0 39:1.0 384:1.0 4:1.0 6:1.0 
52.37674923052804 3024:1.0 7:2.0 1163:1.0 4:2.0 966:1.0 3235:1.0 157:1.0 3236:1.0 3194:1.0 
28.1458011606726 2017:1.0 850:1.0 52:1.0 469:1.0 1217:1.0 3240:1.0 3241:1.0 3242:1.0 3243:1.0 2388:1.0 40:1.0 3244:1.0 9:1.0 3245:1.0 14:1.0 2249:1.0 3246:1.0 123:1.0 11:1.0 237:1.0 3024:1.0 825:1.0 466:1.0 3247:1.0 83:1.0 3194:1.0 1163:1.0 3248:1.0 7:1.0 43:1.0 4:1.0 
8.95471707105534 7:2.0 3243:5.0 3249:1.0 369:1.0 52:1.0 2137:1.0 1066:1.0 40:4.0 712:1.0 96:1.0 384:1.0 29:1.0 49:1.0 9:1.0 124:1.0 825:1.0 775:4.0 81:5.0 83:2.0 1163:5.0 4:5.0 943:1.0 3250:1.0 3251:1.0 47:3.0 58:2.0 41:1.0 906:1.0 18:1.0 0:4.0 1907:1.0 3252:1.0 255:1.0 33:2.0 11:1.0 279:3.0 3253:1.0 1959:1.0 3254:1.0 3248:1.0 50:3.0 208:1.0 55:1.0 153:1.0 219:2.0 3255:1.0 3256:1.0 120:1.0 1224:1.0 230:1.0 3257:1.0 66:2.0 3258:1.0 2388:2.0 3259:1.0 145:1.0 3260:1.0 3261:1.0 155:1.0 3262:1.0 477:1.0 3263:1.0 3264:1.0 2249:1.0 3265:1.0 
90.0 423:1.0 141:1.0 317:1.0 123:1.0 1485:1.0 3266:1.0 6:1.0 
31.202099451799025 660:1.0 245:1.0 76:1.0 9:2.0 253:1.0 234:1.0 4:3.0 227:1.0 50:1.0 67:1.0 11:1.0 1042:1.0 184:1.0 658:1.0 3267:1.0 405:1.0 3164:1.0 3268:1.0 3269:1.0 14:1.0 181:1.0 322:1.0 
12.029395492467273 165:1.0 237:1.0 19:1.0 152:6.0 1257:1.0 15:1.0 140:1.0 143:1.0 58:1.0 3055:1.0 81:2.0 1163:1.0 50:3.0 184:3.0 1489:1.0 3200:1.0 40:5.0 32:1.0 153:1.0 660:1.0 27:1.0 475:2.0 476:2.0 2585:1.0 3138:1.0 769:1.0 2762:1.0 825:1.0 986:1.0 955:2.0 9:1.0 3270:1.0 3265:1.0 83:1.0 824:1.0 1608:1.0 114:1.0 25:1.0 3271:1.0 2911:1.0 369:1.0 3272:1.0 219:1.0 215:1.0 405:1.0 3273:1.0 3274:1.0 148:1.0 1461:1.0 11:1.0 0:1.0 3275:1.0 276:1.0 530:1.0 71:1.0 423:1.0 448:1.0 29:1.0 3025:1.0 49:1.0 18:1.0 
11.551423451931111 165:1.0 237:1.0 553:1.0 9:2.0 1811:1.0 11:1.0 405:1.0 3276:1.0 81:1.0 381:3.0 2958:1.0 1787:2.0 423:1.0 1294:1.0 1338:1.0 40:4.0 906:3.0 1035:1.0 3277:1.0 1483:1.0 2278:1.0 3278:1.0 51:1.0 3279:1.0 384:1.0 4:2.0 3280:1.0 50:1.0 3281:2.0 282:2.0 1660:1.0 1488:1.0 3000:1.0 3282:1.0 219:1.0 3283:1.0 2098:1.0 141:1.0 1797:1.0 429:1.0 993:1.0 292:1.0 
30.054594666468525 1787:1.0 312:1.0 1380:1.0 993:2.0 3289:1.0 190:2.0 1269:1.0 3290:1.0 1974:1.0 141:1.0 219:1.0 3291:1.0 40:1.0 261:1.0 53:1.0 237:1.0 413:1.0 3292:1.0 699:1.0 3293:1.0 1035:1.0 429:1.0 29:1.0 52:1.0 2422:1.0 310:1.0 4:1.0 
32.58677506463582 0:1.0 3297:1.0 3298:1.0 1065:2.0 91:1.0 419:2.0 95:2.0 93:1.0 3299:1.0 1157:1.0 89:2.0 96:1.0 3300:1.0 86:3.0 98:1.0 174:1.0 3301:1.0 563:1.0 122:1.0 87:1.0 1296:1.0 322:1.0 4:1.0 
28.810174013187158 1225:1.0 429:1.0 320:1.0 1039:2.0 3305:1.0 362:2.0 900:2.0 2221:2.0 848:2.0 76:2.0 3306:1.0 41:1.0 3307:1.0 1299:1.0 3308:1.0 4:1.0 809:1.0 153:1.0 0:1.0 2148:1.0 11:1.0 310:2.0 1404:1.0 322:1.0 40:1.0 599:1.0 190:1.0 462:1.0 181:1.0 
90.0 694:1.0 2232:1.0 32:1.0 797:1.0 462:1.0 
20.48650451069479 3316:1.0 40:5.0 466:1.0 3317:1.0 71:3.0 971:1.0 1503:1.0 3318:1.0 3319:1.0 369:1.0 3166:1.0 3285:1.0 3320:1.0 1413:1.0 52:1.0 484:1.0 1407:1.0 4:2.0 553:1.0 3032:1.0 3321:1.0 389:1.0 825:1.0 3322:2.0 3323:1.0 276:1.0 355:1.0 804:2.0 383:1.0 3324:1.0 980:1.0 786:1.0 981:1.0 83:1.0 710:1.0 1788:1.0 2064:1.0 3325:1.0 141:2.0 1815:1.0 9:1.0 251:1.0 218:1.0 501:1.0 219:1.0 1787:1.0 409:1.0 
41.80772739702456 848:2.0 1225:2.0 390:1.0 494:1.0 11:2.0 809:1.0 3329:1.0 969:1.0 322:1.0 4:2.0 1812:1.0 1939:1.0 41:1.0 189:1.0 261:1.0 1662:1.0 46:1.0 579:1.0 205:1.0 
18.5118975163012 143:2.0 145:1.0 1190:1.0 155:1.0 3337:1.0 1787:2.0 4:3.0 518:1.0 181:1.0 293:1.0 66:1.0 381:1.0 514:1.0 3338:1.0 384:1.0 1540:2.0 76:1.0 227:1.0 1039:1.0 184:2.0 246:1.0 993:1.0 3339:1.0 1994:1.0 191:1.0 3340:1.0 459:1.0 141:1.0 2049:1.0 183:1.0 668:1.0 276:1.0 239:1.0 603:1.0 501:1.0 219:1.0 233:1.0 387:1.0 1468:1.0 3341:1.0 43:1.0 
9.87036671880945 1297:2.0 86:17.0 87:4.0 1998:1.0 1293:6.0 563:6.0 2384:1.0 178:5.0 1842:1.0 1676:1.0 95:15.0 419:3.0 93:4.0 1305:2.0 29:1.0 88:3.0 89:10.0 96:4.0 2921:1.0 1066:2.0 310:2.0 1296:6.0 122:3.0 40:5.0 1310:1.0 2922:1.0 91:3.0 2224:1.0 97:1.0 98:8.0 900:1.0 3342:1.0 409:1.0 1070:1.0 1099:1.0 1065:4.0 600:3.0 2122:2.0 110:1.0 1442:2.0 1636:1.0 886:1.0 787:1.0 1436:1.0 1438:1.0 4:3.0 261:1.0 1311:1.0 1299:1.0 1067:2.0 1307:1.0 759:2.0 651:4.0 561:1.0 1827:1.0 141:2.0 648:1.0 517:1.0 1072:1.0 1568:1.0 1127:1.0 3189:1.0 75:1.0 2331:1.0 2335:1.0 1441:1.0 1339:1.0 295:1.0 
30.804580854957525 165:2.0 237:1.0 312:1.0 191:1.0 82:1.0 3370:1.0 322:1.0 40:1.0 112:1.0 76:1.0 14:1.0 320:1.0 71:1.0 150:1.0 290:1.0 738:1.0 968:1.0 286:1.0 429:1.0 2080:1.0 2148:1.0 462:1.0 3371:1.0 4:1.0 
76.8754448369444 1217:1.0 1826:1.0 683:1.0 190:1.0 205:1.0 1791:1.0 40:1.0 335:1.0 3421:1.0 900:1.0 2221:1.0 189:1.0 3422:1.0 
10.003510227193134 12:1.0 1072:1.0 89:13.0 93:6.0 1372:1.0 95:11.0 561:2.0 88:4.0 96:9.0 1298:2.0 86:12.0 178:2.0 900:2.0 1125:2.0 3190:2.0 1293:3.0 2335:2.0 148:1.0 1570:2.0 3399:1.0 2384:1.0 1065:6.0 563:3.0 1583:2.0 1157:2.0 647:1.0 60:1.0 1300:1.0 2988:1.0 651:1.0 649:1.0 20:1.0 4:5.0 1310:2.0 0:1.0 419:1.0 3423:1.0 2930:1.0 98:3.0 1339:1.0 3424:1.0 759:1.0 1066:2.0 170:1.0 3425:2.0 3426:1.0 1039:1.0 1126:2.0 1299:1.0 1196:1.0 1569:1.0 648:1.0 40:1.0 3427:1.0 600:2.0 3428:1.0 1302:1.0 1675:1.0 174:1.0 384:2.0 2055:1.0 91:1.0 1303:1.0 903:1.0 3429:1.0 1305:1.0 141:1.0 739:1.0 1223:1.0 741:1.0 
16.679981795087848 809:1.0 570:2.0 1341:1.0 310:2.0 429:4.0 1812:3.0 462:1.0 212:1.0 40:9.0 658:2.0 76:4.0 1:2.0 3430:1.0 3407:1.0 494:1.0 148:1.0 1039:1.0 114:1.0 553:1.0 3431:1.0 317:3.0 352:1.0 1136:1.0 33:1.0 3432:1.0 3433:1.0 512:1.0 2484:1.0 581:1.0 122:1.0 4:4.0 29:1.0 184:1.0 1540:1.0 2261:2.0 50:1.0 1359:1.0 531:1.0 3188:1.0 404:1.0 3386:1.0 83:1.0 3371:1.0 493:1.0 1631:1.0 227:1.0 233:1.0 205:1.0 262:1.0 3051:1.0 1826:1.0 3434:1.0 1217:1.0 1225:1.0 1242:1.0 1842:2.0 60:1.0 1843:1.0 2138:1.0 3435:1.0 3436:1.0 52:1.0 2742:1.0 3437:1.0 1941:1.0 898:1.0 20:1.0 12:1.0 14:1.0 603:1.0 219:1.0 3291:1.0 189:1.0 3438:1.0 
72.42874673849113 320:1.0 49:1.0 191:1.0 141:1.0 3466:1.0 423:1.0 1009:1.0 409:1.0 405:1.0 122:1.0 392:1.0 1003:1.0 52:1.0 391:1.0 
90.0 3471:1.0 3472:1.0 3473:1.0 98:1.0 4:1.0 3474:1.0 3475:1.0 3458:1.0 
7.179146260024765 165:1.0 237:4.0 355:1.0 995:1.0 76:1.0 579:1.0 3476:1.0 3477:2.0 3458:1.0 2457:1.0 9:1.0 205:2.0 462:2.0 3478:1.0 298:1.0 3479:2.0 291:1.0 1344:1.0 49:1.0 50:1.0 3480:2.0 3481:1.0 41:1.0 261:2.0 1004:1.0 3482:1.0 3483:1.0 3124:2.0 66:4.0 3484:1.0 40:8.0 381:1.0 317:1.0 206:1.0 968:2.0 83:2.0 279:1.0 277:1.0 2075:1.0 664:1.0 230:1.0 1030:1.0 1068:1.0 1718:1.0 1241:1.0 3485:1.0 550:1.0 145:1.0 190:2.0 4:3.0 2982:1.0 3486:1.0 228:1.0 3487:1.0 81:1.0 1880:1.0 1237:1.0 1130:1.0 82:1.0 3488:1.0 3489:1.0 1444:1.0 3490:1.0 3491:1.0 3492:1.0 3493:1.0 3494:1.0 2403:1.0 3495:1.0 384:2.0 52:1.0 53:1.0 2110:1.0 407:1.0 3496:1.0 
16.617714774574427 88:1.0 89:4.0 98:2.0 1373:1.0 86:1.0 759:2.0 1293:1.0 178:1.0 1310:1.0 2133:2.0 95:3.0 93:3.0 92:1.0 1298:1.0 1065:1.0 1066:1.0 1626:1.0 384:1.0 4:1.0 
54.65855357287476 1950:1.0 3145:1.0 50:2.0 3503:1.0 40:2.0 804:1.0 81:1.0 1943:1.0 1890:1.0 2042:1.0 145:1.0 82:1.0 4:1.0 
44.26424697101383 3507:2.0 1874:1.0 205:1.0 344:1.0 19:1.0 61:1.0 3508:1.0 40:1.0 1503:1.0 3509:1.0 14:1.0 3510:1.0 81:1.0 125:1.0 3511:1.0 4:1.0 
25.76271073940321 52:1.0 3512:1.0 2075:1.0 298:1.0 1857:1.0 3513:1.0 40:1.0 3514:1.0 1828:1.0 3144:1.0 50:1.0 81:1.0 3145:1.0 4:2.0 2347:1.0 0:1.0 955:1.0 71:1.0 122:1.0 710:1.0 3515:1.0 1950:1.0 8:1.0 215:1.0 255:1.0 
20.991592625880422 62:1.0 332:2.0 218:1.0 595:1.0 184:1.0 219:1.0 474:2.0 71:1.0 205:1.0 227:1.0 40:3.0 344:2.0 966:1.0 922:1.0 3516:1.0 3517:1.0 3518:1.0 190:1.0 901:1.0 501:1.0 768:1.0 968:1.0 4:1.0 
72.65756935381202 2039:1.0 7:2.0 83:1.0 966:1.0 3519:1.0 4:1.0 
50.26221673265984 2544:1.0 81:1.0 7:1.0 145:1.0 1864:1.0 40:1.0 390:1.0 272:1.0 191:1.0 3520:1.0 83:1.0 3521:1.0 114:1.0 1979:1.0 384:1.0 
33.58774319833671 1444:1.0 7:1.0 6:3.0 258:1.0 3523:1.0 245:1.0 3524:1.0 3525:1.0 2120:1.0 601:1.0 902:1.0 1953:1.0 
20.604339573690876 818:2.0 672:2.0 344:1.0 40:1.0 237:1.0 288:1.0 153:1.0 334:1.0 2079:2.0 29:1.0 1600:2.0 6:3.0 52:1.0 53:1.0 962:1.0 12:1.0 3526:1.0 43:1.0 75:1.0 
16.63517986889306 1800:1.0 1172:1.0 71:3.0 3178:1.0 29:2.0 1610:1.0 3034:1.0 768:1.0 40:4.0 0:3.0 2001:1.0 52:1.0 3527:1.0 1950:1.0 494:1.0 335:1.0 157:1.0 3528:1.0 2271:1.0 1979:2.0 2088:1.0 3529:1.0 114:2.0 2411:1.0 1941:1.0 83:1.0 9:1.0 280:1.0 3530:1.0 355:1.0 601:1.0 3531:1.0 1806:1.0 4:1.0 
51.9867421941178 205:1.0 2592:1.0 4:1.0 940:2.0 40:1.0 3532:1.0 32:1.0 66:1.0 1717:1.0 
34.471852148876614 184:1.0 1449:1.0 145:2.0 146:1.0 29:1.0 1943:1.0 43:1.0 4:1.0 262:1.0 327:1.0 1257:1.0 141:1.0 1780:1.0 471:1.0 
46.76697342570723 237:1.0 405:1.0 293:1.0 748:1.0 141:1.0 1780:1.0 9:1.0 471:1.0 83:1.0 1950:1.0 3533:1.0 1491:1.0 138:1.0 381:1.0 245:1.0 41:1.0 67:1.0 227:1.0 652:1.0 900:1.0 4:1.0 
90.0 205:1.0 1559:1.0 6:1.0 
84.42304715815928 3534:1.0 219:1.0 212:1.0 940:1.0 40:1.0 184:1.0 681:1.0 1450:1.0 4:1.0 
46.260578748039975 3535:1.0 50:2.0 2592:1.0 40:1.0 423:1.0 65:2.0 3536:1.0 786:1.0 1518:1.0 660:1.0 690:1.0 3537:1.0 
39.57791785080986 184:1.0 185:1.0 3538:1.0 7:2.0 1117:1.0 630:1.0 3539:1.0 11:1.0 2165:1.0 3540:1.0 3541:1.0 3542:1.0 43:1.0 32:1.0 14:1.0 109:1.0 4:1.0 
34.18250972328205 226:1.0 940:2.0 4:2.0 694:1.0 9:1.0 1188:1.0 986:1.0 
90.0 681:1.0 45:1.0 80:1.0 
52.05882581129472 45:1.0 80:1.0 1489:1.0 381:1.0 1449:1.0 2647:1.0 4:1.0 
50.45949367912579 817:1.0 41:1.0 3543:1.0 3544:1.0 4:1.0 237:1.0 76:1.0 405:1.0 258:1.0 143:1.0 32:1.0 238:1.0 66:1.0 184:1.0 1188:1.0 2592:1.0 36:1.0 
31.56774099258735 940:2.0 45:1.0 3545:1.0 40:1.0 825:1.0 423:1.0 145:1.0 2592:1.0 
44.668634172330854 660:1.0 1456:1.0 32:1.0 14:1.0 155:1.0 940:1.0 83:1.0 124:1.0 381:1.0 219:1.0 3024:1.0 255:1.0 4:1.0 45:1.0 425:1.0 6:1.0 
90.0 1444:1.0 940:1.0 
45.0791017597219 1449:1.0 2336:1.0 2592:1.0 1559:1.0 205:1.0 40:1.0 690:1.0 3403:1.0 4:1.0 
78.95163934584514 184:1.0 1206:1.0 77:1.0 2592:1.0 83:1.0 1559:1.0 4:1.0 
28.049317037116516 475:2.0 476:2.0 184:2.0 2605:1.0 40:2.0 237:2.0 227:1.0 153:1.0 3546:1.0 3547:1.0 279:1.0 2319:1.0 3548:1.0 143:1.0 3549:2.0 3550:1.0 661:1.0 662:1.0 107:1.0 663:1.0 317:1.0 3551:1.0 4:2.0 148:1.0 14:1.0 485:1.0 269:1.0 129:1.0 1142:1.0 1447:1.0 250:1.0 6:1.0 
37.29241962505328 584:1.0 0:1.0 1210:1.0 52:1.0 3552:1.0 2075:1.0 191:1.0 3553:2.0 317:2.0 1429:1.0 371:1.0 1455:1.0 11:1.0 378:1.0 141:1.0 824:1.0 384:1.0 
90.0 940:1.0 50:1.0 588:1.0 
90.0 45:1.0 1447:1.0 
40.9452786759173 49:1.0 218:1.0 390:1.0 50:1.0 3554:1.0 3555:1.0 4:2.0 3556:1.0 518:1.0 0:1.0 423:1.0 184:1.0 3557:1.0 2250:1.0 317:1.0 1843:1.0 76:1.0 181:2.0 9:1.0 190:1.0 519:1.0 71:1.0 3558:1.0 3559:1.0 
90.0 1399:1.0 205:1.0 1559:1.0 
90.0 771:1.0 50:1.0 71:1.0 2349:1.0 261:1.0 3578:1.0 4:1.0 
52.19332525248103 1503:1.0 25:1.0 181:1.0 9:1.0 676:1.0 3556:1.0 518:1.0 215:1.0 143:1.0 530:1.0 18:1.0 6:1.0 
42.94151168733511 153:2.0 317:1.0 325:1.0 3580:1.0 392:1.0 83:1.0 978:1.0 3581:1.0 41:1.0 441:1.0 4:1.0 3316:1.0 739:1.0 1223:1.0 741:1.0 407:1.0 12:1.0 2427:1.0 6:1.0 
34.75754377335227 410:1.0 2489:1.0 249:2.0 227:1.0 5:1.0 754:1.0 3582:1.0 219:1.0 3538:1.0 40:1.0 83:1.0 413:1.0 189:1.0 2470:1.0 381:1.0 3583:1.0 49:1.0 155:1.0 67:1.0 4:1.0 
11.027220081698974 9:3.0 3584:1.0 1503:1.0 191:2.0 3585:2.0 83:7.0 310:2.0 430:1.0 41:3.0 0:3.0 71:1.0 1507:2.0 65:3.0 152:2.0 1224:1.0 4:4.0 405:2.0 519:2.0 1718:2.0 697:1.0 3586:1.0 1806:1.0 2303:2.0 322:1.0 2719:1.0 27:2.0 3470:1.0 429:2.0 218:1.0 3519:1.0 3587:1.0 40:5.0 293:2.0 1488:1.0 50:2.0 3588:1.0 3589:1.0 652:1.0 12:1.0 1974:1.0 3590:1.0 1537:1.0 660:1.0 3591:1.0 141:2.0 67:2.0 1257:1.0 1452:1.0 542:1.0 157:1.0 32:1.0 895:1.0 153:1.0 143:1.0 538:1.0 2007:1.0 3592:1.0 3593:1.0 155:1.0 52:1.0 246:2.0 637:2.0 48:1.0 485:2.0 3594:1.0 344:1.0 3595:1.0 76:1.0 2252:1.0 3486:1.0 1360:1.0 1213:1.0 384:1.0 
90.0 3596:1.0 
90.0 562:1.0 
72.77677944569947 37:1.0 2495:1.0 2485:1.0 32:1.0 3079:1.0 1472:1.0 29:1.0 1917:1.0 366:1.0 4:1.0 
90.0 3605:1.0 1912:1.0 2224:1.0 255:1.0 1842:1.0 141:1.0 41:1.0 16:1.0 
17.751835197693744 242:1.0 243:1.0 1370:1.0 317:1.0 17:1.0 369:1.0 3079:3.0 1472:2.0 4:2.0 3606:1.0 191:1.0 214:1.0 1996:1.0 3407:1.0 3607:1.0 50:1.0 71:1.0 668:1.0 508:1.0 29:1.0 49:1.0 9:1.0 825:1.0 
22.122311146631187 268:1.0 236:1.0 3609:1.0 1046:1.0 122:1.0 127:1.0 3610:1.0 279:1.0 71:1.0 697:1.0 699:2.0 1472:2.0 3611:1.0 3612:1.0 107:1.0 3613:1.0 112:1.0 786:2.0 366:1.0 3614:1.0 253:1.0 760:1.0 664:1.0 4:1.0 553:1.0 1842:2.0 11:1.0 695:1.0 53:1.0 365:1.0 50:1.0 378:1.0 106:1.0 
74.05834768369465 17:1.0 0:1.0 50:1.0 2495:1.0 3620:1.0 69:1.0 40:1.0 1225:1.0 3041:1.0 279:1.0 1253:1.0 41:1.0 4:1.0 
90.0 227:1.0 3263:1.0 112:1.0 11:1.0 3621:1.0 245:1.0 76:1.0 1842:1.0 322:1.0 4:1.0 
42.4831629295964 3622:1.0 227:1.0 66:1.0 3265:1.0 6:4.0 
17.556960996062475 145:1.0 390:1.0 83:2.0 1909:2.0 601:1.0 986:1.0 4:2.0 1381:1.0 9:1.0 1540:1.0 784:1.0 2094:1.0 3623:1.0 1912:1.0 903:1.0 600:1.0 253:1.0 11:1.0 691:1.0 13:1.0 3624:1.0 66:1.0 40:1.0 1589:1.0 237:1.0 76:1.0 298:1.0 3368:1.0 41:1.0 900:1.0 12:1.0 1047:1.0 43:1.0 
36.15137498079718 257:1.0 52:1.0 2061:1.0 0:1.0 127:1.0 1455:1.0 81:2.0 1787:1.0 1912:1.0 3627:1.0 157:1.0 3628:1.0 3629:1.0 83:1.0 962:1.0 831:1.0 457:1.0 3630:1.0 3631:1.0 473:1.0 4:1.0 
86.22959419688002 3632:1.0 3633:1.0 9:1.0 215:1.0 155:1.0 3634:1.0 0:1.0 18:1.0 
19.31171650474524 2321:2.0 2545:1.0 1299:1.0 1762:1.0 3525:1.0 2552:1.0 3635:1.0 3636:1.0 4:5.0 1771:1.0 3637:2.0 1625:1.0 1296:1.0 2127:1.0 3638:1.0 1629:1.0 3639:1.0 419:1.0 3640:2.0 2762:2.0 3641:1.0 3642:1.0 1373:1.0 1126:1.0 1294:1.0 3643:1.0 906:1.0 658:1.0 1579:1.0 1619:2.0 864:1.0 208:1.0 3644:1.0 3645:1.0 2547:1.0 3137:2.0 3149:1.0 651:1.0 
20.82326972681296 3632:1.0 3633:1.0 50:2.0 986:1.0 40:2.0 75:1.0 3656:1.0 3657:1.0 3658:1.0 1455:1.0 71:1.0 66:1.0 2023:1.0 184:2.0 3659:1.0 191:1.0 1396:1.0 3660:1.0 148:1.0 2061:1.0 1800:1.0 1172:1.0 825:1.0 43:1.0 955:1.0 9:1.0 3661:1.0 1979:1.0 1864:1.0 4:1.0 
13.045363157572364 12:1.0 3662:1.0 52:1.0 3663:1.0 2061:1.0 3317:1.0 4:4.0 1959:1.0 9:2.0 3664:1.0 3538:1.0 3665:1.0 900:1.0 571:4.0 40:3.0 3666:1.0 219:2.0 1787:3.0 3658:1.0 3633:1.0 81:3.0 143:1.0 58:2.0 2738:1.0 459:1.0 3259:1.0 3518:1.0 257:1.0 49:1.0 553:1.0 824:1.0 937:1.0 11:1.0 32:1.0 1902:1.0 2368:1.0 36:1.0 0:1.0 379:1.0 855:1.0 3623:1.0 189:1.0 1206:1.0 66:1.0 897:1.0 572:1.0 83:1.0 1567:1.0 3660:1.0 1172:1.0 
61.993546214436165 312:1.0 1310:1.0 459:1.0 3667:1.0 355:1.0 305:1.0 432:1.0 2075:1.0 32:1.0 153:1.0 1795:1.0 597:1.0 322:1.0 4:1.0 145:1.0 2859:1.0 
90.0 660:1.0 43:1.0 71:1.0 423:1.0 61:1.0 62:1.0 112:1.0 4:1.0 
90.0 3623:1.0 17:1.0 3668:1.0 2087:1.0 66:1.0 4:1.0 
24.890807739956667 3669:1.0 40:2.0 3670:1.0 955:1.0 1801:1.0 58:1.0 381:1.0 219:1.0 293:1.0 1503:1.0 191:2.0 1842:1.0 1796:1.0 83:1.0 981:1.0 804:1.0 4:2.0 1551:1.0 423:1.0 377:1.0 43:1.0 50:1.0 3671:1.0 1363:1.0 71:1.0 9:1.0 184:1.0 2249:1.0 3672:1.0 157:1.0 3166:1.0 2075:1.0 
10.414327791283224 237:1.0 971:1.0 27:1.0 3444:1.0 3633:2.0 81:2.0 1787:1.0 955:1.0 590:2.0 381:1.0 3676:1.0 229:2.0 501:1.0 4:4.0 75:2.0 906:5.0 9:3.0 1959:2.0 848:2.0 3677:2.0 3623:2.0 141:2.0 52:1.0 3678:1.0 3365:1.0 58:1.0 423:1.0 2513:1.0 40:1.0 3679:1.0 3680:1.0 83:1.0 857:1.0 1718:1.0 41:1.0 1977:1.0 245:1.0 191:1.0 1795:1.0 1796:1.0 793:2.0 310:1.0 66:1.0 576:2.0 1264:1.0 3681:1.0 344:1.0 1974:1.0 29:1.0 148:1.0 3682:1.0 3683:1.0 122:1.0 1039:2.0 3371:2.0 11:1.0 1038:1.0 71:1.0 1976:1.0 384:1.0 18:1.0 
29.607352956163954 3623:2.0 360:1.0 237:1.0 542:1.0 0:1.0 190:1.0 40:1.0 599:1.0 658:1.0 1412:1.0 3684:1.0 4:1.0 2013:1.0 205:1.0 3685:1.0 3686:1.0 301:1.0 131:1.0 3687:1.0 
67.83428016903788 1350:1.0 41:1.0 184:2.0 242:1.0 66:1.0 3688:1.0 593:1.0 157:1.0 3689:1.0 18:1.0 
13.908335629630924 660:1.0 49:1.0 405:1.0 390:1.0 155:1.0 706:1.0 145:1.0 1341:1.0 219:2.0 3690:1.0 29:1.0 232:2.0 43:1.0 4:3.0 3691:1.0 33:1.0 369:1.0 50:2.0 1035:1.0 3692:1.0 81:1.0 143:1.0 191:1.0 3693:1.0 1024:2.0 215:1.0 3694:1.0 40:3.0 41:1.0 9:1.0 297:1.0 900:1.0 3695:1.0 3696:1.0 3697:1.0 75:1.0 148:1.0 3698:1.0 114:1.0 11:1.0 2531:1.0 122:1.0 3699:1.0 615:1.0 0:1.0 465:1.0 3700:1.0 
11.281991539229827 409:1.0 0:1.0 12:1.0 5:2.0 3694:1.0 165:1.0 2070:1.0 706:1.0 346:1.0 40:13.0 873:1.0 379:1.0 2204:1.0 1225:2.0 2019:1.0 1296:1.0 3706:1.0 1492:2.0 1725:1.0 343:1.0 4:2.0 2023:1.0 2640:1.0 3707:1.0 979:3.0 81:2.0 571:1.0 2498:1.0 288:1.0 2409:1.0 1800:1.0 1172:1.0 3295:1.0 3708:1.0 3709:1.0 384:1.0 52:1.0 3710:1.0 3711:1.0 3712:1.0 41:1.0 3713:1.0 1277:1.0 553:1.0 249:1.0 986:1.0 11:1.0 148:1.0 13:1.0 900:1.0 3714:1.0 32:1.0 390:1.0 83:1.0 9:1.0 3715:1.0 6:1.0 
27.692068160026636 2461:1.0 148:1.0 5:1.0 3694:2.0 40:2.0 33:1.0 71:1.0 2639:1.0 157:1.0 2640:1.0 3707:1.0 83:1.0 3716:1.0 2063:1.0 81:1.0 52:1.0 3710:1.0 9:1.0 1248:1.0 0:1.0 18:1.0 
44.77821673002987 378:1.0 3710:1.0 1842:1.0 284:1.0 903:1.0 1877:1.0 242:1.0 243:1.0 3556:1.0 922:1.0 1501:1.0 157:1.0 855:1.0 190:1.0 251:1.0 18:1.0 
18.492207958679707 405:1.0 955:1.0 189:2.0 33:1.0 5:2.0 66:2.0 155:2.0 645:2.0 11:2.0 238:1.0 40:3.0 927:1.0 141:1.0 9:1.0 3723:1.0 344:1.0 0:2.0 4:2.0 1488:1.0 50:1.0 3724:1.0 1004:1.0 3725:1.0 1070:1.0 3726:1.0 81:1.0 1949:1.0 3727:1.0 518:1.0 585:1.0 
12.322728889795496 660:1.0 43:1.0 2809:1.0 1734:1.0 3728:1.0 1381:1.0 81:2.0 645:4.0 40:6.0 1004:2.0 298:2.0 181:1.0 9:1.0 1999:1.0 49:1.0 964:1.0 350:2.0 83:1.0 55:1.0 1610:1.0 3729:1.0 978:1.0 41:1.0 3730:1.0 4:3.0 288:1.0 3445:1.0 369:1.0 50:1.0 3451:1.0 2075:1.0 155:1.0 33:1.0 1252:1.0 52:1.0 317:1.0 531:1.0 48:1.0 1332:1.0 409:1.0 76:1.0 1042:1.0 1264:1.0 245:1.0 2765:1.0 0:1.0 1:1.0 3731:1.0 562:1.0 
61.78140194205792 152:1.0 708:1.0 50:1.0 3732:1.0 265:1.0 120:1.0 19:1.0 20:2.0 
28.609042441080813 203:1.0 3733:1.0 2900:1.0 61:1.0 381:1.0 242:3.0 3734:1.0 41:1.0 2254:1.0 1816:1.0 1689:1.0 60:1.0 366:1.0 1259:1.0 257:1.0 20:1.0 3735:1.0 218:1.0 3736:1.0 66:1.0 2742:1.0 3737:1.0 3738:1.0 1495:1.0 2381:1.0 11:1.0 579:1.0 50:2.0 79:1.0 3739:1.0 114:1.0 3112:1.0 448:1.0 112:1.0 4:1.0 
16.140151363578212 355:2.0 1632:2.0 203:2.0 777:2.0 3293:2.0 55:2.0 365:2.0 187:2.0 3740:1.0 3741:3.0 40:2.0 115:2.0 199:2.0 3742:1.0 369:1.0 1:1.0 9:2.0 3743:1.0 799:1.0 155:1.0 3744:1.0 4:1.0 3745:1.0 3502:1.0 3181:1.0 2859:1.0 519:1.0 3746:1.0 227:1.0 423:1.0 145:1.0 986:1.0 1399:1.0 81:1.0 249:1.0 41:1.0 0:1.0 514:1.0 114:1.0 3747:1.0 1178:1.0 1843:1.0 1253:1.0 462:1.0 190:1.0 
20.050816129002506 3762:1.0 2629:1.0 3763:1.0 3764:1.0 40:2.0 123:1.0 0:2.0 33:1.0 3765:1.0 187:1.0 52:2.0 203:2.0 3766:2.0 261:1.0 3767:1.0 344:2.0 3733:1.0 255:1.0 1710:1.0 1217:1.0 3768:1.0 1319:1.0 3769:1.0 1495:1.0 2381:1.0 3770:1.0 41:1.0 50:1.0 519:1.0 518:1.0 3771:1.0 2851:1.0 58:1.0 3746:1.0 4:1.0 
21.76877354140424 143:2.0 153:2.0 3775:2.0 152:1.0 312:1.0 1634:1.0 1734:1.0 1322:2.0 253:1.0 275:1.0 4:3.0 123:1.0 865:1.0 114:2.0 482:1.0 462:2.0 33:2.0 1328:3.0 3776:1.0 3777:1.0 1856:1.0 1319:2.0 81:1.0 11:1.0 597:1.0 124:1.0 3778:1.0 71:1.0 127:1.0 3779:1.0 3780:1.0 3597:1.0 255:1.0 41:1.0 
55.77214745404643 3770:1.0 1619:1.0 1302:1.0 1369:1.0 651:1.0 3790:1.0 3791:1.0 1770:1.0 3792:1.0 3183:1.0 3793:1.0 81:1.0 3733:1.0 4:1.0 
15.248618192474483 1364:1.0 89:12.0 91:1.0 1626:1.0 98:9.0 1311:1.0 95:10.0 1299:2.0 419:2.0 86:7.0 1441:1.0 409:1.0 1292:2.0 1293:3.0 1572:3.0 563:9.0 1070:6.0 40:3.0 1486:1.0 93:2.0 97:1.0 1394:1.0 1310:1.0 87:1.0 2339:2.0 75:1.0 148:1.0 295:1.0 178:1.0 654:1.0 3794:1.0 1365:1.0 88:2.0 1065:1.0 1636:1.0 1442:2.0 17:2.0 18:2.0 1583:1.0 242:1.0 3795:1.0 243:1.0 
90.0 3635:1.0 3636:1.0 243:1.0 344:1.0 2579:1.0 864:1.0 1711:1.0 
84.42127624543242 3796:1.0 205:1.0 40:1.0 17:1.0 0:1.0 1830:1.0 505:1.0 412:1.0 69:1.0 
90.0 67:1.0 2557:1.0 9:1.0 2420:1.0 3797:1.0 
10.033129124125427 1674:1.0 940:4.0 0:1.0 71:1.0 3798:1.0 661:9.0 662:9.0 107:9.0 663:9.0 75:1.0 50:3.0 3799:1.0 40:1.0 152:2.0 3800:1.0 1537:1.0 242:1.0 9:2.0 2923:1.0 1429:1.0 2498:1.0 2336:1.0 1349:3.0 1318:1.0 1206:1.0 141:1.0 809:1.0 892:2.0 986:1.0 1185:1.0 658:2.0 1039:1.0 994:1.0 15:1.0 184:1.0 760:1.0 3801:1.0 3802:1.0 2516:1.0 3803:1.0 1035:1.0 1857:2.0 3804:1.0 3500:1.0 124:1.0 219:2.0 80:1.0 966:1.0 674:1.0 1030:1.0 560:1.0 3805:1.0 2444:1.0 62:1.0 4:1.0 
65.31723843664551 3806:1.0 205:1.0 6:2.0 5:1.0 155:1.0 3807:1.0 143:1.0 153:1.0 2765:1.0 
70.53496035714555 3808:1.0 40:1.0 3809:1.0 155:1.0 3376:1.0 11:1.0 793:1.0 407:1.0 1848:1.0 462:1.0 4:1.0 
5.8677362064983125 1441:3.0 86:8.0 98:5.0 1067:1.0 95:4.0 93:5.0 1068:1.0 12:1.0 538:1.0 3810:1.0 1065:4.0 1371:1.0 1569:1.0 89:5.0 563:3.0 1303:1.0 1635:1.0 1639:1.0 92:1.0 1436:1.0 1570:2.0 4:2.0 1771:1.0 178:1.0 409:1.0 1310:1.0 1651:1.0 1307:1.0 91:2.0 2922:1.0 2331:1.0 1302:2.0 96:1.0 391:1.0 
30.325055213914435 1046:1.0 538:1.0 3811:1.0 52:2.0 152:1.0 3376:1.0 40:1.0 966:1.0 674:1.0 3812:1.0 81:1.0 486:1.0 1144:2.0 1168:1.0 968:1.0 83:2.0 3530:1.0 50:1.0 3813:1.0 141:1.0 215:1.0 1413:1.0 3814:1.0 3525:1.0 165:1.0 6:1.0 
23.254519107590152 237:1.0 1518:1.0 407:1.0 40:1.0 914:1.0 768:1.0 83:1.0 67:1.0 3376:1.0 4:1.0 183:1.0 253:2.0 317:2.0 1718:1.0 32:1.0 1168:1.0 3815:1.0 157:1.0 850:1.0 52:1.0 273:1.0 261:1.0 3038:1.0 530:1.0 
36.56104456804452 122:1.0 181:1.0 157:1.0 1004:1.0 76:1.0 9:2.0 1349:2.0 3816:2.0 40:2.0 3817:1.0 3818:1.0 75:1.0 1185:1.0 1857:1.0 11:1.0 2765:1.0 743:1.0 34:1.0 4:1.0 
51.6580531576526 237:1.0 145:1.0 3819:1.0 83:1.0 2057:1.0 79:1.0 270:1.0 3820:1.0 1948:1.0 155:1.0 3376:1.0 4:1.0 
64.1313990926499 1444:1.0 1349:1.0 1871:1.0 1861:1.0 3821:1.0 6:2.0 227:1.0 141:1.0 1188:1.0 1528:1.0 237:1.0 1806:1.0 
62.07067349050614 12:1.0 9:1.0 190:1.0 2088:1.0 1252:1.0 52:1.0 3664:1.0 3317:1.0 3822:1.0 14:1.0 61:1.0 3376:1.0 4:1.0 
90.0 1857:1.0 222:1.0 332:1.0 3823:1.0 4:1.0 
37.25676333578469 2643:1.0 245:1.0 9:1.0 63:1.0 190:1.0 128:1.0 3850:1.0 158:1.0 3844:1.0 161:1.0 191:1.0 219:1.0 122:1.0 144:1.0 613:1.0 1272:1.0 462:1.0 31:2.0 6:1.0 
40.14253257087046 3466:1.0 52:2.0 922:2.0 1088:1.0 189:1.0 824:1.0 3851:1.0 1472:1.0 335:1.0 0:1.0 369:1.0 225:1.0 3079:1.0 3852:1.0 
50.40265286730067 1193:1.0 967:1.0 1472:1.0 2723:1.0 189:1.0 824:1.0 1701:1.0 3851:1.0 4:2.0 3853:1.0 120:1.0 
19.17999827200576 327:1.0 1272:2.0 11:2.0 298:1.0 181:1.0 41:1.0 1042:1.0 40:3.0 17:1.0 369:1.0 2484:2.0 141:1.0 1938:2.0 1009:1.0 3854:1.0 4:2.0 0:2.0 423:1.0 144:1.0 131:1.0 8:1.0 3855:1.0 158:3.0 3856:1.0 249:1.0 3857:1.0 873:2.0 3858:1.0 12:1.0 682:1.0 778:1.0 215:1.0 
61.58338290508159 381:1.0 219:1.0 1800:1.0 40:2.0 1172:1.0 3859:1.0 3860:1.0 145:1.0 425:1.0 
87.81385422743007 3450:1.0 1842:2.0 11:1.0 1690:1.0 3329:1.0 40:1.0 
18.251709056820115 1676:1.0 95:4.0 178:1.0 2922:1.0 563:1.0 1339:1.0 2551:1.0 1842:1.0 40:1.0 75:1.0 3474:1.0 3865:1.0 651:1.0 86:2.0 37:1.0 1582:1.0 759:1.0 89:1.0 561:1.0 2224:1.0 1574:1.0 1125:1.0 6:1.0 
90.0 3866:1.0 967:1.0 1472:1.0 189:1.0 824:1.0 1701:1.0 3851:1.0 
90.0 3329:1.0 190:1.0 11:1.0 967:1.0 1472:1.0 282:1.0 3867:1.0 112:1.0 
58.816732466355546 3048:1.0 155:1.0 825:1.0 3868:1.0 83:1.0 3660:1.0 81:1.0 967:1.0 1472:1.0 76:1.0 786:1.0 664:1.0 4:1.0 
90.0 1054:1.0 279:1.0 1272:1.0 895:1.0 365:1.0 
-90.0 116:1.0 117:1.0 118:1.0 119:1.0 120:1.0 40:1.0 75:1.0 9:1.0 121:1.0 122:1.0 123:1.0 50:1.0 124:1.0 125:1.0 
-90.0 158:1.0 179:1.0 43:1.0 0:1.0 180:1.0 66:1.0 181:1.0 
-25.457296272570982 155:2.0 184:1.0 195:1.0 40:5.0 196:1.0 197:1.0 181:1.0 198:1.0 199:2.0 41:1.0 200:1.0 201:1.0 124:1.0 202:1.0 4:3.0 125:1.0 50:1.0 136:1.0 203:3.0 204:1.0 205:1.0 206:1.0 207:1.0 208:1.0 209:1.0 114:1.0 21:1.0 210:1.0 71:2.0 211:1.0 212:1.0 213:1.0 214:1.0 84:1.0 215:1.0 216:1.0 112:1.0 217:1.0 218:1.0 66:1.0 58:1.0 
-90.0 219:2.0 220:1.0 221:1.0 222:1.0 75:1.0 9:1.0 223:1.0 45:1.0 224:1.0 4:1.0 
-90.0 225:1.0 226:1.0 152:1.0 227:1.0 66:1.0 228:1.0 229:1.0 230:1.0 148:1.0 231:1.0 232:1.0 60:1.0 233:1.0 234:1.0 20:1.0 
-90.0 235:1.0 236:1.0 69:1.0 4:1.0 
-90.0 283:1.0 81:1.0 284:1.0 285:1.0 157:1.0 286:1.0 287:1.0 45:1.0 40:1.0 288:1.0 289:1.0 290:1.0 291:1.0 153:1.0 292:2.0 17:1.0 49:1.0 4:1.0 
-37.83324998863579 298:1.0 131:1.0 237:2.0 40:3.0 257:1.0 301:1.0 302:1.0 2:1.0 303:1.0 145:1.0 190:1.0 304:1.0 9:2.0 305:1.0 306:1.0 77:1.0 53:1.0 4:4.0 288:1.0 246:2.0 8:2.0 120:1.0 76:1.0 307:1.0 308:1.0 52:1.0 152:1.0 309:1.0 310:1.0 311:1.0 11:1.0 312:1.0 14:1.0 313:1.0 314:1.0 315:1.0 33:1.0 316:1.0 63:1.0 317:1.0 318:1.0 
-90.0 319:1.0 190:1.0 205:1.0 112:1.0 14:1.0 320:1.0 32:1.0 228:1.0 321:1.0 235:1.0 322:1.0 4:1.0 323:1.0 141:1.0 108:1.0 324:1.0 81:1.0 67:1.0 
-11.128911416204186 361:2.0 355:2.0 362:2.0 45:2.0 339:2.0 40:8.0 164:1.0 363:1.0 364:2.0 13:2.0 365:2.0 366:1.0 367:2.0 368:2.0 112:1.0 369:3.0 370:2.0 371:1.0 372:1.0 373:1.0 4:1.0 374:1.0 205:1.0 322:1.0 375:1.0 124:1.0 376:1.0 122:1.0 141:1.0 377:1.0 19:1.0 20:2.0 
-90.0 397:1.0 310:1.0 398:1.0 112:1.0 399:1.0 400:1.0 83:1.0 401:1.0 58:1.0 402:1.0 143:1.0 403:1.0 181:1.0 4:1.0 
-90.0 246:1.0 43:1.0 41:1.0 247:1.0 114:1.0 407:1.0 11:1.0 404:1.0 408:1.0 81:1.0 409:1.0 410:1.0 32:1.0 411:1.0 4:1.0 
-90.0 415:1.0 416:1.0 387:1.0 40:1.0 417:1.0 50:1.0 418:1.0 419:1.0 420:1.0 421:1.0 422:1.0 4:3.0 
-90.0 404:1.0 43:1.0 423:1.0 424:1.0 76:1.0 425:1.0 426:1.0 120:1.0 
-90.0 359:1.0 427:1.0 
-90.0 16:1.0 128:2.0 449:1.0 450:1.0 205:1.0 40:1.0 124:1.0 438:1.0 451:1.0 251:1.0 452:1.0 453:1.0 404:1.0 454:1.0 429:1.0 261:1.0 455:1.0 456:1.0 
-90.0 16:1.0 412:1.0 404:1.0 457:1.0 458:1.0 459:1.0 355:1.0 253:1.0 93:1.0 227:1.0 153:1.0 416:1.0 112:1.0 413:1.0 460:1.0 414:1.0 461:1.0 255:2.0 40:1.0 288:1.0 246:1.0 43:1.0 33:1.0 450:1.0 462:1.0 463:1.0 
-43.01191611873463 416:1.0 205:2.0 40:4.0 464:1.0 298:2.0 29:1.0 412:2.0 0:1.0 465:1.0 414:1.0 466:1.0 323:1.0 404:1.0 310:1.0 429:1.0 219:1.0 9:1.0 45:1.0 16:1.0 449:1.0 128:1.0 438:1.0 379:1.0 443:1.0 467:1.0 468:1.0 74:1.0 
-84.30603700635326 469:2.0 470:1.0 14:1.0 471:1.0 83:1.0 472:1.0 67:1.0 41:1.0 473:1.0 474:1.0 475:2.0 476:2.0 0:1.0 477:1.0 478:1.0 4:3.0 12:1.0 479:1.0 381:1.0 391:1.0 392:1.0 261:1.0 43:1.0 6:1.0 
-72.48741030900763 480:1.0 481:1.0 0:1.0 482:1.0 219:1.0 4:1.0 184:1.0 50:2.0 67:1.0 483:1.0 484:1.0 238:1.0 81:1.0 485:2.0 384:1.0 486:1.0 487:1.0 488:1.0 43:1.0 9:1.0 489:1.0 120:1.0 182:1.0 40:1.0 490:1.0 261:1.0 491:1.0 492:1.0 18:2.0 
-90.0 246:2.0 43:2.0 33:1.0 531:1.0 37:1.0 9:1.0 532:1.0 335:1.0 533:1.0 534:1.0 535:1.0 536:1.0 50:1.0 249:1.0 537:1.0 538:1.0 112:1.0 6:1.0 423:1.0 507:1.0 145:1.0 74:1.0 40:1.0 515:1.0 516:1.0 4:1.0 
-90.0 5:1.0 522:1.0 6:1.0 562:1.0 560:1.0 563:1.0 
-59.5235461213567 564:1.0 50:1.0 519:2.0 520:1.0 75:1.0 565:2.0 507:1.0 369:1.0 122:1.0 566:1.0 472:1.0 544:1.0 410:1.0 74:1.0 12:1.0 567:1.0 190:1.0 568:1.0 11:1.0 569:1.0 570:1.0 571:1.0 572:1.0 573:1.0 14:1.0 130:1.0 574:1.0 355:1.0 575:1.0 576:1.0 462:1.0 577:1.0 71:1.0 238:1.0 29:1.0 578:1.0 
-90.0 0:1.0 579:1.0 580:1.0 40:1.0 82:1.0 13:1.0 128:1.0 581:1.0 582:1.0 83:1.0 384:1.0 583:1.0 540:1.0 6:1.0 
-90.0 5:1.0 522:1.0 11:1.0 394:1.0 395:1.0 584:1.0 585:1.0 6:1.0 
-90.0 586:1.0 49:1.0 191:1.0 587:1.0 163:1.0 588:1.0 589:1.0 17:1.0 365:1.0 590:1.0 4:1.0 591:1.0 141:1.0 79:1.0 592:1.0 50:1.0 355:1.0 593:1.0 594:1.0 
-90.0 219:1.0 645:1.0 122:1.0 14:2.0 181:1.0 325:1.0 646:1.0 49:1.0 
-29.680090916636566 223:1.0 295:1.0 647:1.0 89:7.0 648:1.0 649:1.0 96:2.0 40:1.0 650:1.0 98:3.0 181:1.0 651:1.0 86:1.0 652:1.0 653:1.0 97:1.0 654:1.0 655:1.0 4:1.0 
-40.633069026759806 227:1.0 50:2.0 656:1.0 81:2.0 657:2.0 11:1.0 658:1.0 76:1.0 71:1.0 659:1.0 660:2.0 43:1.0 19:2.0 661:2.0 662:2.0 107:2.0 663:2.0 44:4.0 508:1.0 664:1.0 665:1.0 184:1.0 666:1.0 667:1.0 668:1.0 79:1.0 4:1.0 49:1.0 669:1.0 40:1.0 48:1.0 670:1.0 671:1.0 8:1.0 
-34.6895824976716 165:1.0 735:1.0 736:1.0 737:1.0 738:1.0 739:2.0 740:2.0 741:2.0 123:1.0 11:1.0 575:4.0 742:1.0 743:1.0 9:2.0 744:2.0 745:1.0 746:2.0 747:1.0 40:1.0 43:1.0 405:1.0 748:1.0 749:1.0 41:1.0 322:1.0 4:2.0 750:1.0 751:1.0 481:1.0 58:1.0 752:1.0 207:1.0 573:1.0 753:1.0 369:1.0 315:1.0 6:1.0 754:1.0 755:1.0 
-90.0 770:1.0 71:1.0 9:1.0 771:1.0 389:1.0 772:1.0 6:1.0 
-90.0 379:1.0 385:1.0 775:1.0 776:1.0 205:1.0 777:1.0 778:1.0 779:1.0 780:1.0 81:1.0 355:1.0 242:1.0 4:1.0 
-90.0 800:1.0 124:1.0 801:1.0 9:1.0 802:1.0 31:2.0 4:1.0 475:1.0 
-1.1730261903963946 808:1.0 809:1.0 810:1.0 50:2.0 811:1.0 812:1.0 83:3.0 813:2.0 560:1.0 814:1.0 219:2.0 815:1.0 41:2.0 40:7.0 12:1.0 0:2.0 138:1.0 245:1.0 423:3.0 816:1.0 148:2.0 817:1.0 66:1.0 818:1.0 510:1.0 819:1.0 4:3.0 661:1.0 662:1.0 107:1.0 663:1.0 820:1.0 61:1.0 9:2.0 821:1.0 822:1.0 518:1.0 823:1.0 58:1.0 52:3.0 317:2.0 221:1.0 738:1.0 824:1.0 381:3.0 825:1.0 826:1.0 827:1.0 828:1.0 829:1.0 19:1.0 762:1.0 830:1.0 831:1.0 298:3.0 832:1.0 392:1.0 833:1.0 834:1.0 526:1.0 741:2.0 173:2.0 129:1.0 60:2.0 835:1.0 20:2.0 122:2.0 836:1.0 837:2.0 838:3.0 839:2.0 840:5.0 841:2.0 842:1.0 843:1.0 844:1.0 845:1.0 384:1.0 140:3.0 391:1.0 846:1.0 191:2.0 847:1.0 114:1.0 848:1.0 369:2.0 849:1.0 850:1.0 851:1.0 533:1.0 487:1.0 53:1.0 852:1.0 710:1.0 853:1.0 75:1.0 257:1.0 49:2.0 854:1.0 542:1.0 652:1.0 855:1.0 856:1.0 857:1.0 858:1.0 859:1.0 860:1.0 861:1.0 473:1.0 81:1.0 223:1.0 862:1.0 227:1.0 71:1.0 475:2.0 476:2.0 863:1.0 864:1.0 865:1.0 207:1.0 866:1.0 
-90.0 867:1.0 526:1.0 41:1.0 190:1.0 320:1.0 261:1.0 870:1.0 871:1.0 69:1.0 18:1.0 872:1.0 873:1.0 874:1.0 607:2.0 4:1.0 
-90.0 886:1.0 887:1.0 47:1.0 
-90.0 888:1.0 218:1.0 560:1.0 776:1.0 257:1.0 148:1.0 801:1.0 4:1.0 
-90.0 410:1.0 14:1.0 320:1.0 897:1.0 567:1.0 11:1.0 668:1.0 219:1.0 898:1.0 9:1.0 899:1.0 71:1.0 900:1.0 414:1.0 901:1.0 41:1.0 
-90.0 919:1.0 920:1.0 
-40.132978190282984 390:1.0 50:2.0 855:1.0 925:1.0 205:1.0 40:3.0 926:1.0 325:1.0 365:1.0 112:1.0 17:1.0 0:1.0 141:1.0 518:2.0 927:1.0 840:1.0 58:1.0 553:1.0 928:1.0 9:2.0 11:1.0 76:1.0 71:1.0 128:1.0 245:1.0 191:2.0 929:1.0 930:1.0 931:1.0 369:1.0 122:1.0 932:1.0 643:1.0 933:1.0 
-90.0 405:1.0 293:1.0 946:1.0 322:1.0 41:1.0 947:1.0 948:1.0 19:1.0 560:1.0 20:1.0 
-90.0 970:1.0 40:2.0 53:1.0 971:1.0 972:1.0 32:1.0 973:1.0 365:1.0 261:1.0 974:1.0 384:1.0 
-90.0 995:1.0 0:1.0 723:1.0 996:1.0 148:1.0 311:1.0 
